//Numpy array shape (128, 32)
//Min -1.292654514313
//Max 2.563582420349
//Number of zeros 0

#ifndef LSTM_RECURRENT_KERNEL_H_
#define LSTM_RECURRENT_KERNEL_H_

#ifndef __SYNTHESIS__
model_default_t lstm_recurrent_kernel[4096];
#else
model_default_t lstm_recurrent_kernel[4096] = {0.3833473026752472, -0.04914441332221031, -0.027545368298888206, 0.037166524678468704, -0.25946351885795593, 0.19061139225959778, 0.13299967348575592, 0.08413773030042648, 0.15965722501277924, -0.10464153438806534, -0.06825137138366699, 0.26281338930130005, -0.01866786740720272, 0.1271619349718094, 0.2084234058856964, -0.0634341612458229, 0.14048659801483154, 0.14162056148052216, 0.14343227446079254, 0.2296670824289322, 0.09969528764486313, -0.4231507182121277, 0.06188767030835152, -0.047075845301151276, -0.25562310218811035, 0.14710813760757446, -0.362600177526474, 0.08589450269937515, 0.0036084959283471107, 0.12371496856212616, -0.13004480302333832, 0.32015109062194824, -0.036575887352228165, -0.1907993108034134, -0.04755562171339989, -0.14049579203128815, 0.5335040092468262, 0.20828723907470703, 0.06280349940061569, -0.1160043478012085, 0.190398171544075, 0.42078572511672974, 0.21319624781608582, 0.7419342994689941, 0.15922951698303223, -0.07790837436914444, 0.08548689633607864, 0.016602788120508194, -0.38105878233909607, -0.04280855506658554, 0.05861259251832962, -0.06609352678060532, -0.31947430968284607, 0.36156976222991943, -0.6880401372909546, 0.3579446077346802, 0.14493077993392944, 0.05210230126976967, 0.4988080859184265, -0.09719633311033249, -0.04667438194155693, 0.00588228227570653, -0.05579879879951477, 0.019640397280454636, 0.3506205081939697, -0.07545539736747742, -0.1916120946407318, -0.10085463523864746, -0.1042100191116333, -0.07546762377023697, -0.008131343871355057, 0.14450664818286896, 0.15521594882011414, -0.38738274574279785, 0.013440156355500221, 0.06124957650899887, 0.018585460260510445, -0.04576179012656212, -0.19763833284378052, 0.0802609771490097, 0.05730561167001724, 0.1101623922586441, -0.15084612369537354, 0.34862464666366577, 0.4414632022380829, -0.23736506700515747, 0.04341920092701912, -0.07698725908994675, -0.09399229288101196, 0.02257370762526989, -0.2165413200855255, -0.21153128147125244, 0.07221387326717377, 0.13193325698375702, 0.11643057316541672, 0.21353283524513245, 0.33852991461753845, 0.09770044684410095, 0.001065683551132679, -0.07336334139108658, -0.15689554810523987, 0.26091715693473816, 0.19524140655994415, -0.29499873518943787, 0.07053883373737335, 0.08969248086214066, 0.24736987054347992, -0.0009379158727824688, -0.001262795296497643, -0.08455316722393036, -0.19068334996700287, 0.19113706052303314, -0.4406546354293823, 0.1827918291091919, -0.1295977234840393, -0.136984184384346, -0.3434069752693176, 0.09614177793264389, -0.1034313291311264, -0.060553502291440964, 0.23806260526180267, 0.41623806953430176, 0.1848435252904892, -0.057005420327186584, 0.1244087666273117, 0.16080372035503387, -0.16683685779571533, 0.0955837219953537, 0.06892894208431244, 0.34587472677230835, -0.19577790796756744, -0.08477052301168442, -0.04974471777677536, 0.14587394893169403, 0.1532658040523529, -0.13530099391937256, 0.07475214451551437, 0.18848076462745667, 0.3664974570274353, -0.09461158514022827, -0.13516922295093536, -0.1086869090795517, -0.21052312850952148, 0.6368392705917358, 0.09980633109807968, -0.028790539130568504, -0.4148440361022949, -0.03207467123866081, 0.03830680996179581, 0.25889766216278076, -0.36044076085090637, 0.01757954992353916, -0.03124346397817135, 0.008483794517815113, 0.2081054002046585, 0.09918810427188873, 0.13037219643592834, -0.01181765552610159, -0.21452565491199493, 0.25387534499168396, -0.10578528046607971, -0.07246103882789612, 0.239863321185112, 0.09270989894866943, -0.03303733468055725, 0.5262778401374817, 0.3548748195171356, -0.03511763736605644, 0.11850900948047638, 0.2704685926437378, -0.1458199918270111, 0.5591702461242676, 0.2448258101940155, 0.013617105782032013, 0.18518055975437164, -0.3569868206977844, -0.4068477153778076, 0.4287702739238739, 0.032705262303352356, -0.05721498280763626, 0.012022897601127625, -0.05185478925704956, 0.2687877118587494, -0.2025359570980072, -0.11576146632432938, 0.1665794402360916, -0.19059084355831146, 0.05561404675245285, -0.120785191655159, 0.2834530472755432, 0.29594987630844116, -0.2885139584541321, 0.08743146806955338, 0.02020862139761448, -0.22159788012504578, -0.2818869352340698, -0.09678376466035843, 0.09013164788484573, 0.4137565791606903, -0.45820990204811096, 0.1287722885608673, 0.061092559248209, 0.10738204419612885, 0.7045144438743591, 0.12269286066293716, -0.010614742524921894, -0.022424472495913506, -0.07107063382863998, -0.03036455251276493, -0.028306305408477783, -0.24414579570293427, -0.30554744601249695, -0.08182026445865631, 0.007135779596865177, -0.06448395550251007, -0.3793519139289856, 0.18659177422523499, 0.35692304372787476, 0.14681920409202576, 0.24511177837848663, 0.03694329038262367, 0.22860142588615417, -0.19291485846042633, -0.22524400055408478, -0.00040189424180425704, -0.010352636687457561, -0.003918827977031469, 0.1971939653158188, 0.014647320844233036, 0.08374808728694916, 0.02144891768693924, -0.06526890397071838, 0.04378172755241394, 0.04294067248702049, 0.12804144620895386, 0.5781869292259216, -0.32826870679855347, -0.15933282673358917, 0.24344731867313385, 0.10877139121294022, -0.04224706068634987, -0.4011729657649994, 0.03643475100398064, -0.43333062529563904, 0.06683934479951859, 0.11368501931428909, -0.08437488228082657, 0.05233772099018097, 0.056417036801576614, 0.022094601765275, 0.511833131313324, 0.227391317486763, 0.12184052169322968, -0.3224768042564392, -0.029960691928863525, 0.288800448179245, -0.00984142441302538, -0.5698703527450562, -0.5640920996665955, -0.42292866110801697, -0.13548660278320312, 0.1996494084596634, 0.1869359016418457, -0.5332892537117004, 0.5187010169029236, 0.02333669364452362, 0.26260218024253845, 0.43500664830207825, 0.31158211827278137, -0.08420184254646301, 0.3428089916706085, 0.1848895102739334, -0.22326557338237762, 0.15646399557590485, -0.48740896582603455, 0.06428308039903641, -0.17692288756370544, 0.3364056348800659, -0.4933188557624817, -0.41813796758651733, -0.04902412369847298, 0.8255254626274109, -0.2210862934589386, 0.05839625746011734, -0.16676543653011322, 0.41593724489212036, -0.027212588116526604, -0.14981500804424286, 0.11679637432098389, 0.2697247266769409, 0.08405294269323349, -0.12964601814746857, -0.2018103450536728, 0.08468754589557648, 0.06590300798416138, -0.21022562682628632, -0.13603605329990387, 0.07175477594137192, 0.2229296863079071, -0.3231728672981262, 0.1855131834745407, 0.2230331301689148, -0.24216538667678833, 0.20644615590572357, -0.0006845779134891927, 0.16113685071468353, -0.056311849504709244, -0.04254978522658348, -0.007987260818481445, 0.0387713648378849, 0.08169618993997574, -0.21919038891792297, 0.10898040235042572, 0.10315318405628204, -0.18118059635162354, 0.0918382778763771, 0.11827005445957184, 0.12121892720460892, 0.023025812581181526, 0.17224179208278656, -0.14760392904281616, 0.09147182106971741, -0.05602078512310982, 0.027323797345161438, 0.02684011496603489, -0.10081981122493744, 0.022943735122680664, -0.08896242082118988, 0.13376069068908691, 0.03469622880220413, 0.13003388047218323, 0.21170401573181152, -0.1933218389749527, -0.14608719944953918, -0.05910966172814369, 0.11217097193002701, 0.017510395497083664, -0.010116316378116608, 0.10615290701389313, -0.2754472494125366, -0.23513776063919067, -0.15192434191703796, 0.12404872477054596, -0.0015088871587067842, -0.10307002812623978, 0.0325324647128582, 0.23516754806041718, 0.07615737617015839, 0.1633967161178589, -0.05234626680612564, -0.05718185380101204, -0.014590566977858543, 2.264941692352295, 0.46861812472343445, -0.07348961383104324, -0.9564697742462158, -0.02260851114988327, 0.5912782549858093, -0.08244103938341141, -0.1925981640815735, 0.011888325214385986, -0.7608838081359863, -0.15187235176563263, -0.4679373800754547, 0.6081964373588562, -0.0693737044930458, 0.048934850841760635, 0.7453650236129761, -0.5605059266090393, 0.33496853709220886, 0.16119404137134552, -0.28866568207740784, -0.6482848525047302, -0.9553288817405701, -0.6425670981407166, 0.12890557944774628, 0.3985760807991028, 0.7593249082565308, -0.007603776641190052, 0.4223601818084717, 0.3405461609363556, -0.03274276852607727, 0.48050326108932495, 0.5590085387229919, 0.24762852489948273, 0.12312042713165283, -0.3201962113380432, -0.5050266981124878, -0.7500613927841187, 0.2573908865451813, 0.24496342241764069, -0.2408258020877838, -0.021427687257528305, -0.374416321516037, 0.3147784471511841, -0.009829895570874214, 0.0929151251912117, -0.23653531074523926, 0.002176840789616108, 0.027885250747203827, -0.389300137758255, 0.04824676364660263, -0.30529892444610596, -0.404898077249527, -0.2172519862651825, -0.25659486651420593, -0.49878931045532227, 0.25571420788764954, -0.17130745947360992, 0.40234753489494324, 0.36624085903167725, 0.2389892190694809, -0.21716663241386414, -0.07522039860486984, -0.07724525034427643, 0.10631489008665085, 0.09115535020828247, 0.031102586537599564, 0.042233724147081375, -0.2745969593524933, -0.056059330701828, 0.07332247495651245, 0.0716983824968338, -0.1292380690574646, 0.04585275053977966, -0.14248859882354736, 0.21109548211097717, 0.15766075253486633, -0.04574001953005791, -0.07027611881494522, 0.06460307538509369, 0.11069741100072861, -0.09205003827810287, 0.37160107493400574, -0.20901638269424438, -0.04250276833772659, -0.060531217604875565, -0.10254746675491333, -0.13242927193641663, -0.004121596924960613, 0.009760934859514236, 0.35485365986824036, 0.10119186341762543, -0.036114707589149475, 0.07178445905447006, 0.10350272059440613, 0.18269050121307373, -0.021569833159446716, 0.08130399137735367, -0.09512432664632797, -0.46440884470939636, 0.056884054094552994, 0.12985585629940033, 0.3241923153400421, 0.23771844804286957, 0.09939407557249069, 0.4837009906768799, -0.03125130012631416, 0.2844107151031494, 0.3088380992412567, 0.2849409878253937, 0.08472221344709396, 0.005427785683423281, 0.04754224792122841, -0.3326108455657959, 0.1636248081922531, -0.1351868063211441, 0.03932774066925049, 0.24040919542312622, 0.18827439844608307, -0.031830333173274994, -0.10394591838121414, 0.2868630886077881, 0.020224887877702713, -0.11537104099988937, 0.12394971400499344, 0.13487710058689117, 0.209141343832016, -0.13157589733600616, -0.03751756250858307, 0.15963079035282135, -0.2801871597766876, -0.07444871962070465, -0.40615057945251465, -0.25626668334007263, 0.06662418693304062, 0.09777753800153732, -0.404690146446228, 0.29294443130493164, -0.33012670278549194, -0.17659731209278107, -0.23036688566207886, -0.11563610285520554, -0.0912637859582901, 0.24225398898124695, 0.0518292598426342, -0.30152806639671326, 0.24441994726657867, -0.11776622384786606, 0.2768658995628357, 0.05661269277334213, -0.2986266016960144, -0.07535342872142792, -0.05388062074780464, -0.41692203283309937, 0.42903444170951843, 0.147201269865036, 0.2660495936870575, -0.09680934250354767, 0.26622411608695984, 0.19830001890659332, -0.11787764728069305, 0.22533327341079712, -0.5848005414009094, -0.07133929431438446, -0.19533729553222656, 0.06435594707727432, 0.09475266933441162, 0.1303144246339798, -0.19133715331554413, 0.05920347943902016, -0.2948038578033447, -0.1446073353290558, -0.37611624598503113, -0.10754093527793884, 0.01318439468741417, 0.3272625207901001, -0.12681196630001068, -0.0493144616484642, 0.5221071839332581, -0.04584589600563049, 0.3612383008003235, 0.07558941096067429, -0.1115453913807869, 0.2817138433456421, -0.011347352527081966, -0.19663138687610626, 0.6004897952079773, -0.42830583453178406, 0.4298967123031616, 0.37906739115715027, 0.22566018998622894, -0.025212828069925308, -0.3745408058166504, -0.032366637140512466, 0.046934355050325394, -0.07226201146841049, -0.2831133008003235, 0.21823294460773468, 0.45428189635276794, 0.22923873364925385, -0.04847845435142517, 0.20837777853012085, -0.16982895135879517, 0.03563079982995987, 0.11976293474435806, 0.11923045665025711, 0.12790054082870483, -0.017194334417581558, -0.16945581138134003, -0.5028430819511414, 0.2054571509361267, -0.17308911681175232, 0.017177529633045197, 0.30389055609703064, -0.01636570505797863, -0.20509754121303558, -0.19526708126068115, -0.028183573856949806, 0.2515053153038025, -0.008066327311098576, 0.10611474514007568, -0.22510215640068054, 0.34523680806159973, 0.3181741535663605, 0.015706349164247513, 0.13375017046928406, -0.12373810261487961, -0.06735045462846756, -0.16152246296405792, 0.4272767901420593, 0.3917756676673889, -0.07116864621639252, -0.0016533068846911192, -0.08544015884399414, -0.2658318281173706, -0.10484831035137177, 0.07710804790258408, 0.18097710609436035, 0.09578857570886612, 0.15715983510017395, -0.022234883159399033, -0.11776785552501678, 0.09113409370183945, -0.1063784807920456, 0.18706856667995453, -0.1708899736404419, -0.3375278413295746, 0.07883457094430923, -0.02249852567911148, 0.13194823265075684, 0.049150463193655014, -0.12102722376585007, -0.07590612024068832, -0.18845918774604797, 0.31491783261299133, -0.07984986156225204, -0.11707790940999985, 0.10734805464744568, -0.04960918053984642, -0.11721254140138626, -0.12056105583906174, 0.04441693425178528, 0.021372079849243164, 0.26908743381500244, -0.04443778097629547, 0.14708620309829712, 0.10393217206001282, 0.13243068754673004, -0.1349894106388092, -0.30098289251327515, -0.20051702857017517, 0.16013140976428986, 0.3127219080924988, 0.07769980281591415, 0.15144263207912445, -0.19650232791900635, -0.11955954879522324, 0.05895489454269409, -0.5853032469749451, -0.14338022470474243, -0.07503855228424072, 0.16134054958820343, -0.04335399344563484, 0.1532663106918335, -0.07110706716775894, 0.48013365268707275, 0.2817822992801666, 0.13489365577697754, 0.017180120572447777, 0.35976001620292664, -0.22169995307922363, -0.21406172215938568, -0.21124044060707092, -0.4966906011104584, 0.23391157388687134, 0.04613413289189339, -0.5865411758422852, -0.07220014929771423, -0.23333285748958588, 0.2980733811855316, 0.08109840005636215, 0.36886337399482727, -0.20371562242507935, 0.24776409566402435, -0.03043367527425289, -0.5706775784492493, 0.14687126874923706, -0.3153020143508911, 0.017657455056905746, -0.2564667761325836, 0.01702246069908142, -0.045813824981451035, -0.261929452419281, 0.42521387338638306, 0.03480694442987442, 0.14455659687519073, 0.26927778124809265, -0.05007420852780342, 0.22988812625408173, 0.24152712523937225, 0.32039910554885864, 0.05445330962538719, 0.050829872488975525, -0.05870252847671509, -0.2951338291168213, -0.26372843980789185, 0.3802185654640198, 0.13893234729766846, -0.12232118844985962, 0.2861354351043701, -0.17291668057441711, 0.14575091004371643, -0.6005534529685974, -0.20371510088443756, -0.11809846758842468, 0.09360410273075104, 0.27903270721435547, -0.6916613578796387, 0.24722367525100708, -0.06003834307193756, -0.30638840794563293, -0.04326150566339493, -0.07995256036520004, -0.30936941504478455, 0.04635903611779213, 0.2141670286655426, 0.43675294518470764, -0.06712283194065094, 0.2687559723854065, 0.18592284619808197, 0.06248900666832924, -0.11266279965639114, -0.3867366909980774, 0.16646285355091095, 0.055332839488983154, -0.08159766346216202, -0.329672247171402, -0.25814393162727356, 0.12248420715332031, 0.03332441300153732, -0.2816583812236786, -0.0332028865814209, -0.324604332447052, 0.20406316220760345, 0.26424840092658997, 0.11399182677268982, 0.202590212225914, 0.15703825652599335, 0.055600788444280624, -0.2940438687801361, -0.10740935802459717, -0.2684655785560608, -0.034701038151979446, -0.21939615905284882, 0.2828168272972107, -0.03691745176911354, 0.22380658984184265, -0.010425164364278316, 0.4307277202606201, 0.42571601271629333, 0.38668808341026306, -0.09293481707572937, -0.05754972621798515, -0.3187386691570282, -0.17544104158878326, 0.8157213926315308, 0.3580993711948395, -0.13974681496620178, -0.41066107153892517, -0.2457687258720398, 0.3215025067329407, 0.24156515300273895, -0.12161967158317566, 0.15906724333763123, 0.020229574292898178, 0.4902154505252838, -0.021930856630206108, 0.21620990335941315, -0.27592647075653076, 0.18512848019599915, 0.5523892641067505, -0.27286460995674133, 0.23353564739227295, 0.03169848024845123, 0.08194981515407562, -0.40852656960487366, 0.6198851466178894, -0.36044469475746155, -0.16392579674720764, -0.025544989854097366, 0.30191296339035034, 0.33357974886894226, 0.3021070659160614, 0.00034129215055145323, 0.35308563709259033, -0.029862815514206886, 0.07548332214355469, 0.1852111965417862, 0.1412668377161026, -0.04190504923462868, -0.16528470814228058, 0.056979790329933167, -0.02038896270096302, 0.1917337328195572, -0.040932293981313705, 0.06562390178442001, -0.14334657788276672, 0.19521275162696838, -0.28984659910202026, 0.08940410614013672, -0.26025208830833435, 0.17688018083572388, -0.2444669008255005, -0.19035938382148743, 0.12714974582195282, -0.0037273711059242487, -0.010556889697909355, -0.11285228282213211, -0.27181974053382874, -0.2723909020423889, 0.2138948142528534, -0.05357611924409866, 0.20875994861125946, 0.2129252403974533, -0.24768610298633575, -0.4767850935459137, 0.10911784321069717, 0.10091573745012283, 0.1057976558804512, -0.05437089502811432, -0.14389663934707642, -0.14681130647659302, -0.5329092741012573, -0.1691708266735077, 0.09685484319925308, 0.13698914647102356, -0.27638277411460876, 0.0371621772646904, -0.20873898267745972, 0.1464136689901352, 0.1450457125902176, 0.002763068303465843, 0.0773712620139122, -0.00808938778936863, 0.07367199659347534, -0.34312811493873596, 0.12747685611248016, -0.1820623129606247, -0.0650227889418602, 0.023987270891666412, 0.034174028784036636, -0.10462553054094315, 0.1115642786026001, -0.0713825672864914, 0.3104623258113861, 0.08982600271701813, 0.36328431963920593, 0.11727096885442734, 0.0681234672665596, 0.02187526226043701, -0.24556532502174377, 0.25033116340637207, 0.2862596809864044, -0.13443498313426971, 0.06183119863271713, -0.2741134464740753, 0.24840550124645233, 0.1422584056854248, -0.048525188118219376, 0.12016264349222183, -0.007248867768794298, 0.13846057653427124, -0.1529911905527115, -0.01974751614034176, 0.002285654889419675, -0.1909244954586029, 0.1447249948978424, -0.29128724336624146, 0.1973901391029358, 0.12495747208595276, 0.13372434675693512, 0.26307857036590576, -0.3552807569503784, -0.09103461354970932, -0.1848820149898529, 0.24023067951202393, 0.008561785332858562, -0.04150833189487457, -0.24634604156017303, 0.1367032378911972, 0.09132003784179688, 0.04835478588938713, 0.035124991089105606, 0.10104202479124069, 0.03766132518649101, -0.1492481231689453, -0.1452796459197998, -0.08851346373558044, 0.24369217455387115, 0.15903139114379883, -0.3206639289855957, 0.008673622272908688, -0.023091772571206093, 0.12036453187465668, -0.30583128333091736, -0.09079360961914062, 0.06416386365890503, 0.16144834458827972, 0.025949886068701744, -0.31795501708984375, 0.22434888780117035, -0.17302066087722778, -0.19920416176319122, -0.2697940170764923, 0.20600563287734985, -0.2356036752462387, 0.026630036532878876, -0.07696525007486343, 0.20358209311962128, -0.12849459052085876, 0.3982357978820801, -0.0210508331656456, -0.12594415247440338, 0.00022050962434150279, -0.24607668817043304, 0.16683997213840485, 0.12400581687688828, 0.023786108940839767, -0.09634799510240555, 0.0928104817867279, 0.2844741642475128, -0.07384320348501205, -0.05289674177765846, 0.13994508981704712, 0.2545984089374542, 0.13064949214458466, 0.38165515661239624, -0.050342123955488205, 0.28745847940444946, -0.21401917934417725, -0.10018909722566605, -0.09469005465507507, 0.09821036458015442, -0.05808098614215851, -0.0666581317782402, -0.05453895777463913, 0.1450282633304596, -0.29719123244285583, -0.1149381622672081, 0.06111014634370804, 0.16997358202934265, 0.15707312524318695, 0.4407564401626587, 0.18035370111465454, -0.132240429520607, -0.3322746157646179, -0.11629223823547363, -0.023315580561757088, 0.19220095872879028, -0.11603643745183945, -0.043558936566114426, -0.21348409354686737, 0.10110452771186829, 0.010749466717243195, -0.09295142441987991, 0.08302759379148483, -0.018413275480270386, 0.05024026706814766, -0.21274849772453308, -0.07071816176176071, 0.029225429520010948, -0.12548817694187164, 0.11987484991550446, 0.23181718587875366, 0.1427910029888153, -0.0038896019104868174, -0.07067824900150299, 0.2723025977611542, -0.29550063610076904, 0.22025713324546814, 0.12135161459445953, -0.03348001837730408, 0.05369266867637634, -0.18217501044273376, 0.10185056924819946, -0.0357523038983345, 0.10014013946056366, 0.09811914712190628, 0.1760086715221405, 0.16121403872966766, -0.10299234837293625, -0.09067220240831375, -0.3358800709247589, -0.3571116626262665, 0.3165360689163208, 0.02228008583188057, -0.20335009694099426, 0.3133648633956909, -0.13338550925254822, 0.17850084602832794, -0.9299643039703369, -0.07623554021120071, -0.010298848152160645, -0.12092164903879166, 0.02265213057398796, -0.39962995052337646, 0.021600211039185524, 0.18350446224212646, 0.27205124497413635, -0.11034546047449112, -0.4555304944515228, 0.21587345004081726, 0.2689664363861084, -0.07555504888296127, 0.11731725186109543, 0.5029603838920593, 0.04955852031707764, 0.19990548491477966, 0.42932143807411194, 0.04440418630838394, -0.2687655985355377, 0.07594675570726395, -0.05913291126489639, -0.19976799190044403, -0.10749567300081253, -0.12393556535243988, 0.4045960605144501, -0.05652206763625145, -0.16957615315914154, 0.35097330808639526, 0.013201214373111725, 0.3027179539203644, 0.2849961221218109, -0.07103058695793152, -0.2488361895084381, -0.19261090457439423, 0.07161311060190201, -0.22175662219524384, 0.2859654724597931, -0.4788976311683655, 0.41269856691360474, -0.07898630946874619, 0.4453824758529663, -0.2722392976284027, 0.502414882183075, 0.17211374640464783, 0.34057801961898804, 0.22960728406906128, 0.009240109473466873, 0.20208556950092316, 0.22949716448783875, -0.05133248120546341, -0.10102471709251404, 0.04222363233566284, -0.13819992542266846, 0.016597706824541092, 0.036205045878887177, -0.05445810779929161, -0.14335688948631287, 0.14886139333248138, 0.1568479984998703, 0.33929741382598877, -0.07582098245620728, 0.010599873960018158, -0.19224749505519867, 0.20377352833747864, -0.2023489624261856, 0.15593229234218597, 0.1774505376815796, -0.1343909054994583, 0.08089891821146011, -0.11477939784526825, 0.3370645344257355, 0.11623537540435791, -0.5258675813674927, 0.05833598971366882, 0.3973833918571472, 0.09715739637613297, 0.07628268003463745, -0.11777744442224503, -0.11650115251541138, -0.2365962564945221, 0.2476816177368164, 0.08485567569732666, 0.07890674471855164, -0.04035903513431549, 0.09013129025697708, -0.02463517151772976, 0.05940841883420944, 0.4665701687335968, -0.1660858392715454, 0.1307273805141449, -0.0169905386865139, 0.15628933906555176, 0.2680302858352661, 0.061355624347925186, 0.6619880795478821, 0.021891755983233452, -0.14854060113430023, 0.031034458428621292, -0.3273342549800873, 0.028037777170538902, 0.15856291353702545, 0.1680261343717575, -0.10209565609693527, -0.10938643664121628, 0.27321168780326843, 0.0118182934820652, 0.12308555841445923, -0.2456379532814026, -0.08089085668325424, 0.20617257058620453, -0.0012902193702757359, 0.15733127295970917, 0.00871714111417532, -0.15699981153011322, 0.030782753601670265, 0.32721617817878723, 0.06364341825246811, -0.3997964859008789, -0.09598436951637268, -0.2236274927854538, 0.05941573530435562, 0.0010914452141150832, -0.21146468818187714, 0.06605980545282364, -0.2765295207500458, 0.10433123260736465, 0.10924645513296127, 0.07132488489151001, 0.11321736127138138, -0.14148691296577454, 0.3036016523838043, -0.019594039767980576, 0.13199099898338318, -0.38443049788475037, 0.14820247888565063, -0.00813442561775446, 0.08612076938152313, -0.02460552752017975, -0.23544766008853912, -0.039223331958055496, -0.11134765297174454, -0.03279055282473564, 0.19482073187828064, 0.16047218441963196, 0.13395971059799194, -0.13273261487483978, 0.013220634311437607, -0.14997278153896332, 0.09736087918281555, -0.07719562202692032, -0.052136145532131195, -0.044838644564151764, 0.08773600310087204, -0.029365886002779007, -0.21189437806606293, 0.03467424586415291, -0.06366797536611557, -0.021061694249510765, 0.22760945558547974, -0.13042742013931274, 0.06120786443352699, -0.21992835402488708, -0.08236313611268997, -0.152897447347641, 0.053202323615550995, 0.10456532984972, -0.06405505537986755, 0.012996455654501915, 0.12360195070505142, 0.0870751440525055, -0.27972301840782166, 0.2561635375022888, 0.07684934139251709, -0.021421385928988457, 0.04913035407662392, -0.06848607957363129, -0.0020297023002058268, 0.07446087896823883, -0.007283653132617474, 0.014614567160606384, -0.1319148689508438, -0.12844517827033997, -0.02702072635293007, 0.15039502084255219, 0.06328565627336502, -0.2152893841266632, -0.10724063962697983, -0.09155675023794174, 0.17489182949066162, 0.1824623942375183, -0.15453507006168365, 0.003937640693038702, -0.22022008895874023, -0.1343621015548706, 0.3695283830165863, -0.010874178260564804, -0.06592058390378952, -0.07901863753795624, 0.271136611700058, 0.05648583546280861, 0.07003679871559143, -0.34633415937423706, -0.21160918474197388, 0.03960837051272392, -0.02338012307882309, 0.009646174497902393, -0.12951312959194183, -0.3101343810558319, -0.0172157920897007, 0.32196059823036194, 0.11001628637313843, -0.1049666553735733, 0.3322722911834717, -0.1320713758468628, 0.1209774985909462, -0.02448149211704731, 0.0074568577110767365, 0.2333892285823822, 0.1125386655330658, 0.04408561810851097, 0.014909327030181885, -0.03280588611960411, 0.4935559034347534, -0.025457600131630898, 0.07640151679515839, 0.009827769361436367, 0.026101894676685333, -0.047919534146785736, 0.13679027557373047, 0.027269231155514717, 0.19710072875022888, -0.014770681969821453, 0.020749656483530998, 0.04099895805120468, 0.045116107910871506, 0.0009139024186879396, -0.056637369096279144, 0.06573706865310669, -0.06234583258628845, -0.18986369669437408, 0.2875070571899414, 0.11837662756443024, 0.0578669048845768, -0.11491458863019943, -0.07331123948097229, -0.08846576511859894, -0.20765256881713867, 0.0160075593739748, 0.17903049290180206, 0.2918602526187897, -0.1456581950187683, 0.41367307305336, -0.14574816823005676, 0.08967474848031998, 0.018685178831219673, -0.14378774166107178, -0.00261915335431695, 0.18968255817890167, 0.05172640085220337, 0.04378492385149002, 0.2466994971036911, 0.08236080408096313, -0.07542653381824493, 0.08570785075426102, 0.10398413985967636, -0.011814100667834282, -0.16225585341453552, -0.19613172113895416, 0.32537537813186646, -0.0967240035533905, 0.43042775988578796, 0.17904050648212433, 0.17458310723304749, -0.017462093383073807, 0.060674991458654404, 0.017134452238678932, 0.17707177996635437, -0.06683836132287979, -0.025732748210430145, -0.24102886021137238, 0.0992560163140297, -0.003947090357542038, -0.22874514758586884, 0.09609968960285187, -0.033215392380952835, 0.18807052075862885, 0.21189801394939423, 0.03358739614486694, -0.15143534541130066, -0.12389349937438965, 0.0697835236787796, 0.03938080370426178, 0.054741207510232925, -0.028494402766227722, -0.2484796941280365, 0.11871087551116943, 0.19830363988876343, -0.14206567406654358, 0.2709794342517853, 0.018510358408093452, 0.11219287663698196, 0.39383429288864136, 0.052938006818294525, -0.131356880068779, -0.014279748313128948, 0.12557846307754517, 0.1339331716299057, -0.11225566267967224, -0.24082715809345245, -0.13969995081424713, -0.046968039125204086, 0.01924850419163704, 0.1622174233198166, 0.3173913359642029, -0.0046240584924817085, 0.0427798330783844, 0.035135313868522644, -0.028821857646107674, 0.27782341837882996, -0.21280261874198914, -0.5707849264144897, 0.4372097849845886, 0.1919926553964615, 0.19167256355285645, 0.018834954127669334, -0.036803893744945526, -0.11933188140392303, -0.059998251497745514, 0.32489722967147827, -0.11356652528047562, -0.011244520545005798, 0.05609340965747833, 0.32183390855789185, 0.26951688528060913, 0.05115491524338722, -0.18002913892269135, 0.3535560369491577, -0.005300263874232769, -0.011416357010602951, 0.014716596342623234, 0.023159487172961235, -0.04095185175538063, 0.09268835932016373, -0.016330860555171967, 0.16922010481357574, -0.11401786655187607, -0.14798814058303833, 0.05834624171257019, 0.09897099435329437, 0.0022110308054834604, 0.05399749428033829, 0.2685357332229614, 0.33106619119644165, 0.007452717516571283, 0.10982821136713028, 0.05943555012345314, -0.21468932926654816, -0.29061564803123474, 0.03677855059504509, -0.09548680484294891, 0.05043414980173111, 0.07027040421962738, -0.2425999492406845, 0.20937034487724304, 0.11598548293113708, 0.10267261415719986, -0.0788205936551094, -0.14229977130889893, 0.11635666340589523, -0.24745959043502808, 0.3158703148365021, 0.07409687340259552, -0.07810124009847641, 0.057259391993284225, -0.02747238241136074, -0.2732562720775604, -0.18081039190292358, -0.07132962346076965, 0.07017280161380768, 0.07301101088523865, 0.19751746952533722, 0.047181859612464905, 0.2546166777610779, -0.12955114245414734, -0.2876257300376892, 0.03847365453839302, 0.17464423179626465, 0.2283070683479309, -0.2585393786430359, -0.025451792404055595, 0.051737792789936066, -0.02932984009385109, -0.18329498171806335, -0.18100933730602264, 0.08440032601356506, 0.11438845098018646, -0.14080053567886353, 0.25029727816581726, 0.04602674022316933, 0.27404531836509705, 0.008378800004720688, 0.21639962494373322, 0.08857635408639908, -0.24245263636112213, 0.09021027386188507, -0.05204159393906593, 0.6236788034439087, 1.2075929641723633, 0.3212573528289795, -0.3432391583919525, 0.8747437596321106, -0.31313356757164, 0.4438324272632599, -0.3985337018966675, 0.4420347511768341, 1.2760809659957886, -0.42019760608673096, 0.024460284039378166, 0.05558498203754425, 0.4039441645145416, -0.4229305386543274, 0.1523384004831314, -0.13034479320049286, -1.2926545143127441, -0.020102452486753464, 0.1789565533399582, -0.1754833608865738, -0.05496472120285034, -0.3695889115333557, 0.20953354239463806, -0.30546388030052185, -0.08947426080703735, -0.06694625318050385, 0.04337724298238754, -0.048905227333307266, -0.008379578590393066, 0.23219521343708038, -0.14551404118537903, 0.22685876488685608, 0.43995529413223267, -0.06690515577793121, -0.12113402038812637, 0.269070029258728, 0.08225347846746445, 0.29597485065460205, -0.10209893435239792, 0.6755514740943909, 0.25034353137016296, -0.07956116646528244, -0.015479233115911484, -0.1991565227508545, 0.3353302776813507, -0.23487988114356995, 0.02677977830171585, -0.07094743102788925, -0.8347741961479187, -0.049571018666028976, -0.24798323214054108, -0.25060540437698364, 0.04861507564783096, -0.25237837433815, 0.13083462417125702, -0.15510152280330658, -0.02514769695699215, -0.21767374873161316, 0.0663594901561737, 0.320370078086853, -0.06508570164442062, 0.07059410214424133, -0.21310535073280334, -0.13504831492900848, 0.12773531675338745, 0.014056931249797344, 0.16446442902088165, -0.16370421648025513, 0.050183650106191635, 0.09870479255914688, 0.11047255247831345, 0.09125936776399612, -0.01726243458688259, -0.09740077704191208, 0.09304972738027573, 0.29348042607307434, -0.10015349835157394, 0.09130820631980896, 0.04406038671731949, -0.0020139606203883886, -0.10374785214662552, 0.12464866787195206, -0.25529778003692627, -0.06979835033416748, -0.029090646654367447, 0.0923890620470047, 0.02515915036201477, 0.3005090355873108, 0.07800617814064026, 0.241435706615448, 0.021706359460949898, 0.016017794609069824, 0.14278234541416168, 0.04718184098601341, -0.3909526765346527, -0.25581005215644836, 0.22108349204063416, 0.1389016956090927, 0.130387544631958, -0.051832713186740875, 0.5864657163619995, -0.07738551497459412, 0.32055819034576416, -0.16386955976486206, 0.01220102608203888, -0.07011187821626663, -0.20027199387550354, -0.08268941938877106, -0.45504066348075867, 0.3493262529373169, -0.08567088842391968, -0.031926460564136505, 0.07163359969854355, 0.32234710454940796, -0.3180204927921295, -0.10918322205543518, 0.09968467801809311, -0.13987484574317932, -0.14686085283756256, 0.3007645606994629, 0.15507280826568604, 0.14567267894744873, 0.0545307956635952, -0.04467565566301346, 0.24708224833011627, -0.1492827832698822, 0.2726652920246124, -0.11180227994918823, -0.23411794006824493, 0.04978703334927559, -0.1577916294336319, -0.09628627449274063, -0.016843536868691444, -0.11024993658065796, 0.07415621727705002, 0.008522775024175644, 0.25961539149284363, -0.008120175451040268, -0.20479536056518555, 0.0024403822608292103, -0.27782100439071655, 0.05801142379641533, -0.03051605448126793, -0.010386338457465172, 0.12200380116701126, -0.29495689272880554, -0.20302607119083405, -0.0629839301109314, 0.026129839941859245, 0.1427997648715973, 0.05178004503250122, 0.17536304891109467, -0.1189635619521141, 0.14105549454689026, 0.39291560649871826, 0.23427116870880127, -0.002656127791851759, -0.4389890134334564, 0.0262327678501606, -0.059623852372169495, -0.048891227692365646, -0.053737565875053406, 0.32206764817237854, 0.008103069849312305, 0.08212956041097641, -0.12108352035284042, 0.009493699297308922, 0.0187844205647707, 0.0845881998538971, -0.004770129453390837, 0.13825291395187378, -0.1486884206533432, 0.23958361148834229, 0.3192489743232727, -0.003577394410967827, 0.6048849821090698, -0.046201083809137344, -0.06359350681304932, 0.34833136200904846, 0.33319923281669617, -0.2697252929210663, 0.2947816550731659, -0.09908325970172882, 0.033787332475185394, 0.16279125213623047, 0.21510809659957886, -0.19919545948505402, -0.2548852562904358, -0.2772092819213867, 0.1097869724035263, -0.17379392683506012, -0.12283647805452347, 0.2801867723464966, 0.04224904626607895, -0.07730396091938019, -0.20889025926589966, 0.12249356508255005, -0.10471411049365997, -0.1133059486746788, -0.051171232014894485, 0.15303106606006622, 0.09007937461137772, -0.08918238431215286, 0.20109733939170837, 0.07766634970903397, -0.033691082149744034, -0.1274624466896057, -0.34617629647254944, 0.2873786985874176, -0.011641326360404491, 0.061864301562309265, -0.2812698781490326, -0.1848583221435547, -0.040437910705804825, -0.2739376127719879, 0.3031997084617615, 0.04560188576579094, -0.04060888662934303, 0.17610196769237518, 0.06287261843681335, 0.12460096180438995, -0.09473195672035217, 0.07539873570203781, -0.023778334259986877, -0.27674588561058044, -0.013041413389146328, -0.15657003223896027, 0.1891181617975235, -0.12219049036502838, -0.30821043252944946, 0.006287687923759222, -0.029245536774396896, 0.03313641995191574, 0.3194452226161957, 0.06147535517811775, 0.05997408553957939, -0.05159077048301697, 0.12331868708133698, -0.15672914683818817, 0.1815546303987503, -0.039133135229349136, -0.11879069358110428, -0.11022750288248062, 0.19668440520763397, 0.29582279920578003, 0.19003163278102875, 0.13756895065307617, -0.038232892751693726, -0.24422164261341095, -0.1540418565273285, -0.2168293446302414, 0.05517692118883133, -0.07316448539495468, -0.1396062970161438, 0.08206512033939362, 0.18635782599449158, 0.21530024707317352, 0.06893737614154816, 0.07054609060287476, 0.06516463309526443, 0.14763423800468445, -0.06335002928972244, 0.00990296807140112, 0.03870107978582382, 0.1795293092727661, 0.02534150704741478, 0.02882339432835579, -0.060754746198654175, -0.023552343249320984, 0.12725158035755157, -0.0034941432531923056, -0.09092126041650772, 0.045992739498615265, -0.06471163034439087, -0.05196009948849678, 0.1360761523246765, 0.15019820630550385, -0.19330525398254395, -0.12335173785686493, -0.1849438101053238, -0.01185679528862238, 0.09691929817199707, 0.20499484241008759, 0.008191097527742386, 0.00011549241753527895, -0.0948592945933342, -0.15008647739887238, -0.10024667531251907, 0.2515745759010315, -0.15146328508853912, -0.2049565315246582, 0.10109131783246994, -0.06954317539930344, 0.0346243716776371, -0.057870812714099884, -0.5803231596946716, 0.15765635669231415, -0.20014798641204834, 0.02955339476466179, 0.10627967119216919, 0.19956882297992706, -0.27399778366088867, 0.13750289380550385, 0.025197576731443405, -0.3718009889125824, 0.06261551380157471, -0.03161201253533363, 0.2936290502548218, -0.011401421390473843, -0.08574745804071426, -0.041224148124456406, 0.11204920709133148, 0.15576371550559998, 0.07094752788543701, -0.14292943477630615, -0.08312138170003891, 0.08540855348110199, -0.3553706705570221, 0.008505279198288918, -0.11078543215990067, -0.04904849827289581, 0.20739278197288513, -0.13619057834148407, -0.1041615903377533, 0.08249995857477188, -0.08757541328668594, 0.024851150810718536, -0.15870296955108643, 0.27459484338760376, -0.011249661445617676, -0.005087876692414284, 0.13900181651115417, 0.03613889962434769, 0.2748914361000061, -0.033141545951366425, 0.3033200800418854, 0.1260342001914978, -0.30894091725349426, -0.3757249712944031, -0.22532619535923004, 0.315982848405838, 0.051389507949352264, 0.06565389782190323, -0.17049910128116608, -0.24609842896461487, 0.17907309532165527, 0.1252734363079071, -0.12361732870340347, -0.009799033403396606, -0.09431660175323486, -0.06495501101016998, 0.08645705878734589, 0.236528679728508, 0.16594582796096802, 0.41412046551704407, 0.08112578094005585, 0.09972686320543289, -0.3522360026836395, -0.0736428052186966, 0.2322670966386795, 0.4063265919685364, -0.02612466551363468, 0.3127138018608093, -0.19059833884239197, -0.04273680970072746, 0.37922585010528564, 0.056792765855789185, 0.32164955139160156, -0.34237468242645264, 0.15664856135845184, -0.06085609644651413, -0.17439043521881104, -0.6302539706230164, 0.2950500547885895, -0.10559902340173721, 0.05090315267443657, -0.3453228175640106, 0.057754818350076675, 0.21649731695652008, 0.14873690903186798, 0.013454819098114967, 0.34258800745010376, 0.03649089112877846, -0.14756636321544647, -0.03143349662423134, -0.03837781399488449, -0.0529283843934536, -0.18267294764518738, 0.20737454295158386, 0.031999971717596054, 0.049853671342134476, 0.27950653433799744, 0.3501948416233063, -0.14728441834449768, 0.01854882948100567, -0.18961435556411743, -0.1957605630159378, 0.11973030120134354, -0.13105224072933197, 0.10821209102869034, -0.18430045247077942, 0.2409583181142807, 0.026774950325489044, -0.262270450592041, 0.21308161318302155, 0.22813430428504944, -0.2605440616607666, 0.02463974617421627, 0.01484778430312872, -0.09387826174497604, 0.46424683928489685, 0.04568643495440483, -0.1919698268175125, 0.19199953973293304, -0.06750822067260742, 0.10678315907716751, 0.1129218265414238, -0.11388799548149109, 0.196645587682724, -0.18054062128067017, 0.2885384261608124, 0.15046977996826172, 0.029011476784944534, 0.5296626091003418, -0.054094962775707245, -0.37311187386512756, -0.16773883998394012, -0.11278186738491058, 0.07789655029773712, -0.2143559604883194, 0.00942730251699686, -0.09542759507894516, 0.03878949210047722, 0.24915434420108795, -0.05952025577425957, 0.10896129906177521, -0.05364251136779785, -0.13523808121681213, -0.06458732485771179, -0.10919979214668274, -0.0712389275431633, -0.015425555408000946, 0.22093673050403595, 0.13564914464950562, 0.0067109838128089905, -0.3193792998790741, 0.13967883586883545, -0.12233780324459076, 0.23363128304481506, 0.17209552228450775, 0.07982199639081955, -0.17491143941879272, -0.00986865721642971, -0.03987141698598862, -0.012622521258890629, 0.074089914560318, 0.06369346380233765, 0.12837663292884827, 0.18906570971012115, -0.17946983873844147, -0.11885534226894379, 0.017359357327222824, 0.14387305080890656, 0.23742325603961945, 0.2069251537322998, 0.09470164030790329, -0.08284126222133636, 0.04462653398513794, 0.03432126343250275, 0.1731504499912262, -0.12327662855386734, 0.3802623152732849, -0.09636954218149185, 0.0013421965995803475, 0.08434641361236572, -0.43793168663978577, 0.20052047073841095, -0.22619415819644928, -0.17609736323356628, 0.07933923602104187, -0.23907142877578735, -0.1117602214217186, 0.19999325275421143, 0.14116688072681427, 0.09605898708105087, -0.18525001406669617, -0.13425405323505402, -0.13441458344459534, -0.05559061840176582, 0.05209333449602127, -0.08599081635475159, 0.15886099636554718, -0.11707012355327606, 0.003305902238935232, -0.13971610367298126, 0.2961653172969818, -0.020997168496251106, -0.3422945737838745, -0.01752086915075779, -0.19648325443267822, 0.2720615863800049, 0.24188846349716187, -0.11956150829792023, -0.04144233465194702, 0.35706108808517456, 0.10090891271829605, 0.05865132436156273, 0.0032882774248719215, 0.1908506453037262, 0.24611547589302063, -0.07857277989387512, -0.1346057802438736, 0.11438466608524323, 0.1569887399673462, 0.03406008705496788, -0.2070121467113495, 0.15238814055919647, -0.03585466369986534, -0.06251689046621323, 0.002981874393299222, -0.07803558558225632, 0.2636604607105255, -0.12574763596057892, 0.012931274250149727, -0.17494988441467285, 0.3373391926288605, 0.07965679466724396, -0.13672420382499695, -0.058314837515354156, 0.030855104327201843, -0.09218420088291168, -0.16120164096355438, -0.28425100445747375, 0.0711556226015091, 0.009817863814532757, 0.1410088837146759, 0.04363879933953285, -0.06980335712432861, -0.014553439803421497, -0.11980687826871872, 0.15976795554161072, 0.09766286611557007, -0.10904353111982346, -0.2199653834104538, -0.11225809901952744, 0.05278399586677551, 0.36179062724113464, -0.25120195746421814, 0.7274948358535767, 0.0594664104282856, 0.2378768026828766, -0.09642938524484634, 0.25743013620376587, -0.0973321944475174, -0.316885769367218, -0.053739894181489944, -0.07634181529283524, 0.2072231024503708, -0.009147903881967068, -0.09051427990198135, -0.11713727563619614, -0.07951650023460388, -0.12194396555423737, 0.03173196688294411, 0.15566188097000122, 0.15213795006275177, -0.2588098645210266, 0.08951922506093979, 0.30586957931518555, 0.23129697144031525, 0.14495845139026642, -0.14212848246097565, -0.0792081356048584, 0.3130391538143158, -0.04676210135221481, -0.09026455879211426, 0.08683279156684875, 0.027509231120347977, 0.013454599305987358, 0.09625884145498276, -0.05899117514491081, -0.2129281759262085, -0.14738599956035614, -0.32334670424461365, -0.06281343102455139, 0.16364389657974243, -0.039330754429101944, -0.03951707109808922, 0.07382624596357346, -0.00990806519985199, -0.0387076772749424, 0.07376612722873688, 0.09097599983215332, -0.13098682463169098, 0.11973070353269577, 0.09344121813774109, -0.1189524307847023, -0.3110416829586029, -0.10267049074172974, 0.04831543564796448, -0.20507235825061798, 0.16607947647571564, 0.2595033049583435, 0.09554900228977203, -0.12168631702661514, -0.21865959465503693, -0.20961938798427582, 0.030301278457045555, 0.15152417123317719, -0.055586446076631546, 0.2312048375606537, -0.13740277290344238, 0.3299819827079773, -0.17849791049957275, 0.2965027093887329, -0.3011060953140259, -0.03130508214235306, 0.0302929375320673, 0.13320215046405792, -0.13701003789901733, 0.12452064454555511, 0.09300727397203445, -0.06901540607213974, 0.22496725618839264, -0.3910784423351288, -0.10173438489437103, 0.1618029922246933, 0.09201975911855698, 0.16452676057815552, 0.24778586626052856, 0.4001316428184509, -0.20771002769470215, 0.17083445191383362, 0.2289629578590393, 0.03668249398469925, -0.31238052248954773, 0.1178051233291626, 0.1306268274784088, -0.05777702480554581, -0.10455694794654846, 0.11011731624603271, 0.12958009541034698, -0.059958718717098236, 0.1729334145784378, 0.16809692978858948, 0.10397502034902573, -0.056885987520217896, -0.4315481185913086, -0.12993407249450684, -0.09646673500537872, -0.04691207408905029, -0.17868191003799438, -0.19539658725261688, -0.005740102380514145, -0.11721630394458771, 0.6384661793708801, -0.14761795103549957, 0.0668024942278862, -0.46819815039634705, 0.2566148340702057, 0.07933197915554047, 0.2179436981678009, 0.20679984986782074, -0.03307771682739258, -0.09731629490852356, 0.010352681390941143, -0.19812776148319244, -0.12676355242729187, 0.009468305855989456, -0.1272527575492859, 0.16801118850708008, 0.0002950054476968944, -0.05334410071372986, 0.07477971911430359, -0.010886173695325851, 0.02932644635438919, -0.07542750239372253, -0.1719534546136856, -0.028694329783320427, -0.09316878765821457, 0.26061198115348816, 0.0010367939248681068, 0.059513188898563385, 0.040975965559482574, 0.11336854845285416, 0.05516848340630531, 0.04514452815055847, 0.2642608880996704, -0.16571034491062164, -0.32362085580825806, 0.1060999408364296, 0.03353242203593254, 0.026631517335772514, 0.0878278985619545, -0.08999592810869217, 0.0331219844520092, -0.042491842061281204, 0.004027038812637329, 0.036880262196063995, -0.008401324972510338, 0.08018957078456879, 0.27374690771102905, 0.02382117323577404, 0.014323200099170208, -0.01289376150816679, 0.13472656905651093, 0.0808839425444603, 0.0021600916516035795, 0.0009328455780632794, 0.12124749273061752, 0.1276068240404129, 0.43355438113212585, 0.16134758293628693, -0.2699087858200073, -0.27216672897338867, 0.06730552762746811, 0.0007016625022515655, 0.013961944729089737, -0.03676264360547066, -0.15235407650470734, -0.01098836213350296, -0.027972357347607613, -0.1453651487827301, -0.22872832417488098, 0.16226224601268768, -0.027306821197271347, 0.10879895836114883, -0.18798616528511047, 0.08994738012552261, -0.056584812700748444, -0.12395550310611725, 0.2902621328830719, -0.06907209753990173, 0.10125578939914703, 0.049282584339380264, -0.10974081605672836, -0.013195469044148922, -0.05217170715332031, -0.09344301372766495, -0.0870538130402565, -0.10699516534805298, 0.31253376603126526, -0.03202830255031586, -0.3118324875831604, -0.059632085263729095, 0.017148558050394058, 0.12392660230398178, -0.05539784952998161, 0.12421030551195145, -0.05552171915769577, 0.3008335530757904, -0.024279898032546043, -0.014257688075304031, -0.18783842027187347, 0.022181902080774307, -0.05352179706096649, 0.08591903746128082, -0.04065733775496483, -0.034459616988897324, -0.14547306299209595, -0.09890131652355194, -0.02818702906370163, 0.06376712024211884, -0.15366584062576294, 0.1250048577785492, -0.06991667300462723, 0.09466196596622467, 0.10346408188343048, 0.0034184842370450497, -0.2210381031036377, -0.2414271980524063, 0.2525666058063507, -0.12953124940395355, 0.0022085378877818584, -0.11564137041568756, -0.26759710907936096, -0.2567993402481079, -0.2752889394760132, 0.18505941331386566, -0.23254473507404327, 0.2562779188156128, -0.10393492132425308, 0.03534957394003868, 0.10328412055969238, 0.03888603672385216, -0.3285398781299591, -0.10357826203107834, 0.22659999132156372, -0.07738403230905533, 0.011863821186125278, -0.22370654344558716, -0.10446382313966751, -0.050023291260004044, 0.02161758951842785, -0.046577684581279755, -0.045468769967556, -0.24207791686058044, -0.01703934744000435, 0.18921153247356415, 0.12491681426763535, 0.05266031250357628, 0.20535162091255188, 0.0450328029692173, 0.033790223300457, -0.004060611594468355, 0.10369715094566345, -0.02466602809727192, 0.649552047252655, 0.06164444237947464, -0.02439250238239765, 0.14256690442562103, -0.04660063982009888, -0.08693885058164597, 0.09204354137182236, 0.035750895738601685, -0.16805440187454224, -0.09486979991197586, 0.2118825614452362, -0.05372286215424538, 0.16111648082733154, -0.10253047198057175, -0.12591823935508728, -0.06933009624481201, 0.11232537031173706, -0.12673914432525635, 0.2629447877407074, -0.04628940299153328, -0.06328451633453369, 0.05063694715499878, 0.22693580389022827, 0.014189626090228558, 0.04007543995976448, -0.0027045898605138063, 0.030974632129073143, 0.26987460255622864, -0.15281078219413757, 0.08303134888410568, 0.0006089379894547164, 0.05678199231624603, 0.6893848776817322, 0.07526251673698425, 0.09227866679430008, 0.05926470831036568, 0.039475370198488235, -0.1893758475780487, 0.15748491883277893, -0.049305666238069534, -0.031212445348501205, -0.039601851254701614, 0.06453241407871246, 0.030816059559583664, -0.15715840458869934, -0.00661289831623435, 0.3208032548427582, -0.22127681970596313, -0.025157714262604713, -0.06788122653961182, 0.18432584404945374, 0.04464728757739067, -0.19039787352085114, -0.10038424283266068, -0.08546413481235504, -0.17683979868888855, -0.08618739247322083, 0.1625700294971466, 0.13387466967105865, 0.004248392768204212, -0.004812493920326233, 0.12494868785142899, 0.23694531619548798, 0.11382383108139038, 0.3926961421966553, -0.003424046328291297, -0.023809824138879776, 0.18064500391483307, -0.2741137444972992, 0.08375731855630875, -0.06664734333753586, 0.06914813071489334, -0.3118082582950592, -0.19456738233566284, 0.28882119059562683, 0.16236214339733124, -0.3146890103816986, -0.15672758221626282, 0.057277701795101166, 0.06340537220239639, 0.26334360241889954, -0.1185997948050499, 0.07726398855447769, -0.05305173620581627, -0.1240934208035469, 0.06830257177352905, 0.0185496024787426, 0.13589917123317719, 0.05045560747385025, 0.09914834052324295, -0.10563263297080994, -0.15736742317676544, 0.0997803658246994, 0.0028694854117929935, -0.14512518048286438, -0.23335401713848114, -0.2559046149253845, 0.23546214401721954, 0.024494411423802376, 0.2084299921989441, 0.20332317054271698, 0.38577765226364136, 0.10148465633392334, 0.07953192293643951, -0.11915046721696854, 0.07498276233673096, -0.1687372326850891, 0.1308244913816452, 0.033048152923583984, -0.09463172405958176, -0.05270497500896454, -0.06174065172672272, 0.17965056002140045, 0.019057929515838623, -0.026161834597587585, -0.18862833082675934, -0.07807770371437073, -0.01224249042570591, -0.24527043104171753, 0.1149790957570076, 0.04647551476955414, 0.03934570029377937, 0.18068642914295197, 0.25692063570022583, 0.08090360462665558, 0.11722993105649948, 0.03168149292469025, -0.011343330144882202, 0.3834637701511383, -0.1618146151304245, -0.21246686577796936, 0.3014659285545349, -0.15177619457244873, 0.05024232715368271, 0.026773590594530106, 0.12375318259000778, 0.1460452377796173, -0.08689030259847641, -0.10716325789690018, -0.011318336240947247, -0.027252381667494774, -0.33200159668922424, -0.030219756066799164, -0.14073589444160461, -0.20449623465538025, -0.38781577348709106, 0.20280671119689941, 0.03415554016828537, -0.005573350470513105, -0.04689125716686249, 0.002853917423635721, 0.2154243290424347, 0.24859093129634857, 0.0612301267683506, -0.09550486505031586, -0.1906571239233017, -0.0671616718173027, 0.042066629976034164, 0.14651793241500854, -0.03944746032357216, 0.41342246532440186, -0.27268269658088684, -0.19479799270629883, 0.02596038207411766, -0.029342729598283768, -0.034790340811014175, -0.075102798640728, 0.03905249387025833, -0.1204637661576271, 0.12003752589225769, 0.012486262246966362, -0.2315921187400818, -0.009345587342977524, -0.13067154586315155, -0.11007299274206161, 0.2006670981645584, -0.039220504462718964, 0.006761783733963966, -0.09053922444581985, 0.17542695999145508, -0.08622851222753525, 0.42328450083732605, -0.08571680635213852, 0.1009993776679039, -0.026550423353910446, -0.08241841942071915, -0.04409445449709892, 0.0015411059139296412, -0.08487693965435028, 0.09353913366794586, -0.14209091663360596, -0.09739422798156738, 0.11344665288925171, -0.2707376182079315, 0.00240338989533484, 0.04024495556950569, 0.32506972551345825, -0.006215613801032305, 0.08793238550424576, -0.05809078738093376, 0.0502786822617054, 0.12810596823692322, -0.1722714751958847, 0.014061509631574154, 0.10861479490995407, 0.15257371962070465, -0.1278820037841797, -0.006561406422406435, -0.145318403840065, -0.005543927662074566, 0.13990575075149536, -0.13522812724113464, 0.0754583477973938, -0.0016448410460725427, -0.009457267820835114, 0.12344594299793243, 0.04952934756875038, -0.1590612530708313, -0.32107043266296387, 0.1128818467259407, 0.27011415362358093, 0.025660976767539978, 0.07360384613275528, -0.13447009027004242, -1.0018144845962524, -0.6319534182548523, 0.14259469509124756, 0.02354932762682438, 0.1271413415670395, 0.001193210482597351, -0.17519010603427887, 0.012514990754425526, 0.2368229776620865, 0.5193802118301392, 0.07345040142536163, 0.16092026233673096, 0.12749823927879333, -0.27857741713523865, 0.027900855988264084, -0.011307543143630028, 0.010846237652003765, 0.035746265202760696, 0.17683878540992737, -0.011106424033641815, -0.030665813013911247, -0.22082072496414185, 0.02829519845545292, -0.03952508419752121, 0.12617363035678864, 0.006475815083831549, -0.09091519564390182, 0.10477689653635025, -0.08842728286981583, 0.05525336042046547, 0.065038301050663, -0.12525254487991333, 0.6937344074249268, -0.07702437043190002, 0.18891030550003052, -0.10561847686767578, 0.17768672108650208, -0.047984737902879715, 0.03400784730911255, 0.07449909299612045, 0.07141351699829102, 0.2313390076160431, -0.016741303727030754, 0.04692533612251282, -0.010543291456997395, -0.04305011034011841, 0.056788645684719086, 0.08112846314907074, 0.031623464077711105, -0.11621975898742676, 0.21276310086250305, -0.11590220779180527, -0.14011521637439728, -0.06657149642705917, 0.1799316555261612, 0.11781267821788788, -0.22942544519901276, -0.06329493969678879, 0.14581431448459625, -0.08654220402240753, -0.19836074113845825, -0.21377655863761902, -0.1304149180650711, 0.08396386355161667, -0.16705188155174255, 0.022358620539307594, 0.10099992156028748, -0.2605428099632263, 0.14517758786678314, 0.03306182846426964, -0.0402522012591362, -0.5447731018066406, -0.04629764333367348, -0.03373023122549057, 0.14069539308547974, 0.05639391019940376, -0.16477225720882416, 0.15063250064849854, -0.06548544764518738, -0.08717811107635498, 0.030134007334709167, -0.10606174916028976, -0.015548745170235634, -0.10112903267145157, 0.1080295518040657, -0.05077774450182915, -0.11050049215555191, 0.0506523996591568, 0.10625956207513809, 0.018528029322624207, -0.02340592071413994, 0.03408829867839813, 0.019146200269460678, -0.1397007256746292, -0.08006000518798828, 0.012791329063475132, -0.16158261895179749, -0.03203906863927841, 0.07541891932487488, 0.10729917883872986, -0.22897271811962128, 0.05795816704630852, 0.07170627266168594, 0.12216054648160934, 0.006984822452068329, 0.0448201522231102, 0.23611345887184143, 0.03944353759288788, -0.25971174240112305, -0.16315262019634247, 0.08176075667142868, 0.06888358294963837, 0.3115610182285309, -0.006001676432788372, 0.01894783228635788, -0.040004368871450424, -0.03233378380537033, -0.0009512410033494234, 0.14060930907726288, 0.22093194723129272, -0.03944461792707443, -0.10911762714385986, 0.013841118663549423, -0.09292591363191605, -0.03418104723095894, 0.10643666982650757, 0.1539967805147171, -0.14269022643566132, -0.3233269453048706, -0.15167447924613953, -0.16266290843486786, -0.2180406153202057, 0.12006478011608124, 0.0226123109459877, -0.035366933792829514, 0.21680571138858795, 0.27858766913414, 0.15748527646064758, -0.3645055294036865, 0.1477634310722351, 0.06887970119714737, -0.016277603805065155, -0.04046691954135895, -0.12466441839933395, -0.10974953323602676, 0.13383612036705017, -0.1477237045764923, 0.13234713673591614, -0.16865228116512299, 0.061186760663986206, -0.01701611839234829, -0.004109147936105728, 0.07037749886512756, 0.08793924003839493, -0.2760637104511261, -0.3075891137123108, -0.029262928292155266, 0.053861189633607864, 0.0816454291343689, 0.01838335208594799, -0.04782290384173393, -0.027875984087586403, -0.01199747622013092, 0.14183060824871063, 0.07421661168336868, 0.29546552896499634, -0.16495631635189056, 0.014843570999801159, 0.014812828972935677, 0.08734896779060364, -0.1713266521692276, 0.10302325338125229, -0.020794661715626717, -0.043610163033008575, -0.15734556317329407, 0.29049113392829895, 0.046306900680065155, 0.2696799039840698, -0.4854538142681122, -0.1111266165971756, 0.15962545573711395, -0.015321069397032261, -0.017832528799772263, -0.06387683749198914, -0.2133714258670807, 0.019910572096705437, 0.08528917282819748, 0.19244487583637238, -0.14022168517112732, 0.008168627507984638, -0.07629518210887909, 0.045228999108076096, 0.21506866812705994, 0.05038641020655632, -0.023076102137565613, 0.20711630582809448, 0.022824730724096298, 0.024147825315594673, 0.08424675464630127, 0.02403554692864418, -0.09865991026163101, 0.10318595170974731, 0.1530722975730896, 0.12240500748157501, -0.297127902507782, 0.24177949130535126, -0.08425773680210114, -0.3443983197212219, 0.3947453498840332, 0.03584085777401924, 0.046520717442035675, 0.06899891048669815, -0.06948219984769821, -0.2021419256925583, -0.15213589370250702, 0.1382034718990326, -0.14650121331214905, 0.1991686075925827, 0.05942549929022789, 0.042036447674036026, 0.01841219887137413, 0.12137729674577713, 0.3917942941188812, -0.31358960270881653, 0.2849191427230835, 0.04944458603858948, -0.08960673213005066, 0.021133793517947197, -0.4506518542766571, -0.16924023628234863, 0.2953597903251648, 0.13117502629756927, -0.17891569435596466, -0.17729146778583527, 0.07929344475269318, 0.049190305173397064, -0.06051882356405258, 0.18918387591838837, 0.19054768979549408, -0.18220742046833038, 0.08557701855897903, -0.17328296601772308, -0.20829056203365326, 0.14534372091293335, -0.1163485199213028, 0.19804127514362335, -0.15532533824443817, -0.1668701469898224, -0.05015648528933525, 0.07316610217094421, 0.0201168991625309, -0.04898707568645477, 0.3550940454006195, -0.1328853964805603, 0.007216816768050194, -0.08865876495838165, -0.32388535141944885, -0.15212081372737885, -0.07834391295909882, -0.03955686092376709, -0.13199451565742493, 0.014257250353693962, 0.24271200597286224, -0.11477571725845337, 0.04361477866768837, 0.06025945022702217, -0.27831411361694336, 0.08365663886070251, 0.2906334400177002, -0.04469256475567818, -0.21575814485549927, -0.20093746483325958, -0.043772365897893906, -0.08751682937145233, 0.1331622302532196, 0.13250799477100372, -0.10274368524551392, -0.022942522540688515, 0.028300760313868523, 0.14653943479061127, -0.028415808454155922, 0.038626279681921005, 0.11480078101158142, 0.06896287202835083, 0.0843801274895668, 0.06165361776947975, -0.11681704223155975, -0.02224462665617466, -0.8547853827476501, -0.2419205904006958, -0.04113864153623581, -0.05568261072039604, 0.13271883130073547, -0.1397491842508316, -0.05834397301077843, -0.023746363818645477, 0.09941977262496948, 0.0716111809015274, -0.14659717679023743, -0.04405781626701355, -0.16416192054748535, -0.26489922404289246, 0.12448012828826904, 0.04227849841117859, -0.0018485159380361438, 0.050595685839653015, 0.015863975510001183, 0.18449202179908752, -0.022478338330984116, -0.1708078384399414, -0.09753457456827164, -0.15521326661109924, 0.11175074428319931, -0.14715692400932312, -0.15610679984092712, -0.10382252186536789, 0.011656302958726883, -0.2067369520664215, 0.03824130818247795, 0.009965741075575352, -0.18772198259830475, -0.09751749783754349, 0.2754236161708832, -0.23739363253116608, 0.02907070703804493, 0.035855766385793686, -0.04818463698029518, -0.38432154059410095, -0.01895819418132305, -0.06398989260196686, 0.12118852883577347, -0.050273098051548004, 0.1333763301372528, -0.049578405916690826, -0.1735900342464447, 0.042162660509347916, -0.08653494715690613, 0.2362014204263687, -0.01267976313829422, -0.18153969943523407, 0.141897052526474, -0.3056785762310028, 0.1811096966266632, 0.13778641819953918, -0.04488496482372284, 0.05711418017745018, 0.15533018112182617, 0.26849690079689026, -0.058892637491226196, -0.04766939952969551, 0.0048872558400034904, -0.11552437394857407, 0.004014663398265839, 0.04234898462891579, -0.05846332386136055, -0.006863475311547518, -0.11700372397899628, -0.003690240206196904, 0.10815954208374023, 0.038817618042230606, -0.23799273371696472, -0.14850080013275146, 0.06246927008032799, 0.3041788637638092, 0.03727452829480171, 0.06144598498940468, 0.07201415300369263, 0.10098398476839066, 0.00075278349686414, 0.1061822921037674, 0.10990871489048004, -0.010403014719486237, -0.1883632391691208, 0.10994534939527512, -0.19770896434783936, -0.11239626258611679, -0.10703465342521667, -0.009229140356183052, -0.07694502919912338, 0.011936783790588379, 0.12011758983135223, 0.21041367948055267, -0.17886830866336823, -0.03554746136069298, -0.2504270672798157, 0.06197074428200722, 0.029391983523964882, 0.28443029522895813, -0.0843740850687027, -0.010619424283504486, -0.011642172001302242, 0.07358679920434952, -0.1089593842625618, 0.11081873625516891, -0.3104326128959656, -0.04011733829975128, 0.16963417828083038, 0.03272378817200661, 0.01603532023727894, -0.10608404129743576, -0.028924744576215744, -0.13388840854167938, -0.06849969178438187, 0.0029888199642300606, 0.05227939411997795, 0.05721632391214371, -0.13080313801765442, 0.10727042704820633, 0.08833471685647964, -0.27264848351478577, -0.015875985845923424, -0.10131672769784927, -0.048798177391290665, 0.08967453986406326, 0.08986835926771164, 0.05206756666302681, 0.15303842723369598, 0.08097574859857559, -0.11825728416442871, 0.0771254450082779, -0.011951559223234653, -0.03158072754740715, -0.15757721662521362, -0.001464095083065331, -0.009423073381185532, 0.2364460825920105, -0.24328485131263733, 0.002348635345697403, -0.0881248414516449, 0.05418810620903969, 0.13663184642791748, 0.06653697788715363, -0.09234397113323212, 0.07039300352334976, 0.01678515411913395, -0.02365545742213726, 0.055063385516405106, -0.078858882188797, -0.0008790073916316032, -0.16249118745326996, 0.06842228025197983, 0.0092752855271101, 0.02659171260893345, 0.04163501411676407, -0.10736393183469772, -0.13982929289340973, -0.0025207598228007555, 0.11322280019521713, 0.01945246197283268, 0.004618145991116762, 0.1859619915485382, 0.10122689604759216, -0.18239858746528625, -0.0700577050447464, 0.12069199234247208, -0.18005011975765228, 0.012233464978635311, -0.039104919880628586, 0.21697749197483063, -0.2881042957305908, -0.16524408757686615, 0.10412432253360748, 0.09219779074192047, -0.055425722151994705, 0.3273369073867798, -0.18418140709400177, -0.05476560816168785, -0.26169827580451965, -0.017215721309185028, 0.1943151205778122, -0.1316087692975998, -0.11470027267932892, 0.14741361141204834, 0.03727031499147415, 0.06021115928888321, -0.16316041350364685, 0.05060926079750061, -0.036024268716573715, -0.02392740175127983, 0.19737516343593597, 0.097352534532547, -0.06686113774776459, -0.1000237986445427, 0.05396685376763344, 0.05798356235027313, 0.05920858308672905, -0.2780969440937042, 0.03600207343697548, 0.14314880967140198, 0.02283506467938423, -0.14248481392860413, -0.09756452590227127, 0.20533277094364166, 0.03407415375113487, 0.01941310428082943, 0.20275892317295074, -0.2453116625547409, -0.21018186211585999, -0.15836577117443085, 0.06553338468074799, 0.06566359102725983, -0.1542906016111374, -0.13609614968299866, -0.08729232102632523, -0.1128329187631607, -0.17118996381759644, -0.21158672869205475, -0.06782567501068115, -0.011904913000762463, -0.369067519903183, 0.019188933074474335, 0.061365753412246704, -0.054879408329725266, -0.06181599199771881, 0.32447320222854614, -0.025322409346699715, 0.10226615518331528, -0.0799793004989624, -0.1067240834236145, -0.006600211374461651, -0.20894178748130798, -0.024625485762953758, 0.2577621042728424, 0.07436790317296982, -0.162846639752388, -0.034006718546152115, -0.04547390341758728, -0.11150901764631271, 0.16853302717208862, 0.18679773807525635, 0.07692428678274155, -0.13503865897655487, -0.0011709280079230666, -0.06422203034162521, 0.24968545138835907, 0.07505006343126297, -0.22126856446266174, -0.004124769940972328, 0.013460753485560417, 0.024940932169556618, -0.23394355177879333, 0.057615529745817184, 0.20425088703632355, 0.05286308005452156, -0.14903701841831207, -0.12771178781986237, -0.03818393498659134, -0.3308512568473816, 0.26487764716148376, 0.11088108271360397, -0.017344793304800987, 0.04173083230853081, -0.14005090296268463, 0.059977371245622635, -0.17720423638820648, -0.02260461449623108, -0.026152046397328377, 0.1249552071094513, -0.17917664349079132, 0.20071488618850708, -0.17117153108119965, 0.07739760726690292, -0.08633385598659515, 0.12442392110824585, -0.02407185360789299, -0.161216139793396, 0.03405662998557091, 0.030199095606803894, -0.04952824488282204, 0.38219156861305237, 0.02680092491209507, 0.3449767529964447, -0.24155713617801666, 0.03232291340827942, -0.059277214109897614, 0.024222197011113167, -0.11200174689292908, -0.146286278963089, -0.10135630518198013, 0.2905314564704895, -0.029047025367617607, 0.13421569764614105, 0.2945046126842499, 0.13167788088321686, -0.006933742202818394, 0.04204517602920532, -0.0159133467823267, 0.2197810560464859, 0.017211930826306343, -0.3298209607601166, -0.11306525021791458, -0.05589786171913147, 0.3244304060935974, -0.006096994504332542, 0.3544459044933319, 0.17481380701065063, -0.04799043759703636, -0.08788187056779861, 0.05737215653061867, 0.06576073914766312, 0.060311611741781235, 0.1067877784371376, 0.14695023000240326, 0.11612963676452637, -0.08224796503782272, 0.20641548931598663, 0.19926166534423828, -0.0027651411946862936, 0.5414871573448181, 0.08276570588350296, -0.1624375283718109, 0.021198689937591553, -0.22381767630577087, -0.27087944746017456, -0.2180868685245514, 0.17863786220550537, 0.013432102277874947, 0.0042265248484909534, -0.03737521171569824, 0.07819760590791702, 0.2419028878211975, -0.18743160367012024, 0.0954953134059906, -0.0325947068631649, -0.04196443036198616, -0.15821725130081177, -0.06008072942495346, 0.043324269354343414, 0.03636698052287102, 0.18900714814662933, -0.07351061701774597, 0.08815142512321472, 0.10095993429422379, -0.17523305118083954, 0.06732785701751709, -0.05038638040423393, 0.21049277484416962, -0.04092571511864662, -0.056367140263319016, 0.15737837553024292, -0.0462796688079834, -0.005433790851384401, -0.1825205385684967, 0.025823699310421944, 0.14882849156856537, 0.021391352638602257, 0.09091100841760635, 0.024691248312592506, 0.4279554486274719, 0.1519416868686676, -0.21708935499191284, 0.09201960265636444, 0.08324916660785675, 0.09516873210668564, -0.16018199920654297, -0.10398422181606293, -0.16889187693595886, 0.10606411099433899, 0.03421369940042496, -0.07753542810678482, 0.05699773132801056, 0.6535279154777527, 0.08978316187858582, -0.2170051634311676, -0.22343677282333374, -0.34029656648635864, 0.39932820200920105, 0.24157679080963135, -0.2827211916446686, 0.2932356595993042, -0.3228914737701416, 0.33188867568969727, -0.016382994130253792, 0.17886796593666077, 0.000769065401982516, 0.1159021183848381, 0.3042691648006439, 0.013182466849684715, 0.1642908751964569, -0.1876276433467865, 0.3996187448501587, -0.08926620334386826, -0.3699428141117096, -0.29192161560058594, 0.19663046300411224, -0.05353633686900139, 0.4178421199321747, 0.12790809571743011, 0.03199218958616257, -0.13721024990081787, 0.38681760430336, 0.14142672717571259, 0.09036295861005783, -0.07083095610141754, 0.2628825008869171, -0.2597177028656006, -0.19078266620635986, 0.398782342672348, 0.1625843644142151, 0.06892062723636627, 0.008500621654093266, 0.05935555323958397, 0.33381298184394836, -0.04928997904062271, 0.8030012249946594, 0.13036014139652252, -0.044601742178201675, 0.2539030909538269, -0.299469530582428, -0.04960278049111366, 0.28005489706993103, 0.1758032888174057, -0.20689314603805542, -0.26948559284210205, -0.08296898007392883, -0.30080312490463257, -0.20746788382530212, -0.06619881093502045, -0.0448596253991127, 0.08573637902736664, -0.07685994356870651, 0.09854158759117126, 0.2924347519874573, -0.024854609742760658, 0.27754396200180054, 0.14729587733745575, 0.31258490681648254, -0.4382844567298889, -0.11387766897678375, -0.007651563733816147, 0.22050157189369202, 0.2206202894449234, -0.3968859314918518, 0.20791012048721313, 0.20465965569019318, 0.2510053217411041, 0.33257678151130676, 0.11356706917285919, -0.2535906136035919, 0.029916545376181602, 0.1364540159702301, -0.22627553343772888, 0.004671477247029543, -0.38207072019577026, -0.30622875690460205, -0.46268007159233093, 0.39589861035346985, -0.30506378412246704, -0.41878411173820496, 0.4513106942176819, 0.2989238500595093, 0.537259578704834, 0.009480244480073452, -0.31696638464927673, -0.19411712884902954, -0.13705827295780182, 0.2119576632976532, 0.2001136988401413, -0.07525592297315598, -0.02659357525408268, -0.10938093811273575, 0.09459161013364792, -0.030979221686720848, 0.13230378925800323, -0.1995975375175476, 0.02632562629878521, 0.11543015390634537, 0.27447786927223206, 0.5563015937805176, 0.2900817394256592, 0.014106586575508118, 0.047116413712501526, 0.14935895800590515, -0.049981195479631424, 0.2250840961933136, -0.21675662696361542, -0.15568554401397705, -0.34567463397979736, 0.006141217425465584, -0.10394061356782913, -0.04441194236278534, 0.12668706476688385, 0.022436460480093956, 0.08032863587141037, 0.1376248002052307, 0.2868167757987976, 0.13659144937992096, 0.043957654386758804, 0.047440625727176666, 0.21298927068710327, 0.37147143483161926, -0.33036237955093384, -0.48458826541900635, -0.25602617859840393, 0.287006139755249, 0.03341455012559891, -0.5568214058876038, 0.23815350234508514, 0.15823733806610107, 0.7330220341682434, 0.12261222302913666, -0.0998380109667778, 0.032232873141765594, -0.24102871119976044, 0.3528096675872803, -0.12432119995355606, -0.027242930606007576, -0.6305888295173645, -0.022556627169251442, 0.0763763040304184, 0.417883962392807, -0.3706074655056, -0.27263548970222473, 0.2512228488922119, 0.34736913442611694, 0.2797216475009918, 0.224656343460083, 0.05903434753417969, 0.08498470485210419, -0.3916933834552765, 0.31094613671302795, -0.08578023314476013, 0.5555763840675354, 0.043829888105392456, 0.029994087293744087, -0.03628084436058998, 0.5306218862533569, -0.04923051595687866, -0.23687325417995453, 0.06782623380422592, -0.10103917121887207, 0.038053903728723526, 2.563582420349121, 0.6137428283691406, -0.14667576551437378, 0.0685872733592987, 0.10638421028852463, -0.3846510052680969, 0.1437418907880783, 0.05319488048553467, 0.12444430589675903, -0.12865838408470154, -0.01614060252904892, 0.28269338607788086, 0.08787403255701065, 0.4443342983722687, 0.20865082740783691, -0.023027075454592705, -0.12948232889175415, 0.09398343414068222, 0.6038272380828857, 0.34422194957733154, 0.10511265695095062, 0.10609706491231918, 0.23502729833126068, -0.2106589376926422, -0.3782234489917755, -0.04363777115941048, 0.33741188049316406, 0.1426316499710083, -0.3937227427959442, 0.279344379901886, -0.1748645305633545, 0.1924571394920349, -0.0548115037381649, 0.20532113313674927, -0.1472039371728897, -0.12767983973026276, 0.07704779505729675, -0.42631202936172485, 0.2862335741519928, -0.04163682833313942, -0.2698870897293091, 0.03431921824812889, -0.04261048883199692, -0.05526657775044441, -0.2186998575925827, -0.007721258327364922, 0.762024462223053, 0.0014911969192326069, 0.33876654505729675, -0.16835422813892365, 0.21630528569221497, -0.05973568186163902, -0.21040627360343933, 0.13986390829086304, 0.17281474173069, -0.12087904661893845, -0.11222604662179947, -0.07893523573875427, 0.02103601209819317, 0.3326285481452942, -0.2611904442310333, 0.007208243012428284, 0.1026400551199913, 0.27582085132598877, 1.0725665092468262, -0.21727989614009857, -0.08895599842071533, 0.04328274726867676, 0.16969972848892212, 0.04433872550725937, -0.17869196832180023, -0.10088838636875153, -0.19524754583835602, -0.03640107437968254, 0.2052469551563263, -0.011456303298473358, 0.04067741706967354, 0.2962048351764679, 0.12849697470664978, 0.5097235441207886, 0.022041337564587593, 0.4285412132740021, -0.18433880805969238, -0.020935816690325737, 0.18160898983478546, 0.3412366211414337, 0.17172075808048248, -0.6186020374298096, -0.27656111121177673, -0.06352122873067856, 0.5348612070083618, 0.29819297790527344, -0.31932252645492554, 0.5701380372047424, -0.06418530642986298, 0.5180579423904419, 0.29665184020996094, 0.4011949300765991, -0.5918073654174805, 0.19975025951862335, 0.20728178322315216, -0.529223620891571, 0.36496782302856445, -0.2927558720111847, -0.09775960445404053, -0.2834406793117523, -0.031024614349007607, -0.3524572551250458, -0.4070351719856262, 0.4098065495491028, 0.6327764987945557, 0.29667168855667114, -0.028536159545183182, -0.3231148421764374, 0.46238017082214355, 0.4632524251937866, -0.1816464513540268, 0.22145457565784454, 0.30403950810432434, -0.08440079540014267, -0.25832706689834595, -0.08455697447061539, 0.15234720706939697, 0.14120657742023468, 0.03535134345293045, -0.10932905972003937, 0.014860148541629314, 0.341270387172699, -0.27692994475364685, 0.25137028098106384, 0.1469956338405609, -0.14498649537563324, 0.11956693232059479, 0.10065530985593796, 0.10835466533899307, -0.0250079445540905, -0.013966173864901066, -0.2598785161972046, -0.002408195286989212, -0.1218029111623764, -0.1887212097644806, 0.21827338635921478, 0.23702654242515564, 0.0701449066400528, 0.140168696641922, -0.2176453322172165, 0.05106440931558609, -0.13586992025375366, 0.10662233084440231, 0.06761471927165985, -0.004454790148884058, 0.1756024956703186, -0.1216471791267395, -0.3584232032299042, -0.03614715859293938, 0.08974455296993256, -0.2904498875141144, 0.21485455334186554, 0.10981059819459915, 0.08946169167757034, 0.4814990162849426, 0.05754171311855316, -0.0911562591791153, -0.05596146360039711, 0.06830298155546188, -0.03406590223312378, -0.0911707729101181, -0.13714604079723358, 0.017864428460597992, -0.10609708726406097, -0.3063881993293762, -0.016174035146832466, 0.2662271559238434, 0.1605158895254135, -0.04917668178677559, 0.34758421778678894, -0.032030802220106125, 0.16310001909732819, -0.013544581830501556, 0.19445084035396576, 0.33796289563179016, 2.0977871417999268, 0.8709009885787964, -0.1155746802687645, -1.1045870780944824, 0.3892737030982971, 0.8606435656547546, 0.0047038826160132885, -0.5320422649383545, 0.6441441774368286, -0.6467212438583374, 0.35859915614128113, -0.03280037268996239, 0.7654845714569092, -0.3243080973625183, -0.3140954077243805, 0.8799632787704468, -0.6931197047233582, 0.4774157702922821, 0.12159369140863419, -0.16768458485603333, -1.0263774394989014, -0.8383774161338806, -0.7473778128623962, 0.06605516374111176, 0.8800331354141235, 0.8373585343360901, 0.1706216186285019, 0.16642166674137115, 0.10230496525764465, 0.6061190366744995, 0.3654576539993286, 0.7673481106758118, 0.6427128314971924, 0.28171634674072266, -0.2964783310890198, -0.6472824215888977, -0.5044612288475037, 0.30095362663269043, 0.2118450254201889, -0.4524215757846832, -0.03771352022886276, -0.5383021235466003, 0.7472643852233887, 0.11714837700128555, 0.2737813889980316, -0.1418190896511078, -0.09455036371946335, -0.05090847611427307, -0.2758346199989319, 0.08472917973995209, -0.23564903438091278, -0.33948615193367004, 0.010824442841112614, -0.6394972205162048, -0.42537516355514526, -0.14863049983978271, 0.42184779047966003, 0.7213408350944519, 0.17641425132751465, 0.24224691092967987, -0.024659723043441772, 0.1850830465555191, 0.10073279589414597, 0.18306657671928406, 0.21228693425655365, -0.10683051496744156, 0.07093659043312073, -0.03194582089781761, -0.2546929717063904, 0.15559782087802887, 0.2137078195810318, 0.007647332735359669, 0.30264705419540405, -0.11549871414899826, 0.12253191322088242, 0.2200969010591507, 0.14664088189601898, -0.1664966493844986, 0.07211315631866455, 0.08290738612413406, -0.30325207114219666, 0.06984908133745193, 0.0010525997495278716, 0.3093407154083252, 0.2542366087436676, -0.22875389456748962, -0.2034134864807129, 0.13842536509037018, -0.04002692922949791, 0.23967352509498596, 0.03137005493044853, 0.12857164442539215, 0.006479048635810614, 0.16683216392993927, 0.21638673543930054, 0.05277715250849724, 0.17444011569023132, -0.18680977821350098, -0.8189677596092224, -0.43829888105392456, 0.03724195808172226, 0.3144504427909851, 0.3011634349822998, -0.20095258951187134, 0.4663165509700775, -0.2936231195926666, 0.3883901834487915, 0.22471071779727936, 0.2900925874710083, -0.2162637859582901, 0.19613705575466156, -0.013460015878081322, -0.4446737468242645, 0.45502185821533203, -0.3037479817867279, 0.012161322869360447, -0.21502098441123962, -0.007983655668795109, -0.4369349777698517, -0.07938572019338608, 0.1682501882314682, 0.12605999410152435, -0.06111475080251694, 0.6868568658828735, 0.18500162661075592, 0.13894155621528625, 0.0076477243565022945, -0.06864412873983383, 0.32618463039398193, -0.021283691748976707, -0.19930391013622284, -0.569618284702301, -0.2998631000518799, 0.4927213788032532, 0.18917420506477356, -0.3318973183631897, -0.0471164844930172, -0.29337504506111145, 0.1790609359741211, -0.11947094649076462, -0.3221651613712311, -0.017604954540729523, 0.02361585944890976, 0.25527945160865784, -0.33103546500205994, 0.38409915566444397, -0.4084570109844208, 0.1536807119846344, 0.22873511910438538, -0.21683737635612488, -0.08946771174669266, -0.45467036962509155, -0.03879070281982422, 0.36718276143074036, 0.02236311323940754, 0.20183758437633514, 0.23757432401180267, 0.34856554865837097, 0.11144441366195679, 0.02909253165125847, 0.3399345874786377, -0.6851134300231934, -0.06068295240402222, -0.0990130677819252, -0.4850834906101227, 0.10084085911512375, 0.019069580361247063, -0.08169688284397125, 0.4369606375694275, -0.22359447181224823, 0.104248046875, 0.7796019911766052, 0.08356494456529617, -0.217361181974411, 0.011889949440956116, 0.22027502954006195, -0.09699898958206177, 0.08265077322721481, 0.2828865647315979, 0.9598080515861511, 0.5702123641967773, -0.6306137442588806, -0.03811148181557655, 0.1642812192440033, 0.10700589418411255, 0.28930917382240295, 0.09656012058258057, 0.07757916301488876, 0.048257339745759964, 0.04707879200577736, 0.30409207940101624, -0.07975781708955765, 0.4222346246242523, -0.1357407122850418, -0.22326374053955078, -0.2044857144355774, -0.21890954673290253, 0.23625341057777405, 0.2559630274772644, -0.3840390741825104, 0.25111666321754456, 0.0030968592036515474, 0.13439291715621948, 0.11459080874919891, 0.32940441370010376, -0.13749369978904724, -0.18325498700141907, 0.1281036138534546, -0.17237521708011627, 0.24036887288093567, -0.21783973276615143, 0.0974590927362442, -0.056833092123270035, -0.10751238465309143, -0.04804109036922455, 0.03309434652328491, 0.2757481336593628, -0.14037959277629852, -0.09687738865613937, 0.18278521299362183, 0.11511237919330597, 0.10742247849702835, 0.16231290996074677, 0.06104249507188797, -0.03645961731672287, 0.1937737613916397, -0.19322051107883453, -0.16253475844860077, -0.11430753022432327, 0.10605607181787491, -0.23663677275180817, -0.18164069950580597, -0.20914430916309357, -0.24450261890888214, 0.35876110196113586, -0.12345398217439651, 0.059608373790979385, 0.23863288760185242, 0.050118811428546906, 0.09924217313528061, -0.0280009675770998, 0.22651271522045135, -0.3742699921131134, 0.016912344843149185, -0.16332194209098816, 0.001486161258071661, -0.17908810079097748, -0.07735781371593475, 0.3072795569896698, 0.3081749975681305, -0.19507750868797302, -0.0509565994143486, -0.14892472326755524, -0.0914452075958252, -0.06329832226037979, 0.20531724393367767, 0.2536890208721161, -0.04366554692387581, -0.13328666985034943, -0.39705345034599304, -0.040363606065511703, 0.297668993473053, 0.38735389709472656, -0.33072468638420105, 0.4259491264820099, -0.08192525804042816, 0.40004879236221313, 0.38142138719558716, -0.1146039068698883, -0.2646055221557617, -0.007724653463810682, 0.43651536107063293, -0.1636878252029419, 0.3085304796695709, -0.4355652630329132, 0.1705012172460556, 0.08184098452329636, -0.3071215748786926, -0.5717012286186218, 0.10122364014387131, 0.06642911583185196, 0.20967638492584229, -0.059454187750816345, -0.012536375783383846, 0.1603621244430542, 0.4365115463733673, -0.09290842711925507, 0.0863177701830864, 1.1147353649139404, -0.05181652307510376, 0.018558569252490997, -0.1646205335855484, 0.2208191305398941, 0.5645111799240112, 0.06892620027065277, -0.49687591195106506, 0.32479608058929443, -0.03538854047656059, 0.2725265622138977, 0.7989403009414673, 0.5350093245506287, -0.28216132521629333, -0.1874556988477707, 0.009249679744243622, -0.6789726614952087, 0.07528764754533768, 0.011102969758212566, 0.17978115379810333, -0.363739937543869, -0.6901102066040039, -0.5407697558403015, -0.008787102065980434, 0.11667930334806442, 0.27618226408958435, 0.1099078506231308, 0.024911679327487946, -0.23586557805538177, 0.4532804489135742, 0.6094743609428406, 0.14728572964668274, 0.3448873460292816, 0.12128986418247223, -0.22756674885749817, -0.5638940334320068, -0.395758718252182, 0.555138885974884, 0.3711017966270447, -0.6429620385169983, 0.008973997086286545, -0.21777521073818207, 0.371591717004776, -0.3715764582157135, 0.09288030862808228, -0.2031772881746292, 0.020814796909689903, 0.6312888264656067, -0.5756237506866455, 0.418357789516449, -0.5519182682037354, 0.07733634859323502, -0.04915723577141762, -0.14591240882873535, -0.3788008689880371, 0.057938721030950546, 0.15816211700439453, 0.37150222063064575, -0.013808700256049633, 0.2510527968406677, 0.003986694384366274, 0.46488115191459656, 0.1341903954744339, -0.15612459182739258, 0.4890795648097992, -0.0007240099948830903, -0.24938958883285522, -0.37394729256629944, -0.22039943933486938, 0.6862640380859375, 0.33510932326316833, -0.42850685119628906, 0.05324839428067207, -0.17424143850803375, -0.04755627363920212, 1.1303198337554932, 0.37356361746788025, 0.02921246737241745, 0.1988532543182373, 0.16981200873851776, -0.5670305490493774, 0.37946122884750366, 0.07985591888427734, 0.3076319694519043, -0.28269094228744507, -0.07063756138086319, -0.17966604232788086, -0.13140538334846497, -0.17814402282238007, 0.6087703704833984, -0.18914657831192017, 0.19238553941249847, -0.085300974547863, 0.15262925624847412, 0.35217535495758057, -0.29616644978523254, 0.44161927700042725, 0.37727615237236023, -0.2100345492362976, -0.4795847237110138, -0.009520742110908031, 0.2287295013666153, 0.8206842541694641, -0.4016154408454895, 0.17533734440803528, 0.14841711521148682, 0.5839384198188782, 0.737585723400116, 0.15323230624198914, -0.09306202083826065, 0.400821715593338, -0.265079528093338, -0.08658736199140549, 0.27808260917663574, -0.064193494617939, -0.030157802626490593, -0.6982588768005371, 0.34948065876960754, -0.1392299234867096, -0.1784176081418991, -0.18700700998306274, 0.7351240515708923, 0.1322513222694397, 0.3976793587207794, 0.14712324738502502, 0.41861656308174133, -0.2896784245967865, 0.19524171948432922, 0.033677808940410614, -0.1438409388065338, -0.16155558824539185, -0.2321012318134308, -0.14999134838581085, 0.3060597777366638, 0.25106990337371826, -0.12505513429641724, -0.00493611628189683, -0.23335130512714386, 0.1647433638572693, 0.5830442905426025, 0.0013359758304432034, -0.21573959290981293, 0.17093606293201447, 0.0980384573340416, -0.16805525124073029, 0.1837228685617447, -0.0208056028932333, -0.0023014028556644917, -0.24693910777568817, -0.04645270109176636, -0.25643259286880493, -0.10794828087091446, 0.1313786506652832, 0.24690032005310059, 0.1361370086669922, -0.04073569178581238, -0.1798887848854065, 0.262126088142395, -0.010542474687099457, 0.32572707533836365, 0.31316956877708435, -0.25442835688591003, -0.14879238605499268, -0.41116249561309814, -0.00852145068347454, 0.7150799036026001, 0.44012323021888733, -0.5267205238342285, 0.40864813327789307, -0.23056066036224365, 0.2087663859128952, 0.6846876740455627, 0.11894126236438751, -0.18297205865383148, 0.3749023973941803, -0.0671546459197998, -0.6436635851860046, 0.2504858076572418, -0.1409159153699875, 0.16293002665042877, -0.013769586570560932, 0.12013185769319534, -0.3033185303211212, -0.18404130637645721, -0.11815103143453598, 0.5450406670570374, -0.010076139122247696, 0.31189319491386414, -0.26126813888549805, 0.4291708767414093, 0.30714958906173706, -0.16313114762306213, 0.8369529843330383, -0.18579162657260895, -0.43289586901664734, -0.2805272340774536, -0.5329546928405762, 0.33478793501853943, 0.03618845343589783, -0.18856170773506165, 0.22254107892513275, -0.09085169434547424, 0.1054263487458229, 0.0056214164942502975, 0.06377100944519043, 0.03714844956994057, -0.03566407784819603, 0.08964990079402924, -0.3635205328464508, 0.2388887107372284, -0.13196006417274475, 0.3309491276741028, 0.09619675576686859, -0.5992843508720398, -0.3804425597190857, -0.10063333809375763, 0.38753461837768555, 0.16021959483623505, -0.10959033668041229, -0.22104744613170624, 0.02700858563184738, 0.2411339282989502, 0.24802176654338837, 0.43526628613471985, 0.23084867000579834, -0.015288503840565681, -0.10296835005283356, -0.4169699549674988, -0.06690514087677002, 0.33322790265083313, 0.478911429643631, -0.35754096508026123, 0.0885617583990097, 0.049369290471076965, 0.15849533677101135, -0.31517887115478516, -0.18840035796165466, -0.061487000435590744, 0.4233361780643463, -0.11644972860813141, -0.17511984705924988, 0.32854393124580383, -0.16407866775989532, -0.1988854855298996, -0.11167167872190475, 0.04147448390722275, -0.37983816862106323, -0.2194766402244568, -0.138798788189888, 0.41333505511283875, -0.0827215313911438, 0.30763307213783264, -0.0013645165599882603, 0.09070934355258942, 0.07599614560604095, -0.04988666623830795, 0.25916334986686707, 0.20887213945388794, -0.39583995938301086, -0.27753424644470215, -0.3852904140949249, 0.3043159246444702, 0.6043776273727417, -0.2780577838420868, 0.3422775864601135, -0.12352430820465088, 0.37726861238479614, -0.38968703150749207, -0.09979583323001862, -0.07950226962566376, -0.23742827773094177, 0.1336146593093872, -0.23421868681907654, 0.26152098178863525, -0.32354745268821716, -0.19593338668346405, 0.14332149922847748, -0.5532275438308716, -0.24697348475456238, -0.3296263515949249, 0.03937172517180443, 0.23657535016536713, -0.2568221986293793, 0.30499008297920227, 0.33011969923973083, 0.11243295669555664, 0.07846272736787796, -0.23998117446899414, -0.07161321491003036, 0.28757137060165405, -0.09652534872293472, 0.0021891631186008453, -0.12577642500400543, 0.026389572769403458, 0.12282940745353699, 0.007341945543885231, 0.05152264982461929, -0.1252371221780777, 0.054469671100378036, -0.3178102970123291, 0.0924062579870224, 0.31459054350852966, 0.0388944149017334, -0.001863459823653102, -0.03462354838848114, 0.03461218997836113, 0.09487844258546829, 0.1708676517009735, 0.5130831003189087, -0.2026456594467163, 0.06057942286133766, 0.001177858212031424, -0.04965255782008171, -0.2448563426733017, -0.18588516116142273, -0.08646612614393234, 0.0854129046201706, 0.04481569305062294, 0.044051434844732285, -0.07181619107723236, 0.34303754568099976, -0.2889477014541626, -0.3972010612487793, -0.35416677594184875, -0.6860169172286987, 0.32139062881469727, 0.35251012444496155, -0.440134733915329, 0.11631800979375839, -0.5449764728546143, 0.26851552724838257, -0.45165926218032837, -0.2839776575565338, -0.15454505383968353, 0.054391928017139435, 0.3300214409828186, -0.26276087760925293, 0.17088991403579712, -0.1580166220664978, 0.21299591660499573, 0.21838140487670898, -0.5576632618904114, -0.1892661154270172, 0.6377859115600586, -0.3450430631637573, 0.5047827363014221, 0.27860766649246216, 0.15322540700435638, 0.27165335416793823, 0.2872297763824463, 0.14771698415279388, -0.03257200866937637, 0.2097635567188263, 0.6122147440910339, -0.3053049147129059, -0.33968019485473633, -0.3263464570045471, 0.40415892004966736, 0.11150484532117844, -0.31651315093040466, 0.44242528080940247, 0.11449133604764938, 0.3546815514564514, 0.31724047660827637, 0.09129330515861511, -0.3771757185459137, -0.08415847271680832, 0.05810759589076042, -0.3485880196094513, 0.28019478917121887, -0.2860298454761505, 0.1735982596874237, 0.0750415176153183, -0.023201629519462585, -0.336591899394989, -0.013159106485545635, 0.3669571876525879, 0.38965556025505066, 0.3352225422859192, -0.25301048159599304, -0.13064222037792206, 0.00406277971342206, -0.04722452908754349, 0.27922338247299194};
#endif

#endif
