//Numpy array shape (32, 128)
//Min -0.193599268794
//Max 0.193618595600
//Number of zeros 0

#ifndef LSTM_11_H_
#define LSTM_11_H_

#ifndef __SYNTHESIS__
model_default_t lstm_11[4096];
#else
model_default_t lstm_11[4096] = {0.122196384, 0.08220367, -0.045242015, -0.12745658, 0.0115905665, -0.06695224, -0.08256816, 0.056686033, 0.13373262, -0.17838039, 0.058782153, 0.09128764, 0.0663745, -0.092168, 0.18560848, 0.17917342, 0.035432704, -0.035836875, 0.044722393, 0.17271532, 0.18929285, 0.037916444, 0.022737574, 0.09620449, -0.06819613, -0.033584047, 0.083624855, -0.15502313, -0.05143024, -0.16502562, -0.058087036, 0.12941098, -0.18339899, -0.14613593, 0.026507113, -0.0419599, -0.018780774, -0.021596298, 0.18716428, -0.18496946, -0.075493835, 0.14610091, 0.10417975, 0.026239062, -0.13360202, 0.004508691, 0.023100639, -0.08769352, -0.023336064, -0.14851938, 0.04478104, 0.120133206, 0.1776106, 0.19127384, 0.1635917, -0.13105941, 0.061559472, -0.11976841, -0.010745395, 0.10000054, -0.008635378, -0.19252716, -0.063880384, 0.04774412, 0.12906365, -0.058657534, 0.06252442, -0.044365693, -0.0048777633, 0.06864012, 0.16245627, 0.080712326, -0.1567284, 0.10422808, -0.017639607, 0.113559775, 0.16917087, -0.0992842, 0.13774733, -0.047129378, 0.044299424, 0.014553647, -0.13240735, -0.08561601, 0.03993597, 0.04075333, -0.064611815, -0.08403329, -0.14535005, -0.00025367283, 0.0043599783, -0.07116638, -0.17781623, -0.1613154, -0.048346464, -0.16701382, 0.14299852, -0.14573182, 0.09397677, -0.024799194, -0.18748456, 0.08999043, -0.0024260425, -0.09204349, 0.0997985, -0.08074151, -0.016510462, 0.08660522, -0.04706879, -0.16709037, -0.00162791, -0.13614503, -0.18076357, 0.12409558, -0.09863321, 0.16363962, 0.16253495, 0.11437668, 0.10229101, 0.063055694, -0.07795906, -0.11746686, -0.00080466986, -0.17316814, -0.19358279, 0.061906904, 0.076435566, -0.042801674, 0.16638412, -0.041790396, 0.025388006, -0.053401727, -0.13721634, 0.06736519, 0.043407515, -0.07272939, -0.1835409, -0.123896524, 0.027941564, -0.15528716, 0.005334761, -0.11647556, -0.13951296, -0.0073628374, 0.06473687, 0.002925987, -0.007040761, 0.079916574, -0.18636611, -0.054629408, -0.050594497, 0.10037863, -0.08628047, 0.15182963, -0.09073511, 0.18434705, 0.12964949, 0.16186622, -0.030826584, -0.09107246, -0.06757623, -0.15313965, -0.12695602, -0.06860072, -0.16874453, 0.087745875, 0.0633139, 0.19282275, 0.06895059, 0.040969674, 0.18540311, -0.09178915, 0.10827935, 0.052513707, 0.1251955, 0.12833992, 0.09995627, -0.11853246, -0.008252761, -0.040109836, -0.18310381, 0.05355039, 0.14627385, -0.06126553, 0.001285584, -0.12840983, -0.1824169, -0.011538524, 0.103986084, -0.045175806, 0.007976621, -0.002241105, 0.07584008, -0.011807907, 0.10106592, 0.16939053, 0.11505181, 0.12201833, 0.13887753, -0.15014157, -0.09618586, 0.115638845, 0.0019533206, -0.09896425, -0.09184466, -0.15232424, -0.13626434, -0.05532553, -0.16545671, 0.07898342, 0.04022636, -0.09220519, -0.0011456425, 0.06690958, -0.031819604, -0.11564553, -0.11063043, 0.08134572, 0.015724076, 0.14411622, 0.015027237, -0.08055511, -0.1784097, -0.1249491, -0.121209376, 0.05173926, -0.13027713, -0.12188402, -0.18341933, 0.13094786, 0.10497302, 0.12679146, 0.1734178, 0.18938771, -0.17187856, -0.074996494, 0.109549366, -0.13911434, 0.16611102, 0.14639246, 0.0910075, -0.13905448, 0.16873957, 0.09363235, -0.15878136, -0.103071325, -0.17739864, 0.15585694, -0.032876194, -0.15879267, 0.010993413, 0.170734, -0.1611517, 0.1012637, 0.16327953, -0.095182106, 0.024431912, -0.04059493, 0.11822141, 0.12061247, 0.17247757, 0.17771035, -0.1199336, 0.035742264, 0.13807058, 0.04830297, 0.005184613, 0.16419464, 0.09385027, 0.11491492, 0.011201368, -0.11824502, -0.07278942, 0.09554766, -0.09815375, -0.098703794, -0.005268543, 0.12178098, -0.030921478, 0.010714152, 0.116743475, -0.1322557, -0.1640877, 0.09768769, 0.01574684, 0.09607217, -0.038733214, 0.18843976, 0.1908241, -0.14503773, -0.14808975, 0.121779725, 0.020808602, 0.16326529, -0.16391237, -0.0133088995, 0.019624349, -0.18283147, -0.094153985, -0.10462479, -0.17513272, -0.121994, 0.11088105, 0.016344842, 0.14957625, -0.0867566, -0.07174016, -0.18131563, -0.16594766, 0.18117747, -0.011678901, -0.132128, -0.017507048, 0.009472961, 0.08225713, -0.15143976, -0.13205154, -0.109682396, -0.05611296, -0.045355827, -0.045837734, 0.16125135, -0.061655425, -0.052217804, -0.0753777, -0.10965634, -0.035603445, -0.06083348, 0.038777772, -0.16980125, -0.18229643, -0.12233888, 0.15520039, -0.101133406, 0.14561169, 0.07594956, -0.03905997, 0.15692042, -0.12312199, 0.069692455, 0.011719893, 0.005833743, 0.120631464, -0.08970415, 0.12648204, 0.053150527, 0.07542087, -0.13882588, 0.013787711, 0.035001572, 0.023174185, -0.03855117, 0.06304466, -0.04295951, 0.16577308, 0.10591406, -0.06372753, -0.04550688, -0.12496492, -0.1931548, 0.19084212, -0.08428757, 0.0516255, -0.10318989, -0.106770374, -0.15159033, 0.090752274, 0.04722315, 0.038749084, 0.08262468, 0.04735377, 0.0604764, -0.16178986, -0.19341828, 0.015327538, 0.090584636, -0.0035845356, -0.0014456015, -0.031086061, 0.10023182, 0.0803425, 0.07757825, -0.067253724, -0.0033499668, 0.08754609, 0.15377708, -0.13568574, -0.151007, -0.052685603, 0.13168429, -0.07303798, -0.1634762, 0.18610525, 0.19037843, -0.16623498, 0.15365535, 0.1528255, -0.1612077, 0.083241075, -0.09054317, 0.09512353, -0.12237267, 0.09043808, -0.04945589, 0.072993904, -0.0844884, 0.10265059, -0.005759787, -0.16211101, -0.09422436, 0.119889155, -0.10583525, 0.09660548, -0.11566407, -0.15562604, 0.11555418, 0.066912875, -0.06967822, -0.09759348, 0.019370284, -0.071779214, 0.10722931, -0.122293204, -0.12278253, -0.14662926, -0.0115237115, 0.06879982, -0.14785732, -0.11662816, 0.07467623, -0.07717118, 0.027279118, 0.1512621, -0.041367874, 0.08506403, -0.16296397, -0.08232993, 0.1773628, -0.09653112, 0.15799597, 0.13129371, -0.036027867, -0.1335199, 0.18663538, -0.17321992, 0.052160934, 0.10368797, 0.037315097, 0.055362687, 0.17311421, -0.03776492, 0.022406474, 0.17674528, -0.12599562, -0.16965814, -0.044353988, 0.00069571164, 0.04803057, 0.07810984, 0.07603328, 0.0014226674, 0.06105779, -0.041737217, -0.18198691, -0.15695448, -0.14764662, -0.1045681, -0.064223, 0.03808709, 0.027204338, -0.06339538, -0.045753606, 0.004603432, -0.15606508, 0.06181701, 0.02958803, 0.030856153, -0.02092343, -0.047544748, -0.06892935, 0.05056669, 0.06358058, 0.030070571, 0.151724, -0.099533126, -0.07054191, -0.15818287, 0.19255424, 0.034877826, -0.12305065, -0.13248101, 0.11169034, -0.026371138, 0.1368442, -0.19198623, 0.16194865, 0.050808437, -0.012107295, -0.071431056, 0.07139705, -0.026943952, 0.016833622, -0.04305019, 0.011257991, -0.17363517, 0.17870066, -0.030972408, 0.03460786, -0.11679371, -0.1391816, -0.18571143, -0.059750784, -0.19258963, 0.14781484, -0.093050286, 0.106526285, -0.14733708, 0.037668075, 0.08110574, -0.058003828, 0.14263088, -0.13041678, 0.19180933, 0.09969288, 0.024612619, 0.103842296, -0.11319428, -0.09846865, 0.09847333, -0.05251721, -0.06783932, -0.09734332, 0.124557585, 0.020094855, -0.14421949, -0.102870904, 0.02660039, -0.10302733, 0.09529814, -0.038387034, -0.16146898, -0.10995382, -0.0823706, -0.09547145, -0.059282683, -0.07100313, 0.18990454, -0.11332001, -0.06409286, 0.002608686, -0.15853602, -0.039804507, -0.08390251, 0.111727215, -0.00952878, -0.18827693, -0.1564061, -0.05492505, -0.1369861, 0.1523762, -0.07748175, -0.01348942, -0.09691988, -0.041953553, 0.1424006, 0.03579429, 0.08122642, 0.008636556, -0.0852514, 0.05139551, -0.091296434, -0.06398753, 0.13036919, 0.0024986519, -0.18237743, 0.08655884, 0.15156539, -0.19140561, -0.1876214, 0.04733241, 0.08854421, 0.06787399, 0.13954253, -0.06853316, -0.05286256, 0.012892057, -0.034751896, 0.15182899, 0.045181096, -0.008405609, 0.057141226, 0.012551873, -0.19294104, 0.18177906, 0.087808095, -0.13296899, -0.19348983, -0.12426905, 0.18035868, -0.11027109, 0.16169322, -0.1920627, -0.17320468, -0.07893912, 0.06325111, 0.10434082, -0.15773796, -0.06571021, 0.07232697, -0.0690013, 0.07640641, 0.022797631, -0.11294875, -0.037481785, 0.103880495, -0.039080344, 0.024049805, 0.04590889, 0.09297857, 0.15292135, -0.027520286, -0.17934448, -0.061936703, -0.09234887, -0.14273107, 0.16966301, -0.037940595, -0.1447266, -0.013126745, 0.054716025, -0.09986084, -0.12775555, 0.010554074, -0.013201011, -0.067120224, 0.15001835, -0.0037418439, -0.037887707, 0.17411852, -0.11508206, 0.1443043, 0.18016267, 0.14471665, -0.15686771, -0.18539391, -0.078530855, 0.14272088, 0.091787666, -0.040361855, 0.053393442, 0.18357533, -0.0050603016, 0.12688501, 0.041948818, -0.09166666, -0.060128514, 0.08741591, 0.1765949, 0.08246353, -0.05114915, 0.15030122, 0.12486216, 0.17217967, 0.050028965, 0.041995887, -0.07482461, -0.037021328, -0.17817569, 0.1116963, 0.11155513, -0.016964912, -0.07909358, -0.13851757, -0.10363853, -0.14628024, -0.12975727, 0.17885971, 0.14585426, 0.18411887, -0.16362882, -0.023770737, 0.006913405, 0.0048894603, 0.08854422, 0.16651273, 0.014270797, 0.18806008, -0.007656436, 0.11900381, 0.10082878, -0.099069156, -0.14780653, -0.10379046, 0.18543035, -0.05987068, 0.014567501, -0.0404084, -0.12884566, -0.029527247, -0.16913053, -0.18794738, -0.10367199, 0.0077656214, -0.08431173, 0.006848121, 0.014683109, -0.0146295605, 0.08566781, 0.10831445, -0.15470053, -0.10359817, -0.030008987, 0.063864075, 0.11640329, -0.1729236, 0.023062715, -0.053292207, 0.16074073, -0.0027498202, 0.08702595, 0.13913275, -0.09565781, 0.020036712, -0.13562086, -0.094783716, 0.12707524, 0.10715032, -0.023398291, 0.054461516, 0.03623638, -0.07340252, -0.059751697, 0.01934491, 0.046745237, 0.14810902, 0.04523439, -0.19008511, 0.13199359, -0.13633597, -0.016629135, 0.16898096, 0.04312437, -0.028652484, 0.02341544, -0.054222453, 0.15308428, 0.007381168, 0.15558118, 0.12547894, 0.06837998, -0.14038843, -0.09595537, -0.014568539, -0.067343816, 0.095333755, 0.05843332, -0.17217885, 0.07419255, 0.062149808, -0.014415852, -0.08266743, 0.09894779, -0.15969078, -0.0107644815, 0.004250293, -0.18285574, 0.061172396, 0.042463277, -0.016775116, -0.0096051125, 0.06586657, 0.029559417, -0.10485661, 0.08065158, 0.13940582, -0.06855099, -0.025264397, -0.0541714, -0.057325512, 0.013304725, 0.028258258, 0.0047967397, -0.14762643, 0.12309313, -0.05124277, -0.16813754, -0.054946396, 0.13757366, -0.11759364, 0.05227433, 0.14137328, 0.17862749, -0.15513761, 0.07668516, -0.16479625, -0.10067528, 0.024126083, 0.112431526, 0.00035771736, -0.11831901, 0.1870768, -0.13658056, 0.02578146, -0.11817358, -0.06187816, -0.05726554, 0.1850248, -0.011459552, 0.1672371, 0.017208323, 0.07711351, 0.18754616, 0.17005005, 0.08025968, 0.1752941, 0.08835602, 0.11546329, 0.023320194, 0.16295639, 0.034053985, -0.18097383, -0.1349323, -0.16897699, -0.0122241825, -0.13197075, -0.019771978, 0.006686968, -0.03195008, -0.16657756, -0.16064094, -0.034231544, -0.07643458, -0.078236476, -0.18906905, -0.07869028, 0.0031206363, -0.15401751, 0.18743652, -0.18783325, -0.046476293, 0.051763155, -0.12778682, 0.15553023, 0.06857296, 0.11790001, 0.08397271, -0.05689834, 0.11494284, 0.14513768, -0.1851997, -0.067907356, 0.09156055, -0.10131946, 0.08544804, 0.059924867, 0.12341769, 0.09369188, 0.09602855, 0.13748373, -0.14714131, 0.1303573, 0.11285231, -0.008441056, -0.18740498, 0.08906746, 0.12727576, 0.088068016, 0.07551965, 0.0565826, -0.08194645, 0.02318035, -0.15339878, 0.09034085, 0.16456795, 0.034994036, 0.18794161, -0.054259483, 0.18560177, -0.18752769, 0.114780396, 0.107411206, -0.122151904, 0.08061122, 0.13424939, 0.1351383, 0.1214236, 0.0602991, 0.14379194, 0.12295759, -0.0034255083, -0.1325673, 0.12444081, -0.026905686, -0.04510568, -0.16841921, -0.1316494, 0.114093974, -0.18698901, 0.010013377, -0.14259851, -0.17431577, -0.14433318, -0.18676183, -0.09541542, 0.020718778, -0.12664753, -0.04772726, 0.027064456, 0.0403378, 0.026441637, -0.13759162, -0.041963667, 0.17013502, 0.118636, -0.037620205, -0.008120934, 0.095857054, -0.08486357, 0.09262643, -0.18802452, -0.0062370757, 0.1149784, 0.061679278, -0.111915424, 0.09499827, -0.15805134, 0.18695971, 0.057453986, 0.027530553, 0.13578698, -0.17308907, -0.15747295, -0.17352991, 0.15893002, 0.028074348, 0.1617325, 0.04810116, -0.14127365, -0.10903749, 0.03994046, 0.18898585, 0.037803628, -0.08472631, -0.07758869, -0.05418752, -0.08040198, -0.052359767, 0.19081084, -0.13619664, 0.17195383, -0.13076997, -0.1379461, -0.0993887, -0.19101645, 0.10390446, -0.028205505, -0.081155606, 0.13650098, -0.1700177, 0.044910274, -0.081242666, -0.0072963857, 0.16146077, 0.17316347, -0.07600787, 0.05009377, 0.1335365, 0.010038187, -0.15329483, -0.08886663, 0.11221174, 0.1416433, 0.17943428, 0.11834709, -0.016474908, 0.16238342, 0.16896775, -0.19145362, -0.054815125, 0.12885366, -0.07777741, 0.19339594, 0.06536563, 0.11539882, -0.00997437, 0.13657416, -0.18375796, 0.12421559, -0.09953071, -0.07421149, -0.07507508, 0.107392654, 0.13938047, 0.043875206, 0.14765318, -0.049355622, -0.08899238, 0.11158482, 0.15990523, 0.18342687, -0.18166587, 0.032595947, -0.013507222, 0.074873775, -0.06369256, -0.0046711555, -0.005015348, 0.095673814, -0.09909008, 0.08259531, 0.15516591, -0.11900704, 0.14502588, -0.09616487, -0.027580295, 0.029430464, 0.115474075, -0.0476439, -0.026585322, 0.01138156, -0.15149692, -0.09168301, -0.07102914, -0.094002746, 0.16141275, -0.113248065, 0.027067626, 0.0053881593, 0.07652128, 0.03554469, -0.09563036, 0.16707158, 0.0405432, -0.027103707, -0.17862624, -0.025622264, -0.15728289, 0.1416556, -0.02243033, -0.15900502, -0.008660444, 0.058533937, -0.011967491, 0.18333715, 0.08946738, 0.08621135, -0.11960497, 0.09098008, 0.13744614, -0.046289787, -0.136689, 0.09163072, -0.03237918, -0.15167509, -0.17034426, -0.19301766, -0.018785138, 0.17574453, -0.023776868, 0.15291756, -0.10890568, -0.1453107, -0.114855185, -0.09663145, 0.12189466, 0.16963902, -0.000965764, 0.17569664, -0.050911896, 0.018069845, -0.04871194, 0.0664241, -0.1016933, -0.07157059, 0.09660929, -0.038764145, 0.03725016, -0.17833741, -0.10880767, 0.06892294, -0.12394615, -0.033299565, -0.12226595, 0.052223276, -0.0006006265, 0.14326936, 0.1505436, -0.058663696, 0.15281436, -0.13228557, -0.17381825, -0.081402846, 0.08308054, 0.06760001, 0.009464493, 0.12134599, -0.09301968, 0.12856254, -0.17985074, 0.13657852, -0.15796994, 0.18142244, -0.042815585, -0.003526223, -0.046050373, 0.12577689, 0.09412248, 0.12604448, -0.090118505, -0.06542247, 0.16846369, 0.18938728, -0.055874858, -0.03970416, -0.16255674, 0.13354465, -0.11307048, 0.14509037, -0.052052587, -0.1663011, -0.052528918, -0.068786226, -0.08325733, -0.009119923, 0.0777393, 0.17264587, 0.17922798, 0.1396451, -0.043218493, -0.09051432, 0.0023572359, 0.05462089, 0.027826427, -0.16804524, -0.074347995, -0.024443083, 0.18947107, 0.14195266, -0.08065315, -0.12833881, -0.0767206, 0.08906084, 0.1450789, -0.10081733, 0.041534096, 0.054990992, -0.13589318, 0.11823165, -0.060887814, 0.14053506, 0.07622063, 0.11279181, -0.112013854, 0.07644407, 0.12107976, -0.017274689, 0.036961958, -0.01581972, 0.15410438, 0.13846669, -0.03556542, -0.13560244, 0.056236237, 0.13586059, 0.18328005, 0.010032809, -0.04671547, -0.1746215, 0.10750431, 0.18077923, -0.1028513, -0.11958678, -0.17759767, -0.1544688, -0.07142611, 0.124366075, 0.12817258, -0.101577096, 0.0930579, -0.12778026, 0.12925926, -0.15259427, -0.15451626, 0.096613556, 0.06402133, -0.04374295, -0.14485213, 0.060373932, 0.10906705, -0.004944303, 0.15028274, 0.13785252, -0.041404724, -0.09716029, -0.18579097, -0.123652376, -0.09381144, 0.061482545, 0.1811319, 0.11948698, -0.0024645273, -0.14429477, 0.0025302889, -0.1223075, 0.0229007, -0.18680508, -0.18290251, -0.095708944, -0.18766403, 0.08909586, -0.04712178, -0.0023033146, 0.07918665, -0.08410174, -0.11640551, -0.041521713, -0.14486994, 0.1930704, -0.0035761653, -0.14346068, 0.008279958, -0.13498315, 0.06943533, -0.1384948, 0.122124925, 0.1654406, -0.029806243, 0.07967714, -0.07644682, -0.05080546, 0.09397505, -0.12050314, 0.023712808, -0.18860331, -0.07284525, -0.15920267, 0.020035796, 0.036742732, 0.13570286, 0.0889581, 0.017199505, -0.12807836, 0.08902583, 0.091410436, -0.111856684, 0.09595406, 0.059850827, 0.15446997, -0.022950135, 0.012127769, -0.13190001, -0.17409277, -0.009911438, 0.14234814, 0.19009975, -0.12997186, -0.1716913, 0.074031055, -0.093982294, 0.09199688, 0.075605355, -0.03730612, -0.14961144, 0.08219257, 0.14398327, -0.17151964, 0.123190805, 0.05621528, 0.026984036, -0.02497133, -0.06551045, 0.04413201, 0.116915315, 0.114668876, 0.0799942, 0.14777735, 0.033670023, -0.03358771, 0.17780471, 0.08469814, 0.17293552, -0.15701522, -0.0560899, -0.18265484, -0.03968002, 0.09904247, -0.043158133, -0.09031064, -0.17816229, 0.05281577, 0.18999122, -0.0013238512, 0.0035237072, -0.17164394, -0.14156696, -0.039826754, 0.058420613, 0.016949836, 0.13227051, -0.096117936, 0.10709441, 0.09699177, 0.09822615, -0.19057862, 0.1727544, -0.1501369, 0.09264631, -0.1815315, 0.12417212, -0.17051989, 0.07454297, 0.19316661, 0.09411437, 0.15728119, 0.014959536, 0.10932953, 0.18826401, 0.14191256, 0.068669654, 0.028432686, 0.08430021, -0.10397019, -0.123842515, -0.004368125, 0.08949234, 0.16902433, 0.08465945, 0.115777045, 0.14661005, -0.15321657, -0.027346551, 0.0664709, 0.033523813, -0.12862596, -0.17997192, 0.020325735, 0.17784676, 0.085849345, -0.13566947, -0.12303803, -0.013000266, -0.075328685, 0.19112787, 0.1633341, -0.1702772, -0.12930076, -0.05336089, 0.023333948, 0.09664346, 0.052895132, -0.026701378, 0.099800184, -0.09975344, -0.07993275, 0.16165963, 0.15345418, 0.017449403, 0.0709774, 0.18078656, 0.027560439, 0.0014953355, -0.10853168, -0.09707867, -0.02568258, -0.15739653, 0.17884691, -0.089228444, 0.036939904, -0.12709829, 0.16630803, -0.068614, 0.021849547, -0.078666665, 0.17921506, -0.03436999, 0.13043688, 0.09115673, 0.04716926, -0.04120299, -0.12886366, -0.10120857, -0.16055617, 0.11901254, 0.15022007, 0.182273, -0.1132079, 0.067834966, -0.098137185, 0.10296083, 0.16720451, -0.052493505, 0.19009888, 0.12346469, -0.07312112, -0.15909593, -0.13945897, -0.06445682, -0.057841007, -0.06672541, 0.18956345, 0.15027785, 0.18456814, 0.08412332, -0.10333432, 0.16402328, 0.040387094, -0.02731663, -0.16966811, -0.12768742, 0.12314755, -0.11582978, 0.11536133, 0.1880258, -0.05077663, -0.19359927, -0.06522739, -0.18642554, -0.073457524, -0.14605409, 0.11317372, 0.16184762, -0.18465862, -0.061975345, 0.06853983, 0.040000066, 0.031369817, -0.033214614, -0.17370102, 0.14404818, 0.10440996, 0.14709371, -0.027123556, 0.15071401, 0.1006991, -0.04579462, 0.120749, -0.19029944, -0.1256356, -0.13412054, 0.07890484, 0.121540636, 0.11975783, -0.09924539, -0.046288222, 0.0037838214, 0.09508598, 0.05213301, 0.10482979, 0.13407856, -0.07786598, 0.002290514, -0.047168016, -0.01944334, 0.11873385, 0.056604296, -0.070945345, -0.028062046, 0.16170001, -0.1164846, 0.14338386, 0.16757223, -0.028806105, -0.068972014, 0.04687716, -0.18624519, -0.19082725, 0.120503515, -0.10271287, 0.19338998, -0.06426951, 0.124727935, 0.02510871, -0.032094955, -0.056647297, 0.026811378, -0.073028885, 0.13658707, -0.085238814, -0.04537942, 0.14447883, 0.15105279, 0.07851142, -0.0660621, -0.08698084, -0.07558365, 0.16759883, -0.12753607, 0.007186408, -0.05908841, 0.114105314, 0.16769226, 0.015431287, -0.017061336, -0.016591048, -0.16588552, -0.017249772, 0.04793359, -0.15721229, -0.017172076, 0.0012061704, -0.07117886, -0.04847731, -0.004149386, 0.18196583, -0.04313539, 0.12568435, -0.055672918, 0.17923355, -0.17581457, -0.11808359, -0.004744709, -0.0549258, -0.019148648, 0.05560547, 0.1793836, 0.028888345, -0.016761672, -0.15291746, -0.18704946, -0.031988442, 0.12676099, -0.19004388, -0.1640537, 0.17537674, 0.15520698, 0.18892634, 0.08336741, 0.16395745, -0.061730877, -0.18257655, 0.04019527, -0.080087565, -0.160081, 0.08341876, 0.063201785, 0.11198908, -0.19188218, -0.0034881667, 0.027768854, 0.11104566, 0.119396746, -0.055781152, -0.07974887, -0.18547274, 0.04634404, -0.058332738, 0.16441688, -0.091651656, 0.07562415, -0.025398545, 0.16684899, 0.11577659, 0.08628264, -0.028708903, -0.15626073, -0.17390798, -0.007445439, 0.108364195, 0.1241998, 0.13667387, -0.0044949455, -0.0030715053, 0.1852954, -0.08112649, -0.12849718, 0.011092648, 0.14272252, -0.15036415, -0.057188656, 0.027973287, -0.1412343, 0.078295805, -0.10032507, 0.14050479, -0.04379629, 0.15168338, -0.060524885, -0.0266871, -0.09670895, 0.101534754, 0.030839434, 0.09696963, -0.12556833, 0.12741613, 0.01925819, 0.18114817, -0.16433625, -0.13229854, -0.12263374, -0.026433256, -0.16858363, -0.008181756, 0.15377381, -0.022367194, -0.126283, 0.00962013, -0.14263111, -0.06122093, 0.17254248, -0.090428255, 0.19077915, 0.18880111, 0.08801904, -0.15613261, -0.039978713, -0.14433332, -0.017737765, 0.1908112, 0.07040876, -0.09247192, -0.08609102, 0.14560091, -0.18671252, 0.14086378, -0.14838083, -0.065955326, 0.05607333, -0.034043856, -0.0017321699, 0.16952989, -0.12298114, 0.019256696, -0.030514043, -0.08273962, -0.11032208, -0.055670828, 0.080766745, -0.034961827, -0.025579918, -0.102158815, 0.119717404, -0.113924615, -0.0018582689, -0.17478524, -0.10840242, 0.07620591, -0.027232172, 0.1467068, -0.021524373, 0.16683537, 0.081887126, -0.07078588, -0.14874494, 0.022329405, -0.060267188, -0.026381455, 0.18048012, -0.096999794, 0.08923882, -0.11511682, 0.032957632, -0.17576052, -0.0759221, -0.13285628, 0.08211472, 0.13298532, -0.12566468, -0.014254561, 0.106763825, 0.046943847, 0.05946386, 0.1670166, 0.16511506, -0.18106654, -0.032284647, -0.15124731, -0.10736827, -0.15063384, -0.03291492, 0.17451765, -0.004796028, -0.13734785, -0.040339325, -0.10153264, 0.109381184, -0.10101821, 0.010466825, 0.15731359, -0.06112531, -0.18650189, -0.031908654, 0.17273414, -0.1000624, 0.09224717, -0.16301751, 0.02516363, 0.023514975, 0.105495244, 0.09274998, -0.14509135, 0.1780318, 0.05897835, 0.0026109638, 0.13463372, -0.04523693, 0.04796869, -0.058842074, -0.11911442, -0.017285937, -0.018307261, 0.07246268, -0.07629901, 0.18891075, -0.055539224, 0.19103602, -0.1919373, -0.1866567, -0.14878967, 0.03828193, -0.10804536, 0.07901907, 0.0067279586, 0.038304996, -0.15761964, 0.08906701, 0.15233155, -0.013426154, -0.18911952, -0.18412, 0.00020004176, 0.07977778, -0.08337369, 0.04548094, -0.10434452, -0.022886641, -0.040450856, -0.18029976, 0.030646862, 0.10598337, 0.16948065, 0.05459438, 0.11767347, 0.037518416, 0.069826506, 0.14232352, -0.006358697, 0.1693805, -0.053667367, 0.1070163, -0.12503935, -0.077426635, 0.032233227, -0.13107552, 0.12321109, 0.12611881, 0.023054924, -0.16871396, -0.15458016, -0.04857925, -0.02717287, -0.07229212, 0.10412409, -0.029916614, -0.02543705, -0.17243135, -0.16459765, 0.18183014, 0.048761148, 0.16571587, -0.18166625, -0.05733052, 0.046246722, 0.12599808, -0.15465507, 0.14436492, 0.0635723, -0.0882237, -0.10945027, -0.072326094, -0.07558188, -0.092545494, 0.11248854, -0.06622846, 0.085582934, -0.011368566, 0.12737036, 0.16776592, 0.029628778, -0.11626141, -0.096870095, 0.19015497, -0.16934736, 0.08904754, 0.18448913, 0.1017963, 0.06755793, 0.052026886, 0.005794561, 0.10343444, -0.18113598, 0.032181248, -0.07614335, 0.14078036, -0.1320531, -0.023045516, 0.07242245, -0.04382059, -0.04587752, 0.12564829, -0.037717234, -0.018013565, -0.13105571, -0.0755907, 0.0064718127, 0.1916921, -0.07706539, 0.08018869, -0.14033353, 0.084662825, -0.131068, 0.07019178, 0.058524158, 0.031565577, 0.11066505, 0.008228857, -0.12971209, 0.083378345, -0.061421722, -0.14078286, 0.021541722, 0.19132942, -0.18834221, 0.11867458, -0.17296341, -0.118647, 0.027344411, 0.07376915, 0.052619193, -0.18760511, 0.012397843, -0.05058204, -0.10351923, 0.0045411913, 0.009615046, 0.114073806, -0.17733815, -0.09892916, -0.102455325, -0.079508275, 0.1345774, 0.08043957, -0.039357875, -0.008612355, 0.11475595, -0.057838693, -0.0715739, -0.030877912, -0.17383182, 0.12966752, 0.1009424, -0.17376155, 0.19054092, -0.076793, -0.11943844, 0.052449867, 0.00846057, -0.16132806, 0.0037813284, -0.13396262, -0.027925605, -0.050018355, 0.034949537, 0.15133421, 0.013985722, 0.15485239, -0.10925839, 0.16118978, 0.023731481, 0.12685148, -0.106344976, 0.056615856, 0.03630004, -0.036542095, -0.12081339, 0.15879276, 0.07823525, -0.049325723, -0.07305135, -0.18708648, 0.11800698, 0.1890149, 0.09273527, -0.17446339, -0.19199663, -0.17910181, 0.10195221, 0.018218307, 0.028166357, 0.08270487, 0.039517045, 0.14955924, 0.006448564, -0.068323284, 0.035677355, 0.089564145, -0.059986245, -0.05527775, -0.0613738, -0.02319873, -0.18524317, 0.03261568, -0.043782588, -0.12064249, 0.17716563, 0.079666585, -0.003766307, 0.12712352, 0.11997511, -0.13039082, 0.08433181, -0.11881565, -0.001141682, 0.10386303, 0.18252203, -0.034204345, 0.053384684, -0.0025053457, -0.04542476, 0.10879782, 0.15194198, 0.08922593, -0.14811653, 0.13687146, 0.05534522, -0.192091, 0.17007351, 0.09162295, -0.11300711, -0.18822628, -0.01198325, 0.07941505, -0.031520844, 0.12063297, 0.18898207, 0.087135404, -0.006543971, -0.036004953, 0.12061812, 0.14769869, -0.18561041, -0.0018906451, -0.120238416, 0.12511843, -0.12691033, -0.18044223, -0.07621075, -0.06383335, 0.1252482, -0.025415806, -0.16168436, 0.13824698, -0.17928024, 0.1314948, 0.061005857, -0.10760702, 0.068567045, -0.112223245, -0.043237552, -0.16611767, 0.12552084, 0.08907345, -0.14097114, -0.10338527, 0.034332752, -0.024944045, -0.18992773, 0.13790706, -0.109928176, -0.075970896, 0.036917616, 0.031831972, -0.10872552, 0.19102809, -0.038485445, -0.10845064, 0.089996815, 0.15936154, -0.12487315, 0.122048475, -0.16883756, -0.07777941, -0.14041756, 0.123725325, -0.13698052, -0.18567649, 0.13191314, 0.09735426, 0.14717045, 0.12058641, 0.0022092278, 0.11504739, -0.17387208, -0.10797993, 0.040424615, -0.08116993, 0.157752, -0.07435909, -0.18199208, -0.11921676, -0.041566122, -0.0033459475, 0.00733445, 0.077014856, 0.12653883, 0.03591454, 0.036476813, -0.12538211, -0.18615513, -0.009669219, 0.049962413, 0.08607003, -0.053455934, -0.16355541, -0.15540764, 0.14787441, 0.13171779, -0.08460273, 0.11473653, -0.12439719, 0.117532104, -0.1723585, -0.14894688, 0.11185175, -0.09170018, -0.05205655, -0.037632212, -0.07714319, 0.0038881833, -0.15626363, 0.068600975, 0.1689443, -0.11007859, -0.03883017, 0.14066976, -0.070979275, 0.04225634, -0.075358324, -0.12542067, -0.0786083, 0.09599164, -0.07462363, -0.14004517, 0.15107194, -0.0783979, -0.13749978, -0.1736458, -0.0502135, 0.10464367, 0.062219888, 0.06114408, 0.1266492, 0.105146006, 0.046245784, -0.10535431, -0.048784513, 0.19120301, 0.0810557, 0.11703974, -0.04506039, 0.009892061, 0.04402591, -0.15400642, -0.121830486, -0.034167156, 0.062385052, 0.021155473, -0.16716962, 0.007852465, -0.18734097, -0.03258268, -0.032639977, -0.049479038, 0.16928163, -0.13205127, -0.1554964, 0.016241992, -0.045267135, -0.007777214, -0.030526623, 0.18979788, -0.046403598, 0.044101033, -0.10872518, 0.0629133, 0.089164495, -0.19088286, -0.09891168, 0.08963269, 0.17450362, 0.060743805, -0.08293559, -0.107656844, 0.09994423, -0.16778335, 0.068633825, 0.13806161, -0.12520714, 0.14427988, 0.005255206, -0.005162887, -0.10549703, -0.000114586524, -0.013786365, -0.031481728, -0.10545603, -0.10514517, -0.1703171, -0.19350949, -0.14823028, -0.1516141, 0.122217536, 0.12254906, 0.13488708, -0.020426208, 0.07775065, -0.009812643, -0.10088518, 0.021384388, -0.10856953, 0.17114888, 0.09199293, 0.13116673, -0.12521107, 0.17845146, -0.013176847, -0.13590692, 0.045208648, -0.09634621, -0.15484205, 0.17228515, 0.030504595, 0.1429027, -0.14932673, 0.1925721, 0.18237759, -0.030246725, 0.12916993, 0.03133651, 0.016428515, 0.049643897, -0.0712196, 0.009085394, -0.11247547, -0.047388803, 0.13377655, 0.1288708, -0.15554611, 0.09876968, 0.037308604, 0.022882175, -0.07476754, 0.14343871, -0.08999449, 0.00018149009, -0.10399464, -0.028200835, -0.09479942, -0.13241614, 0.0784902, 0.12269223, 0.14138436, -0.007112477, -0.09416492, -0.1724098, 0.013532071, 0.07500422, 0.10495386, -0.0014476913, 0.08064026, -0.12520602, 0.0021464392, 0.10149668, 0.062141836, 0.16389465, 0.15029451, 0.053553928, 0.14461245, -0.009899262, -0.16424109, 0.19296457, -0.15013371, 0.1448809, 0.13308075, 0.09169051, -0.033688165, 0.15407693, -0.18383248, -0.14400844, 0.11454885, 0.051042814, -0.18137199, 0.079370804, -0.100734755, 0.12723725, -0.18026105, 0.14452238, 0.04113704, 0.13079706, -0.018658726, -0.12097445, 0.04991572, 0.044801407, -0.0066453596, -0.073403046, 0.123886466, -0.03779657, -0.15003778, -0.022710629, 0.07863065, 0.089700334, 0.0061121774, 0.17221385, 0.07538298, 0.085402235, 0.06258624, -0.038331255, -0.014275738, -0.14024693, 0.05210377, 0.14756545, 0.18296914, 0.13127859, 0.13090095, -0.09153058, 0.07309517, -0.011273448, 0.05204216, -0.08350444, 0.029133407, 0.1672912, -0.0799899, 0.023161106, -0.12065094, 0.09963378, -0.013119058, -0.16320129, -0.016237188, 0.10805759, 0.11813903, -0.04665185, -0.08203129, 0.025483608, 0.11488345, 0.05619882, 0.027629387, 0.17019908, -0.16282034, -0.023715224, -0.0028858706, 0.05930734, -0.146636, -0.14454463, -0.043275107, -0.12813374, 0.014764117, 0.0845089, 0.14488558, -0.0660074, 0.018221091, 0.05900242, -0.06354616, 0.06299364, -0.12261839, 0.10130522, -0.02856329, -0.17647758, -0.031230427, -0.12513945, 0.07042171, 0.011790159, 0.16439791, -0.0043094186, -0.17690803, -0.15424569, 0.10128623, -0.165059, 0.056815557, -0.14486875, 0.08603924, -0.16279837, 0.004810053, 0.1891917, -0.17231454, 0.17438048, 0.036696028, -0.020388333, -0.15598072, 0.17113131, -0.15444964, 0.09030839, -0.17781983, -0.028871022, 0.13466072, -0.049886644, 0.006674339, 0.109842986, -0.10474747, -0.13289875, 0.10606439, 0.015772328, -0.17794746, 0.17060062, 0.14910948, -0.1530267, 0.08128186, 0.06204328, -0.066193305, 0.119003475, -0.02859556, -0.10888556, -0.08623389, 0.11924353, -0.059414264, -0.12267931, -0.040741544, -0.16500258, -0.16901442, 0.13504682, 0.15949193, 0.0532052, -0.18891203, 0.06944994, -0.06860342, -0.14445035, -0.00042249117, -0.008245194, 0.075150706, -0.07552666, 0.06568295, -0.08328282, -0.094569266, -0.047551323, 0.08310613, 0.08216792, -0.06896241, -0.024398498, -0.025361367, 0.12909916, -0.18236552, 0.14880238, 0.1776312, 0.15548053, -0.14860564, 0.090544395, 0.17941487, -0.18927622, 0.060627222, 0.024767645, -0.18489867, 0.05114883, -0.052784216, 0.046561737, 0.14585626, 0.17016695, 0.16208024, 0.048589308, -0.078953825, -0.13792057, 0.15785794, -0.05313562, 0.058120746, -0.108653784, 0.07562541, 0.03027394, 0.17778844, -0.050637662, -0.14191258, -0.09063206, 0.15509573, -0.011539902, 0.12805454, 0.081505306, 0.09456871, -0.15186824, 0.12256726, 0.08757394, 0.12773821, 0.15599671, -0.18849474, -0.14880203, -0.111819915, -0.010968996, 0.1501465, 0.059669618, -0.049063247, 0.095319174, -0.065002665, 0.09022191, -0.053288743, 0.047953736, -0.060176224, -0.09705272, -0.014338281, -0.04901996, 0.028583035, 0.016948653, 0.096975036, 0.0060083135, 0.036233634, -0.104612, 0.07021769, -0.056574624, 0.094750434, 0.17835794, -0.0021375364, 0.17262504, -0.08157025, 0.17457426, 0.039714325, 0.062058713, -0.045446765, 0.17082727, -0.17145434, -0.12551074, 0.18921503, -0.044421308, -0.18328655, 0.024329387, 0.1385547, 0.07990805, 0.014465063, 0.025616467, -0.13964052, 0.1514431, -0.15942414, 0.09230265, -0.039576326, 0.04503587, 0.044326585, 0.013631657, -0.14653203, -0.12999907, 0.01329309, 0.13175035, 0.0087316865, 0.050347906, -0.11003813, 0.071848154, 0.06734094, 0.039748244, -0.17372599, 0.06607455, -0.031363174, 0.07524535, -0.18140712, -0.024829524, 0.16997814, 0.0787192, 0.09717491, -0.06653712, -0.17746148, 0.0137418695, 0.16723135, -0.06525993, -0.14691089, 0.17577252, -0.07488338, 0.0064488654, 0.15405676, 0.09066676, 0.031873703, -0.16027768, -0.0816987, -0.08295386, -0.12596995, -0.049959306, 0.18210435, -0.04252148, -0.10127243, -0.060855273, -0.05473189, -0.15616314, -0.18749459, 0.15382293, -0.19355766, 0.04914251, 0.16936241, 0.09019357, -0.023153067, -0.06388344, 0.012198837, -0.13099287, -0.13434729, 0.1515064, 0.020353764, 0.13792652, 0.059747573, -0.084639885, 0.14966172, 0.00065958546, 0.1436401, -0.182478, 0.055145666, 0.080604166, 0.020926863, -0.13544829, 0.13824414, 0.18419358, -0.071345575, 0.013720195, 0.16363531, 0.10435664, -0.18268545, 0.12457127, -0.08909847, -0.032726105, 0.064171724, 0.06688411, 0.09435547, 0.04325352, -0.099719174, 0.05965641, 0.14652793, -0.15268022, -0.09127983, 0.1593588, 0.06353911, 0.17524691, -0.03757599, -0.12191051, -0.09284149, -0.05026525, -0.1416012, 0.13548851, 0.19178289, 0.16908626, -0.16323887, 0.14617431, -0.1130711, 0.06931898, -0.018657481, -0.030719152, 0.049132407, 0.024090806, 0.011101604, 0.015249338, -0.055370465, 0.16218162, -0.09411997, 0.13401312, -0.05038301, 0.17236358, 0.16640964, 0.09187609, 0.10206759, -0.16354792, 0.036047798, 0.16227588, 0.108988374, 0.004123448, 0.1089102, -0.047117785, -0.043738082, -0.0022434734, -0.07726868, -0.021596381, -0.031668574, 0.017083064, 0.19144776, -0.16181, 0.12997562, 0.18731505, 0.11008304, 0.13218614, -0.18238643, 0.16924995, 0.14750546, -0.09634613, 0.012748659, -0.099668264, 0.06638053, -0.12645085, 0.1788212, -0.053727835, -0.02282171, 0.02254796, 0.05600658, 0.13171563, -0.09202905, 0.014660909, 0.093244284, -0.07157492, -0.108202286, -0.104955, 0.16237295, 0.08820176, -0.0819711, 0.18422669, -0.15443972, -0.019450456, -0.18717486, 0.00097228587, 0.14915729, 0.011322352, 0.030537006, 0.06674543, 0.14802334, -0.19281867, -0.11772522, -0.19345558, -0.15310644, 0.106419176, 0.14179236, 0.07219863, 0.0027830612, -0.07251211, 0.014873892, 0.036019236, 0.043295503, 0.009890125, -0.160008, 0.13688064, 0.060525835, -0.0574124, -0.011736437, -0.11330296, -0.031096995, -0.06734085, 0.18488595, 0.13670775, 0.10593721, 0.18005261, 0.048434645, 0.18524146, 0.16652286, 0.015452213, 0.052030437, -0.08936973, 0.13382414, -0.07491278, 0.037443154, -0.10642621, 0.0066821235, -0.030609902, -0.19331329, 0.13310522, 0.05303081, 0.1638465, -0.05302768, 0.04581999, -0.082986906, -0.034629967, 0.14874594, 0.16180956, 0.17271055, -0.11226617, -0.09630013, 0.08641264, -0.13999678, -0.1849657, -0.09295174, -0.05263829, -0.077085726, 0.05923819, 0.19351721, -0.04835444, 0.05144374, -0.12610713, 0.0057481513, -0.15634222, 0.03879161, 0.120382786, 0.13596946, 0.16397512, 0.063061625, 0.04440649, -0.11332231, 0.026134416, -0.089389905, -0.033602476, -0.01795207, -0.17211148, -0.05855921, -0.022788512, 0.18036994, -0.022838699, -0.17288779, 0.020077392, -0.03653702, 0.09927645, 0.17530909, -0.13734281, -0.15719917, -0.18323383, 0.17270994, -0.07043393, 0.1631167, 0.106227756, 0.055229127, 0.014861853, 0.17714378, 0.10957038, -0.048594385, -0.12630767, 0.019818328, -0.092272066, -0.07966045, 0.04717125, 0.17129871, -0.11983397, -0.112892605, 0.141247, 0.0031641943, 0.10440859, 0.086685926, -0.12576953, -0.015457296, -0.17386265, -0.119880006, 0.16341415, -0.16494828, 0.041000515, -0.14950132, 0.11361012, -0.13630131, -0.018612428, -0.1790744, -0.12361101, 0.08927673, -0.06610802, -0.041087832, 0.16605945, 0.088700145, 0.11823557, 0.059344143, 0.12460859, 0.088674545, -0.16919978, -0.12439755, 0.040452566, -0.15570398, -0.11203399, -0.08833133, -0.13617678, -0.05219118, -0.03491514, -0.1649733, -0.17840214, 0.07482399, -0.070670605, 0.12730324, -0.1247556, -0.00996864, 0.07041159, 0.065175086, -0.07241174, 0.19009916, 0.11904359, 0.01809654, -0.08530902, 0.118525654, -0.00972625, 0.014719916, -0.1622858, -0.118181884, 0.07886009, -0.05964617, 0.00984258, -0.007888249, -0.032797813, 0.0015862989, 0.19123459, -0.163735, -0.0309245, -0.028516242, -0.10529502, -0.094554, 0.17550403, 0.10047823, 0.15308332, 0.16898568, 0.1601194, 0.06174952, 0.10820407, -0.14216463, 0.061355807, -0.030887011, -0.11820442, 0.17333685, 0.05129075, -0.083216295, -0.022729522, 0.075705744, -0.14120275, 0.1040912, -0.15741168, 0.02815822, 0.067628644, -0.08236234, 0.13508274, -0.117517464, -0.17763925, 0.16233057, 0.123594075, -0.04307404, 0.16507834, -0.10964633, -0.020088987, -0.16869794, 0.08669832, -0.06043172, 0.15996793, -0.028824085, 0.087076, -0.06392135, -0.08035424, -0.05988617, 0.16480502, -0.13118084, 0.03297679, -0.090017386, -0.048687834, 0.061424524, -0.028039142, 0.12485501, 0.054933283, 0.060504153, 0.110613346, -0.17231555, -0.05810246, -0.06464362, 0.17878291, -0.1740597, 0.16022667, -0.07483056, -0.010747582, -0.027980968, -0.09363995, 0.1639705, 0.18604255, 0.18472815, -0.10115672, -0.094321825, 0.11814037, -0.1841629, 0.15426832, -0.17435837, -0.12545078, 0.04304467, 0.0047335774, -0.13350104, 0.10336399, -0.046770737, 0.137802, 0.010337681, -0.049325854, 0.18426591, 0.08812812, -0.16071722, -0.091341354, -0.12641512, -0.01836312, -0.09356497, -0.18191014, -0.017453387, -0.18234968, -0.105877884, 0.09396747, -0.11317702, 0.10805985, -0.17666805, 0.03829266, 0.18106782, -0.18531986, 0.021624759, -0.0009236865, 0.015818696, -0.10777416, -0.026419565, 0.17174166, 0.091896504, 0.09842929, -0.016691819, 0.06615427, -0.030788498, 0.034715373, 0.1579732, -0.19356026, -0.185426, 0.18265277, -0.1095121, 0.18376692, 0.0964475, 0.038283426, 0.12173023, 0.1184427, -0.118442774, -0.02100901, 0.12487133, -0.16924569, 0.0915137, 0.12748934, 0.09110217, 0.04415935, -0.02546681, 0.11086657, 0.08866043, -0.10854109, 0.08518399, 0.070635594, 0.029216422, 0.15004644, 0.14007276, 0.13641165, -0.027705133, -0.19023627, 0.0651501, -0.09297905, -0.0966042, -0.14193225, 0.07770517, -0.1045437, 0.10970676, 0.10515797, 0.14823416, -0.13432294, -0.113510355, 0.029350815, 0.023538217, 0.12595549, -0.13577673, 0.086198986, -0.060934126, -0.16805577, 0.040639278, -0.061699986, 0.13086209, -0.06403671, -0.04394567, 0.014667725, 0.0587272, -0.14492011, 0.13427356, 0.14785695, 0.077487975, 0.040858492, -0.15113287, -0.11655958, 0.07531771, -0.07294347, 0.11466724, 0.09059635, 0.0601328, -0.03141141, -0.16666643, -0.060096692, 0.119296215, -0.059438508, -0.0959355, -0.13748145, 0.07306731, -0.12730485, -0.025771245, -0.08798635, 0.087530226, -0.13319609, -0.015514722, 0.086203605, 0.15376076, 0.035966963, -0.10120562, 0.19332996, 0.16761214, 0.02685882, 0.11491695, -0.0038657766, -0.044959083, 0.16583848, -0.036765277, -0.107558, -0.15818459, -0.110794425, -0.097966634, -0.16192934, 0.1068306, 0.092193305, 0.005563206, 0.17436272, -0.17257401, 0.15333447, -0.17289987, -0.0003656522, -0.17336638, 0.07147492, 0.030504823, 0.0032264127, -0.14716002, 0.1790053, -0.022499101, 0.01168676, -0.014211177, -0.058195114, -0.09179917, -0.18811257, -0.08110435, -0.056524236, 0.027310133, -0.18109433, -0.038156968, -0.0646058, -0.11030716, -0.06411101, 0.13443431, 0.11555568, 0.08800113, -0.040839285, 0.08221057, 0.18762016, 0.026231399, -0.1783483, 0.14617896, 0.16380209, 0.09557583, 0.07682701, -0.013023373, 0.00825958, -0.18656299, -0.16711028, -0.17752522, -0.045998752, -0.06563367, 0.15440547, -0.073604815, -0.15908977, 0.04406088, 0.10421421, 0.07606621, -0.097313024, -0.13224569, -0.10993859, 0.17605336, 0.08486976, -0.10234679, -0.09247548, 0.020309359, -0.17916732, 0.052722134, 0.033540726, 0.16204737, -0.074587725, -0.04912123, 0.11701727, -0.07432561, -0.061397713, 0.14310089, -0.17775941, 0.1207242, -0.15291247, -0.10426467, -0.036008373, -0.05628282, 0.18752953, 0.18279314, 0.0007995685, -0.1086409, -0.14595652, 0.14935613, -0.0987277, 0.1820072, 0.08317953, -0.002813116, 0.05034721, -0.10613883, -0.027041137, 0.025736853, -0.08786912, 0.050653923, 0.06845269, -0.081979506, 0.05836913, -0.15937501, 0.14857271, 0.02874878, -0.05269368, -0.08734293, 0.045182116, 0.091257125, 0.030532913, -0.067099005, 0.14374994, -0.08837879, 0.10395911, 0.13759714, -0.047227025, 0.08967417, -0.094602406, -0.16997403, -0.1392619, -0.11583869, 0.13766475, -0.0734943, -0.079961054, -0.060112253, 0.12064752, 0.13306311, 0.17236525, 0.104677945, 0.11959413, -0.060437545, 0.15182182, -0.004859675, 0.030377537, -0.14823431, -0.054712553, -0.073312916, 0.19318491, 0.038714312, 0.004644341, 0.0008216838, 0.1438842, 0.046919305, 0.051694725, 0.14091185, -0.018391363, 0.13606273, 0.11652866, -0.18368001, -0.15497018, -0.044368763, 0.00058421114, -0.059193265, -0.16354012, -0.07045895, -0.13587913, 0.17563543, -0.18522891, 0.122355275, -0.18530115, 0.03835361, -0.008031094, -0.1792307, -0.118678235, -0.07804641, -0.103196494, 0.07891995, 0.13495034, -0.14443555, -0.005649196, -0.14020622, 0.009927945, -0.12029407, 0.10500185, 0.084230565, 0.028189322, -0.11518202, 0.11534496, 0.037482083, -0.05650576, 0.16972046, 0.07678297, 0.18169351, 0.089964226, 0.07399081, -0.072518006, -0.17026852, -0.03249151, -0.025582844, -0.13572432, 0.16533591, 0.17595531, 0.14388524, 0.14897078, -0.05993068, 0.03625571, -0.06351986, -0.12249938, -0.1539283, 0.042917248, 0.05489904, -0.017146023, -0.0051975325, 0.016319575, 0.026611403, 0.020862104, 0.08039695, -0.026107283, -0.09548013, -0.014009083, 0.08569334, 0.024909168, 0.15562454, 0.110304795, -0.16951574, -0.07270593, -0.026422808, 0.1766573, 0.159588, 0.17906405, 0.066976786, 0.12975365, 0.13059384, 0.02883169, -0.17199606, -0.1270572, -0.18696314, 0.05766041, 0.04641056, 0.17579094, -0.15159346, -0.06352885, 0.18137938, -0.030539483, -0.17550762, 0.0010271163, 0.16566071, -0.11850975, -0.025932191, 0.032002088, -0.016678378, 0.11906013, 0.19086578, 0.18013853, 0.08450288, -0.077415414, -0.15532991, 0.05150738, -0.018992782, 0.16784792, -0.13376339, 0.103155084, 0.11045092, -0.05128552, -0.023934264, 0.013692915, 0.020482525, 0.100339234, 0.015554655, -0.18918672, -0.0799058, 0.04449056, 0.17908993, -0.06927577, -0.13370368, 0.015372484, -0.0614254, -0.063558504, 0.17213795, 0.04410802, 0.019355673, 0.04338198, -0.11009478, -0.010307812, 0.08721134, -0.12305194, -0.13678366, 0.16190067, -0.13519597, -0.14409705, 0.14236084, 0.047176145, -0.03628288, 0.13766655, 0.16366374, -0.025228716, 0.06349406, 0.10036746, 0.083339185, -0.16593972, -0.13572623, 0.053934615, -0.06193909, 0.056635886, 0.017964572, -0.11241434, -0.14879532, -0.04479729, 0.11889102, 0.036262047, -0.12411246, -0.03074276, -0.13914016, -0.15699492, 0.064324275, -0.18935433, 0.03446818, 0.01203203, 0.17207153, 0.11454505, -0.16382505, -0.19128229, -0.1380111, 0.1931609, -0.13412762, -0.0758908, 0.17406897, -0.11350646, 0.16551137, 0.16149713, -0.18017082, 0.036588795, 0.11703989, 0.17599814, 0.09706263, -0.059767228, 0.051226027, -0.07120005, -0.020588713, -0.17940836, -0.14669457, -0.09444644, 0.011413351, 0.016612565, 0.14859095, -0.030891007, -0.09849246, 0.08888051, 0.12256998, 0.15954852, 0.16317333, -0.0802306, -0.022822171, -0.058992032, -0.021266088, -0.017142609, -0.02057669, -0.016596429, 0.15085614, -0.15758248, -0.123956405, 0.07555869, -0.075293, 0.07727334, -0.01200008, 0.18962811, -0.09276448, 0.07488561, -0.021261781, -0.10253618, 0.070798606, -0.014316716, 0.14808452, 0.11534839, -0.16358785, -0.15715237, -0.06543404, -0.19116414, -0.12111005, 0.084081054, -0.06801474, -0.056848124, 0.0009189318, -0.13849807, 0.16530281, 0.014740293, 0.104681894, -0.020210462, 0.047696296, -0.052457552, 0.07800588, 0.057386026, -0.05611094, 0.08696887, 0.09595674, 0.08300972, 0.18641746, 0.16564459, -0.09609128, -0.060486645, -0.0484062, -0.10865009, -0.18879034, -0.07246452, -0.05446766, 0.14561594, 0.05712104, 0.17468838, -0.101158336, 0.1226137, -0.17223366, -0.11002603, -0.067257896, 0.071175456, 0.14459349, 0.1473152, 0.111197114, 0.12163397, -0.0957693, 0.086641505, -0.14507289, 0.05737423, 0.16590044, -0.074470855, -0.15037519, -0.12371526, 0.12449065, 0.053430468, -0.07236994, 0.14458837, 0.06788173, -0.1539655, -0.091169, -0.13436866, 0.029051516, 0.15068372, -0.062641, -0.110635646, -0.12847026, 0.15857108, 0.15524767, -0.041741405, 0.05364545, 0.17718624, -0.19333498, -0.18370648, 0.031498294, -0.17369732, -0.013114593, 0.015721774, 0.15807542, 0.12459607, 0.11099633, -0.13042788, 0.098969, -0.012891662, -0.009379221, 0.07961475, -0.1935249, 0.022343516, -0.0051468643, 0.0037678871, -0.061936565, -0.0102263875, 0.0362596, -0.14068456, -0.06876068, -0.09612136, -0.10728188, 0.07144915, -0.11083201, -0.11568643, -0.053644314, -0.09693132, 0.13011295, 0.014907372, -0.1823664, -0.19190156, -0.17260501, 0.19083875, 0.0026688185, -0.118967816, 0.014955057, 0.005485032, -0.1283076, 0.005708896, -0.0598737, -0.12988569, -0.066995636, -0.0010041943, 0.16842702, -0.17731512, 0.026494192, 0.054432582, -0.06534614, 0.14809653, 0.044480994, -0.11240252, -0.017078418, -0.09317344, -0.069532424, 0.07206872, 0.14927357, 0.05592907, -0.14741355, 0.1469546, -0.012507967, 0.0038319256, 0.1344344, 0.15324181, -0.123356916, 0.10104231, 0.07481843, 0.1680609, -0.080142, -0.18068375, -0.039308447, -0.07589861, 0.04781565, 0.13840818, -0.095521815, -0.10757563, -0.1514436, 0.18692955, -0.0626747, -0.06379021, -0.03984581, -0.17195073, -0.18861711, -0.05677835, 0.17671181, 0.12798144, -0.12044176, -0.14904094, 0.117586106, -0.07227533, -0.14113684, -0.07482645, 0.13986063, -0.019241914, -0.18932253, -0.004983601, 0.07340314, -0.0110872025, 0.07182446, 0.105503045, 0.031033745, -0.16452165, -0.030229269, -0.08658291, -0.15492478, 0.041233785, -0.022191748, 0.10310343, 0.054171022, -0.18117638, -0.083680876, 0.0515856, 0.1284827, -0.023341715, -0.06730488, 0.04696357, -0.031901825, -0.13488628, -0.032779343, 0.12841474, -0.14278597, -0.15637106, 0.17123757, 0.12954983, 0.14086317, 0.12715715, 0.1862693, 0.16087273, 0.011940028, 0.013731126, -0.16442212, -0.12109074, -0.11437146, 0.06553346, -0.023708964, 0.084295765, 0.104994275, 0.06802461, 0.16842957, -0.18530424, -0.06725924, -0.07604395, 0.00019832476, 0.14005986, -0.05415723, 0.053993516, -0.07070402, 0.113700956, -0.11806017, -0.15982911, -0.17909689, 0.09297958, -0.030058468, 0.055952985, -0.17928523, 0.1858285, -0.12576774, -0.11314058, 0.16154343, 0.06426346, 0.045730148, 0.066077895, 0.1273936, -0.05742893, 0.02511909, -0.013355764, -0.019989539, -0.13148266, 0.11630145, -0.16980864, -0.015731577, 0.02581197, -0.0085463, -0.16561958, 0.067271665, -0.021489458, 0.117061615, -0.083429046, -0.089300655, -0.014870966, -0.17273699, 0.014434736, 0.09462747, -0.039113328, -0.161869, -0.052968264, -0.1324125, 0.05380359, -0.15378495, -0.07285053, -0.11824292, 0.19058818, 0.17127138, 0.13708827, -0.15483092, -0.024702236, 0.02597259, -0.16060404, -0.18323568, 0.061116546, -0.014163345, -0.07776233, -0.1544868, 0.019540578, 0.011328161, 0.178664, -0.10319871, -0.014008698, -0.052030087, -0.11211737, 0.18962646, -0.13186589, 0.16000181, -0.19215886, -0.18850002, -0.177193, 0.040086165, 0.15933758, -0.16421156, -0.07626934, 0.064132005, 0.008082166, 0.12800378, 0.069019705, -0.13164632, -0.14141113, 0.013498038, 0.14485043, -0.16189578, -0.13991182, -0.13096291, -0.16113454, 0.10640058, 0.12364304, 0.0019320109, 0.016120195, -0.034544706, 0.033060312, -0.089089386, 0.002528545, 0.12839562, -0.055050924, -0.17540148, -0.053407565, -0.039427605, -0.08862708, 0.08030982, -0.18622008, -0.1309541, 0.118919045, -0.083592586, -0.031643398, -0.038381398, -0.084741116, -0.110951446, -0.08919114, -0.023285782, 0.13755956, 0.13487679, -0.043430615, 0.03937461, -0.046268515, -0.07944334, -0.10758587, -0.16552068, 0.11636163, -0.17017281, -0.15512852, -0.06857967, 0.04465088, -0.07557746, 0.07634568, -0.18110171, 0.06233691, -0.14318164, -0.16196688, -0.04441096, 0.15049079, -0.094815336, -0.045217037, 0.18972775, 0.029254511, 0.16020206, -0.12197051, 0.10350421, -0.065154344, -0.19000386, 0.19087377, 0.19050866, 0.09587899, 0.074892014, -0.052191734, 0.105178, -0.13701421, -0.08830422, 0.12314376, 0.0016680211, 0.11395183, -0.18835764, -0.008965805, -0.06267241, 0.061815083, -0.106473565, 0.15371338, 0.07111713, -0.098111145, -0.1615509, -0.005004313, -0.022377396, -0.11066785, -0.082426995, -0.07050771, -0.110854916, 0.16633365, 0.07385403, 0.059247095, -0.18537545, -0.07574703, 0.0023840617, -0.069532834, -0.13250093, 0.16667995, 0.16657344, -0.10047721, -0.073855475, -0.041012187, -0.103070326, 0.12042918, 0.1574581, 0.17284915, 0.015333988, 0.17086565, 0.18054855, -0.012531946, 0.03121306, 0.08851667, 0.059287906, -0.07592469, -0.025962204, 0.10414648, -0.14395437, -0.013806691, -0.032380518, 0.0009194629, 0.18738964, -0.020113956, 0.09244877, -0.11731859, 0.08311039, -0.14601466, 0.019572483, -0.09323213, 0.03021963, -0.12549555, 0.061471134, 0.018595655, -0.17311092, -0.013387314, -0.026279666, -0.17921934, 0.15064555, -0.11854067, 0.015843924, -0.0075994516, 0.120903134, -0.07883457, -0.01110171, 0.119165, 0.14602596, -0.0224372, -0.109678425, -0.019120218, -0.093435235, 0.17579752, -0.1441813, 0.12019249, 0.061673567, -0.18503237, -0.033265986, 0.17168102, -0.16588648, 0.14702956, 0.17105494, 0.09869922, 0.030901048, -0.15523186, 0.18211032, 0.071466476, -0.07808448, 0.13483769, -0.14809227, 0.085215636, -0.0064173313, -0.17428039, 0.08333208, 0.027023759, -0.13135752, -0.11070632, 0.082229614, 0.07941614, -0.09660934, 0.12931103, -0.15978904, -0.18366681, -0.16595264, 0.08665045, -0.06348981, 0.19297066, -0.15482344, -0.18409064, -0.1729984, 0.18354437, 0.0487148, -0.056523502, 0.13632593, 0.15249869, 0.19092494, 0.09553996, -0.05073896, -0.12988305, 0.049362186, 0.078618884, -0.03995482, -0.0584317, 0.061013937, 0.13207597, -0.050302055, -0.11214822, 0.111671805, 0.17413837, 0.078826725, 0.062222164, 0.1866929, -0.07237365, 0.07281175, 0.13850003, 0.018454941, -0.10393553, 0.00341756, 0.15610167, 0.044144884, 0.19139296, 0.1583418, 0.011312044, -0.12644249, 0.079752415, 0.08936635, -0.07007417, 0.045343935, 0.16326323, -0.05513425, 0.06163919, -0.023251144, -0.025692932, 0.006736643, 0.023025677, -0.0025061816, 0.15632996, 0.14439812, 0.07530421, 0.15754837, -0.18765779, -0.07565256, -0.12358862, -0.013613552, 0.10684332, 0.16301739, -0.13939108, 0.14490727, 0.14237124, 0.10002014, -0.03514196, 0.1788719, -0.18846571, -0.04545088, -0.008634481, 0.064707965, 0.14776361, -0.11824306, -0.03361869, 0.11259714, 0.07179293, 0.11444479, 0.17719433, -0.15125453, -0.13680498, -0.028311606, -0.10877932, 0.07996476, 0.077070445, 0.07534483, -0.065261275, 0.16233185, 0.044480026, -0.044182792, -0.0004979056, -0.07313803, -0.11700835, 0.18253908, -0.003144349, 0.06838955, 0.1672023, 0.02820207, -0.15732633, -0.04730576, -0.07332528, -0.028536122, -0.14688522, -0.021854257, -0.0027212445, 0.1610321, 0.044586815, -0.09102664, -0.01337852, 0.18360823, -0.19032286, 0.16199128, 0.13996989, 0.09107233, 0.13684642, 0.16949882, -0.18137589, 0.13801958, -0.12561066, -0.0069676465, -0.07610402, 0.18132257, -0.14425945, -0.09343245, 0.014851232, -0.13450545, 0.16470225, 0.12670854, 0.09030336, 0.1278438, 0.16835496, -0.04417947, -0.0704807, 0.011975408, -0.054630373, -0.18801893, 0.026376486, 0.10470116, -0.102743894, -0.0861265, -0.0035664013, -0.012837127, 0.13066858, 0.11949277, -0.13492736, -0.11715212, -0.121247776, -0.17536062, -0.023309857, -0.072353885, -0.031933963, -0.011482, -0.13655096, 0.018825367, -0.18075484, 0.10407922, -0.04525383, 0.16315964, -0.12946591, -0.18789427, 0.1936186, 0.09369524, 0.120198205, -0.04042533, -0.07071084, -0.10177821, 0.02998508, -0.18765835, -0.14794962, -0.13539177, -0.044812962, -0.12663898, 0.044872895, -0.044878066, -0.048642017, 0.10372841, 0.05070119, 0.15283276, 0.09013065, 0.12711543, 0.08836576, 0.059283797, 0.0014088632, 0.07374355, 0.026825443, 0.058875512, -0.022764187, 0.08202201, 0.13435605, -0.053925723, 0.009150264, -0.18514767, -0.1757612, 0.018204639, -0.16935554, 0.10352227, -0.16030622, -0.1601219, 0.0071770744, 0.12407774, -0.013435255, 0.04467512, 0.11109182, 0.03411897, 0.12945777, 0.18087053, 0.15785995, -0.16263103, 0.04961044, 0.103236794, -0.1676901, 0.17442915, -0.046998896, 0.052947167, 0.12822622, 0.11887124, 0.17802, 0.14131853, -0.060559537, 0.027714314, -0.04943578, 0.046888977, 0.17146093, 0.123007536, -0.06273019, 0.038701355, -0.031980094, 0.119268306, -0.09101643, 0.1424788, -0.17017055, -0.095854096, -0.09168836, -0.18061423, 0.075988, -0.13372156, -0.15253478, -0.12524845, 0.0649814, -0.028232375, -0.07930889, 0.14295343, 0.066029795, -0.16254233, 0.11682576, -0.10711897, 0.18504006, -0.08540273, -0.12926614, -0.07295957, 0.1307095, -0.18583664, -0.17604385, -0.06985724, 0.012719382, -0.049266297, 0.19119254, 0.14080457, -0.0022867457, 0.17314675, -0.015664374, -0.029550973, 0.06498016, 0.12330741, -0.012798853, -0.13436265, 0.18754879, 0.09384088, -0.096440226, 0.15388376, -0.021214956, 0.03125484, 0.07899082, -0.06413278, 0.027198438, 0.021297932, 0.10472244, -0.08638791, -0.09405413, -0.12119565, 0.13172415, -0.17900558, 0.14020899, 0.14823583, 0.18714166, 0.022436097, -0.15814833};
#endif

#endif
