//Numpy array shape (128, 32)
//Min -0.784772634506
//Max 0.926587641239
//Number of zeros 0

#ifndef LSTM_12_H_
#define LSTM_12_H_

#ifndef __SYNTHESIS__
model_default_t lstm_12[4096];
#else
model_default_t lstm_12[4096] = {0.03497415408492088, 0.3028431534767151, -0.015175926499068737, -0.018973642960190773, -0.07781316339969635, -0.006204239092767239, -0.11424978077411652, 0.15986000001430511, -0.18526755273342133, 0.007106304634362459, 0.09155598282814026, -0.028279462829232216, -0.30889663100242615, -0.12331964075565338, -0.12915457785129547, 0.2913249433040619, 0.23164768517017365, -0.15295295417308807, 0.057027075439691544, 0.06966546177864075, 0.2675723731517792, 0.17573575675487518, -0.18573375046253204, 0.0018150111427530646, 0.014648615382611752, 0.06941644102334976, 0.10779808461666107, 0.16311165690422058, 0.004156850278377533, -0.1112537831068039, 0.15561749041080475, 0.21633946895599365, -0.0706772655248642, -0.10350129008293152, -0.12425608932971954, 0.05167844891548157, -0.2654341459274292, -0.06339909136295319, -0.01933167688548565, -0.46807166934013367, 0.17252831161022186, -0.009702094830572605, 0.005260113626718521, 0.054819658398628235, -0.07659900933504105, 0.06095685437321663, -0.21689558029174805, -0.2383216768503189, -0.16510558128356934, -0.050569791346788406, -0.04017937555909157, 0.06464716047048569, 0.08242999017238617, -0.08717221021652222, 0.001688383868895471, 0.09091696888208389, -0.047999750822782516, -0.09169281274080276, 0.20895710587501526, -0.13137806951999664, 0.11864884197711945, 0.10679315775632858, -0.05202379450201988, -0.09799348562955856, -0.14087319374084473, 0.06673506647348404, -0.12395153939723969, 0.24755175411701202, -0.00043639872455969453, -0.0022235580254346132, -0.05508802458643913, -0.02837798185646534, -0.19563524425029755, 0.04263339564204216, -0.069727323949337, -0.03848955035209656, 0.08993575721979141, 0.16697467863559723, 0.09870653599500656, 0.22177672386169434, 0.13398867845535278, -0.20035958290100098, -0.2911119759082794, -0.22064076364040375, -0.01651075854897499, 0.011218170635402203, -0.13899031281471252, -0.13083963096141815, -0.11392214149236679, -0.2336718589067459, 0.0036285961978137493, 0.13172049820423126, -0.03172300010919571, -0.04529493674635887, -0.23349368572235107, -0.26215484738349915, -0.03265427052974701, 0.06823761016130447, -0.12305265665054321, 0.1029263362288475, 0.2645632326602936, -0.1562051922082901, 0.30184343457221985, 0.25134435296058655, 0.1243508830666542, -0.2049928456544876, 0.032406698912382126, -0.05965835973620415, 0.0008740995544940233, 0.06758734583854675, -0.22138269245624542, 0.23576758801937103, -0.0692136287689209, -0.16725659370422363, 0.2715759873390198, -0.08930446952581406, 0.281578004360199, 0.08755754679441452, -0.027477562427520752, -0.17734764516353607, -0.0011962932767346501, 0.1863839477300644, 0.05679558962583542, 0.00622002687305212, -0.03445177525281906, -0.192691370844841, -0.06182375177741051, -0.21734613180160522, 0.24286502599716187, 0.538926899433136, -0.1597534716129303, 0.06969959288835526, 0.1373768150806427, -0.37063854932785034, 0.05485164001584053, 0.1578451246023178, -0.07971415668725967, 0.25200724601745605, -0.19577927887439728, 0.25725123286247253, -0.47375622391700745, 0.2746569514274597, -0.10207188874483109, 0.12103618681430817, 0.15461976826190948, 0.019346456974744797, 0.07585655152797699, -0.13708457350730896, 0.043580807745456696, 0.1323801726102829, -0.32970553636550903, 0.05833371356129646, 0.08085966110229492, -0.05824408307671547, 0.32121315598487854, -0.014526749029755592, -0.1711849868297577, -0.13063929975032806, 0.024651261046528816, 0.35046830773353577, 0.021632729098200798, -0.5122608542442322, 0.027516962960362434, 0.3743400573730469, 0.2952269911766052, 0.25780394673347473, 0.061818670481443405, 0.13758528232574463, -0.1330704689025879, -0.4442421495914459, -0.16431890428066254, 0.09718687832355499, 0.31377869844436646, 0.05512838810682297, -0.3005821108818054, -0.4058031737804413, -0.11304878443479538, -0.364619642496109, -0.2798117399215698, -0.39698776602745056, -0.28042659163475037, 0.11198879778385162, 0.18540579080581665, -0.4077981412410736, 0.40660369396209717, -0.14313055574893951, -0.09099148213863373, 0.05742296576499939, -0.06916049867868423, 0.1802627295255661, -0.1887374371290207, -0.4522375762462616, -0.2141822725534439, 0.009534464217722416, 0.08705765753984451, 0.214884951710701, 0.10267101973295212, -0.3604377806186676, -0.2064511924982071, 0.13839222490787506, -0.4536881446838379, -0.15821489691734314, 0.08025096356868744, -0.017231611534953117, -0.15156063437461853, 0.2210414707660675, 0.05887942388653755, 0.2678324282169342, 0.0434248149394989, -0.11300016939640045, 0.2551153302192688, -0.24616077542304993, 0.26709502935409546, -0.04706597328186035, -0.2550227642059326, 0.1330377161502838, 0.06996361166238785, -0.14721791446208954, 0.12763170897960663, 0.34517353773117065, 0.06464853137731552, 0.3924669027328491, -0.06194823607802391, 0.2419346570968628, 0.1955125778913498, -0.3336036205291748, -0.22831174731254578, 0.1405683010816574, 0.08475979417562485, 0.2262565940618515, 0.34018900990486145, -0.18663421273231506, -0.1445189118385315, -0.12058770656585693, -0.17869938910007477, 0.05160122364759445, -0.11090832948684692, -0.17459788918495178, 0.10858211666345596, -0.6118792295455933, -0.08069299161434174, -0.14262351393699646, 0.05367899313569069, -0.2883254587650299, 0.01525745540857315, -0.11582592129707336, 0.06393704563379288, 0.10294367372989655, 0.3647244870662689, -0.24578869342803955, 0.17579573392868042, 0.10871553421020508, -0.18748824298381805, 0.04349273070693016, -0.012121112085878849, -0.39818984270095825, -0.16652928292751312, -0.10384926199913025, 0.03856225684285164, 0.041404128074645996, -0.0668698102235794, 0.26970967650413513, -0.0016905780648812652, 0.16265402734279633, -0.034431904554367065, -0.3840976357460022, -0.058051712810993195, -0.20988525450229645, 0.03591103106737137, 0.23726490139961243, -0.08948459476232529, -0.11910877376794815, -0.002688682172447443, -0.1610405594110489, -0.24089178442955017, 0.0002873069606721401, 0.5979475378990173, -0.08961573988199234, -0.05749780684709549, 0.14702895283699036, 0.05802343413233757, -0.13550932705402374, -0.28441089391708374, -0.06906457990407944, -0.03710724413394928, -0.38210538029670715, 0.0788518562912941, 0.043421849608421326, 0.030885104089975357, 0.10134515911340714, 0.12907962501049042, -0.04676635563373566, -0.21060949563980103, 0.20664054155349731, -0.08906728029251099, -0.19456583261489868, -0.10947765409946442, -0.1600579023361206, 0.29869234561920166, -0.06063910201191902, 0.2182142585515976, -0.21590283513069153, 0.29089510440826416, -0.13040220737457275, 0.06296973675489426, 0.20038281381130219, -0.30004701018333435, -0.1832440197467804, 0.04921656847000122, 0.050879865884780884, -0.4148426055908203, 0.1767578423023224, 0.23306237161159515, -0.19304290413856506, -0.14363791048526764, -0.18159185349941254, -0.10485298931598663, -0.04143982380628586, -0.10781443864107132, -0.18425637483596802, -0.3632758557796478, -0.12357889860868454, 0.09753461182117462, 0.17075300216674805, -0.05133605748414993, -0.023624150082468987, 0.08971329033374786, 0.08080366998910904, -0.3076571822166443, -0.24176804721355438, -0.10920485109090805, 0.1325446367263794, -0.14167924225330353, 0.3971734642982483, 0.011085659265518188, -0.021930336952209473, 0.16236403584480286, -0.03725462034344673, -0.20819590985774994, -0.128244549036026, -0.006724315229803324, 0.29159003496170044, 0.005727251525968313, -0.041761789470911026, 0.22806192934513092, -0.0697275772690773, 0.0785234272480011, -0.12463134527206421, 0.06751174479722977, -0.3116382360458374, -0.15073204040527344, 0.10582194477319717, -0.1741006225347519, 0.11697082966566086, -0.1580856293439865, -0.26520606875419617, -0.047743070870637894, 0.23903696238994598, 0.025493144989013672, -0.16271302103996277, -0.11144980788230896, -0.2656136453151703, 0.02734755165874958, 0.05086994171142578, 0.20354777574539185, 0.09995746612548828, -0.5122482776641846, -0.33088311553001404, 0.09053651243448257, -0.08575134724378586, -0.2745606303215027, -0.21641185879707336, -0.29589128494262695, -0.04484182968735695, 0.17580272257328033, 0.03239651769399643, 0.00439891591668129, -0.15409883856773376, -0.2578391134738922, 0.1992163211107254, 0.160286083817482, 0.10352519899606705, -0.3976168930530548, -0.059515580534935, 0.10264254361391068, -0.07339844852685928, -0.061367422342300415, 0.2559729814529419, 0.19034375250339508, 0.04375743865966797, 0.025063401088118553, -0.2396349310874939, 0.05577902868390083, -0.31996771693229675, 0.190437912940979, -0.17114894092082977, -0.08856728672981262, 0.025753498077392578, 0.3174763321876526, -0.32281917333602905, 0.18763117492198944, -0.06970307230949402, 0.18808600306510925, -0.031182609498500824, -0.0996757224202156, 0.29680442810058594, 0.35128727555274963, -0.06534585356712341, -0.06827649474143982, 0.2526595890522003, 0.26715752482414246, -0.222148135304451, 0.1440238356590271, -0.45287519693374634, 0.0776984915137291, 0.1674422323703766, 0.06040623411536217, 0.1474219262599945, -0.16187523305416107, 0.1347287893295288, -0.2906400263309479, 0.10470472276210785, -0.1794237196445465, -0.23051835596561432, 0.2951849699020386, 0.30639201402664185, 0.04122108966112137, -0.10222896188497543, -0.03850460425019264, -0.06853121519088745, -0.018517933785915375, -0.17463678121566772, 0.2044021487236023, 0.18291828036308289, -0.13411809504032135, -0.0220144335180521, 0.15510179102420807, -0.1689506322145462, -0.3764715790748596, 0.2229340374469757, 0.04486444592475891, 0.05754965916275978, -0.4679279923439026, 0.18882139027118683, -0.047476474195718765, 0.2509602904319763, 0.00808537844568491, -0.23893524706363678, -0.09389176219701767, 0.2555696964263916, -0.18593119084835052, -0.14805911481380463, -0.11693567037582397, 0.08328650891780853, 0.1601717323064804, -0.04342225566506386, 0.14750845730304718, 0.08414529263973236, 0.19506597518920898, -0.10597112774848938, 0.052203867584466934, 0.18152481317520142, 0.04239988699555397, 0.24821588397026062, -0.021837158128619194, -0.030252575874328613, -0.024331795051693916, 0.21791228652000427, 0.04294809326529503, -0.11832425743341446, -0.27131983637809753, -0.0740194320678711, 0.2756415605545044, 0.22235490381717682, 0.004486255347728729, 0.18219846487045288, -0.3068113327026367, -0.052197616547346115, 0.13119079172611237, -0.06168346852064133, -0.08013426512479782, 0.22583457827568054, -0.19786563515663147, -0.4301450848579407, -0.054943881928920746, 0.3004516363143921, -0.10955342650413513, 0.10782399773597717, 0.04938012361526489, 0.09342269599437714, -0.012251251377165318, 0.14241541922092438, 0.07336495816707611, -0.13840872049331665, -0.14002858102321625, 0.009128328412771225, -0.07572446763515472, -0.12512877583503723, -0.2691863477230072, 0.09412897378206253, 0.3506106436252594, 0.057055357843637466, -0.2431071698665619, -0.1193728893995285, 0.03853805363178253, -0.03751826658844948, 0.10995323210954666, 0.014647270552814007, -0.3314110040664673, 0.018988903611898422, 0.1149742379784584, 0.026282845064997673, -0.09247783571481705, 0.08207278698682785, 0.17144306004047394, -0.03981676697731018, -0.17157196998596191, 0.20850718021392822, -0.00020112405763939023, -0.032974544912576675, 0.07509434968233109, -0.15171845257282257, 0.05825279280543327, -0.30629467964172363, -0.2740757465362549, -0.13817673921585083, 0.07205134630203247, 0.19234533607959747, -0.28781238198280334, 0.08998572826385498, -0.02022078074514866, 0.24678736925125122, -0.008501323871314526, -0.11538568884134293, 0.04177242890000343, -0.06867246329784393, 0.05813505873084068, 0.1330772191286087, -0.030682481825351715, 0.07655736804008484, -0.041222311556339264, 0.1867963820695877, -0.13852278888225555, -0.012977227568626404, 0.046989768743515015, 0.1188570186495781, -0.05057355761528015, 0.0758674293756485, -0.12165598571300507, 0.3324797451496124, -0.09454933553934097, -0.07655225694179535, 0.48384836316108704, 0.26438403129577637, 0.011621424928307533, 0.1401069015264511, 0.2883196175098419, -0.059934817254543304, -0.3006429672241211, 0.07061383128166199, -0.23809193074703217, -0.022867780178785324, -0.002986297942698002, 0.4582218527793884, 0.22378461062908173, 0.008609063923358917, 0.006054168101400137, -0.28387704491615295, 0.040222957730293274, 0.2602818012237549, -0.10245687514543533, 0.08904086798429489, 0.08034370839595795, 0.09402523189783096, 0.23284463584423065, -0.14399759471416473, -0.0008053421042859554, 0.06419076770544052, -0.20838943123817444, 0.2002173513174057, 0.0760340765118599, 0.047910939902067184, -0.16858333349227905, -0.15697897970676422, 0.05707826837897301, -0.03775040805339813, -0.24445095658302307, -0.015819858759641647, -0.12137962132692337, -0.04603226110339165, -0.24089470505714417, -0.1459238976240158, 0.17970047891139984, 0.08568362891674042, -0.06476553529500961, 0.0236953292042017, 0.16133226454257965, 0.00864680390805006, 0.05610499903559685, 0.08661096543073654, 0.15203024446964264, -0.10453914105892181, 0.15508076548576355, -0.03411766514182091, -0.10983441770076752, 0.17447249591350555, -0.0936192125082016, 0.1893617957830429, -0.14219427108764648, 0.041765399277210236, 0.13208825886249542, 0.0675630271434784, -0.10626130551099777, 0.23691461980342865, -0.0028079994954168797, -0.05113909766077995, -0.19446080923080444, -0.1302478015422821, -0.11543772369623184, 0.2019774317741394, 0.14709971845149994, 0.3046306073665619, -0.03930530324578285, -0.12454717606306076, -0.0071588726714253426, 0.3025508224964142, -0.03492860496044159, -0.17868973314762115, 0.2696904242038727, -0.11345285177230835, -0.3472401201725006, -0.10890066623687744, 0.10671704262495041, -0.24046680331230164, -0.07881336659193039, -0.01748492568731308, 0.05083899945020676, -0.16460397839546204, -0.018816234543919563, -0.0383797325193882, -0.036369793117046356, -0.13381674885749817, -0.12660779058933258, 0.29537293314933777, 0.2537122368812561, -0.0036730661522597075, -0.24128949642181396, -0.2629903554916382, 0.23139695823192596, 0.1766151636838913, 0.07338640093803406, -0.08269589394330978, 0.4007452428340912, 0.20837120711803436, 0.0713629350066185, -0.26890552043914795, 0.17980356514453888, -0.02994883991777897, -0.07679755240678787, -0.400261789560318, -0.0770384818315506, 0.2877102196216583, -0.08186566084623337, -0.19155576825141907, 0.3739871084690094, -0.270556777715683, 0.4911482632160187, 0.05038484185934067, 0.23475007712841034, -0.049947094172239304, 0.14218401908874512, 0.07904244214296341, -0.2766468822956085, 0.06010458618402481, 0.4207587242126465, -0.2615780830383301, 0.16681180894374847, -0.061636295169591904, 0.1289166361093521, -0.11691372841596603, 0.21796047687530518, -0.15909908711910248, -0.19519607722759247, -0.1631246656179428, 0.4623667597770691, 0.05502563342452049, -0.06152522936463356, -0.11824804544448853, 0.00721374386921525, -0.12276795506477356, 0.1327313333749771, -0.3381793200969696, -0.06589197367429733, 0.448451429605484, -0.3353829085826874, -0.02713899128139019, 0.35482147336006165, 0.07681851089000702, -0.3452856242656708, 0.07829862087965012, -0.028255645185709, -0.10542982071638107, -0.07046008855104446, -0.43179023265838623, 0.11710521578788757, 0.45031753182411194, 0.051528509706258774, -0.04150721803307533, -0.28835952281951904, 0.005147234071046114, -0.2367992252111435, -0.04530445486307144, 0.03214213252067566, -0.5070668458938599, -0.048338811844587326, -0.3204628825187683, 0.020225200802087784, 0.2913038432598114, -0.06989869475364685, -0.04177429899573326, 0.12728005647659302, 0.08446359634399414, -0.22756628692150116, 0.08724911510944366, 0.05277537554502487, 0.07332173734903336, -0.14635534584522247, 0.15159504115581512, -0.020751187577843666, -0.22302165627479553, 0.3863777816295624, 0.29820096492767334, 0.1694273203611374, -0.2126804143190384, 0.008973863907158375, 0.017476772889494896, -0.11077731847763062, 0.09945293515920639, 0.5354921817779541, -0.22930142283439636, 0.09479177743196487, -0.09917894750833511, 0.12748806178569794, 0.15955018997192383, 0.43669551610946655, -0.10630795359611511, 0.05521582439541817, 0.0862952321767807, -0.20176531374454498, 0.009944655932486057, -0.11163177341222763, -0.29829058051109314, -0.10859870910644531, 0.021505936980247498, 0.3661626875400543, 0.03635158762335777, -0.25892290472984314, -0.19275327026844025, -0.12682285904884338, 0.32011356949806213, -0.019037868827581406, -0.04750370979309082, -0.2164129614830017, -0.027324026450514793, 0.0393279530107975, 0.28394365310668945, -0.4086947441101074, -0.20701810717582703, 0.058561861515045166, 0.008257770910859108, 0.09756812453269958, -0.04641621932387352, 0.0641028955578804, -0.04161309078335762, 0.37146222591400146, 0.1330869346857071, -0.055226072669029236, -0.20985741913318634, 0.03482409194111824, 0.06459808349609375, -0.043144598603248596, -0.06078023836016655, 0.10323585569858551, -0.1901872158050537, -0.09446797519922256, -0.041310012340545654, -0.32602599263191223, 0.11358170211315155, -0.07471358776092529, 0.1286551058292389, -0.15399803221225739, 0.09771842509508133, 0.038871556520462036, 0.30487361550331116, -0.25285905599594116, 0.14756140112876892, -0.10194474458694458, 0.003988002892583609, -0.24160414934158325, 0.25949275493621826, -0.00041660526767373085, -0.09121846407651901, 0.27953261137008667, -0.2950986623764038, -0.18897026777267456, 0.37418699264526367, 0.012063244357705116, -0.4199536144733429, 0.18360795080661774, 0.4204162359237671, -0.05512002855539322, -0.16865935921669006, -0.009316817857325077, -0.09020823985338211, -0.019405977800488472, -0.025941597297787666, 0.02507610060274601, 0.3606332838535309, -0.2551388442516327, -0.22481973469257355, -0.06683458387851715, -0.35355037450790405, 0.19850578904151917, 0.2072465568780899, -0.07687920331954956, -0.02538241446018219, -0.08805298805236816, 0.01262154895812273, 0.22172784805297852, 0.07993919402360916, -0.3509911000728607, 0.13572384417057037, 0.12998637557029724, 0.21608000993728638, 0.310192734003067, 0.2814605236053467, -0.1053401306271553, 0.16257767379283905, -0.04281362146139145, 0.29730185866355896, -0.3611988127231598, 0.09094112366437912, 0.04013614356517792, -0.05109474062919617, -0.12039122730493546, 0.18409816920757294, 0.1963498443365097, 0.3137095272541046, 0.05350775271654129, 0.06973852217197418, -0.2606606185436249, -0.24327851831912994, 0.28790605068206787, -0.08121602982282639, -0.09285300970077515, -0.2828572690486908, -0.004640108440071344, -0.0820152685046196, -0.13651472330093384, -0.15024253726005554, -0.24689674377441406, -0.17139580845832825, -0.06989350914955139, 0.054178908467292786, -0.057471226900815964, -0.16002203524112701, -0.38100576400756836, 0.5972740650177002, 0.21657082438468933, 0.34313809871673584, 0.09298539906740189, -0.3116237223148346, -0.26759254932403564, -0.17596417665481567, -0.42097580432891846, -0.23058155179023743, 0.46633395552635193, 0.19848307967185974, -0.04709084331989288, -0.24342474341392517, 0.4027636647224426, 0.05754398554563522, -0.015377414412796497, -0.27624136209487915, -0.2408505529165268, 0.13118459284305573, -0.17284078896045685, -0.005829980596899986, 0.24581119418144226, -0.021862084046006203, 0.4392671287059784, 0.06292345374822617, 0.32252568006515503, 0.07142084091901779, 0.07754621654748917, 0.0784321054816246, 0.051081493496894836, 0.15271741151809692, -0.16155995428562164, -0.42034679651260376, -0.4503631591796875, 0.04879451170563698, -0.04682602733373642, -0.08720424771308899, -0.1882627159357071, -0.22102035582065582, -0.05873279273509979, -0.002231903374195099, 0.3253327012062073, 0.28094565868377686, 0.4258762300014496, -0.11064507812261581, 0.06558149307966232, 0.07385634630918503, -0.03525983914732933, -0.1880992203950882, -0.006629400886595249, 0.0134303392842412, -0.12515291571617126, -0.02179008722305298, -0.2064831405878067, -0.2792273163795471, 0.19640398025512695, 0.5547699928283691, 0.2945525646209717, -0.16420485079288483, -0.24396489560604095, 0.03638182207942009, 0.1148189827799797, 0.09491728246212006, 0.2194455862045288, -0.22768716514110565, 0.01924334280192852, -0.021956047043204308, -0.29487115144729614, 0.10551877319812775, 0.06728211790323257, 0.2783185839653015, 0.05545240640640259, 0.11109459400177002, -0.37159234285354614, -0.10601818561553955, -0.06584960967302322, 0.32364675402641296, -0.29701074957847595, 0.022904889658093452, -0.03185233101248741, 0.06262185424566269, 0.2979264259338379, -0.05074731633067131, -0.08851297199726105, -0.012570146471261978, -0.16027401387691498, 0.14785850048065186, -0.07413698732852936, 0.2699386179447174, -0.14768357574939728, 0.08840595930814743, -0.14147551357746124, 0.05038612708449364, -0.23588909208774567, 0.3458826243877411, 0.053464751690626144, 0.0636124238371849, -0.1816442310810089, 0.3390975594520569, -0.143583282828331, 0.033386196941137314, -0.0845092236995697, -0.07300753146409988, -0.22099964320659637, -0.19531792402267456, -0.24182921648025513, 0.036746423691511154, -0.142255038022995, 0.37256914377212524, 0.2384415566921234, 0.1375942826271057, -0.09161973744630814, 0.055261917412281036, 0.2491711676120758, -0.1404813975095749, -0.20839016139507294, 0.301361620426178, 0.20002377033233643, -0.047539371997117996, -0.06611843407154083, 0.03581862896680832, 0.1160704493522644, -0.6688946485519409, 0.07860767096281052, 0.07249482721090317, -0.002611876232549548, -0.1368037760257721, -0.023023150861263275, -0.4828101098537445, -0.036064982414245605, -0.40453898906707764, -0.37078651785850525, -0.06310221552848816, 0.21144607663154602, 0.14958588778972626, 0.11336755752563477, -0.3739303946495056, -0.5014806985855103, -0.16838380694389343, 0.1370903104543686, 0.08381576091051102, 0.13089251518249512, 0.016858495771884918, -0.0820712000131607, 0.3118433654308319, 0.37713944911956787, 0.15601760149002075, -0.4183627665042877, 0.35140299797058105, -0.06519636511802673, 0.30611157417297363, -0.19606687128543854, -0.0448889397084713, -0.052009180188179016, -0.47769519686698914, 0.1028929129242897, 0.13670358061790466, -0.053316693753004074, -0.22117455303668976, 0.06765887886285782, 0.13864384591579437, -0.14900118112564087, 0.02682914398610592, -0.2115822732448578, 0.02757575921714306, 0.017407938838005066, -0.09828891605138779, -0.061512164771556854, -0.017973700538277626, -0.17759186029434204, 0.07876395434141159, -0.23804104328155518, 0.26256147027015686, -0.11880887299776077, -0.22776205837726593, 0.08344487845897675, 0.20796020328998566, 0.09173733741044998, 0.14080850780010223, -0.17365626990795135, -0.13818980753421783, -0.07475240528583527, 0.18242515623569489, 0.17487233877182007, 0.044813644140958786, -0.017361178994178772, 0.08433444797992706, 0.016197865828871727, 0.10119307041168213, 0.033220868557691574, 0.07202152907848358, 0.06413330882787704, -0.009605851955711842, 0.05043688416481018, -0.08014518767595291, -0.047674451023340225, -0.4549615681171417, 0.2344215214252472, -0.06385625898838043, 0.2556081712245941, 0.029105328023433685, -0.00598550122231245, 0.02890068292617798, 0.025514371693134308, 0.02575947344303131, 0.028989126905798912, 0.07346145808696747, 0.027571167796850204, -0.07938296347856522, 0.12107506394386292, 0.03070693276822567, -0.06424673646688461, -0.01856152154505253, -0.00578160397708416, -0.08148479461669922, 0.14290450513362885, 0.057868603616952896, 0.11493890732526779, 0.03768622875213623, 0.03772744908928871, -0.08686598390340805, -0.009525845758616924, 0.0647292286157608, 0.07876560837030411, 0.03743138909339905, -0.029637247323989868, -0.00770105654373765, 0.1257331818342209, -0.1737670600414276, 0.2051853984594345, 0.022775374352931976, -0.006949711591005325, -0.2720121443271637, 0.17732426524162292, -0.03623756766319275, -0.029186470434069633, 0.013269647024571896, 0.03759701922535896, -0.09384652972221375, 0.06607963889837265, -0.18562307953834534, 0.2336951196193695, 0.07350849360227585, -0.07320287078619003, 0.021315723657608032, -0.14847016334533691, 0.10179435461759567, -0.09014233201742172, 0.21314920485019684, -0.05871400982141495, -0.08461571484804153, 0.02800239436328411, -0.29176703095436096, 0.12673594057559967, 0.06685877591371536, 0.09502445161342621, -0.10935942828655243, -0.009883654303848743, -0.008325019851326942, 0.19633592665195465, 0.13259370625019073, -0.07114285975694656, -0.06984660029411316, -0.14608275890350342, -0.13959206640720367, 0.08846069127321243, 0.09991630911827087, 0.11609150469303131, 0.22263653576374054, -0.014609251171350479, -0.04274089261889458, -0.0063449423760175705, 0.04261462017893791, 0.33990174531936646, -0.04298587515950203, -0.17876507341861725, 0.24915197491645813, -0.004438464995473623, -0.07791347801685333, -0.028776561841368675, 0.06763263046741486, 0.11635681241750717, -0.11481431871652603, -0.08252444118261337, 0.022439496591687202, 0.21907639503479004, -0.16081373393535614, 0.19437026977539062, -0.16838213801383972, -0.09505137801170349, 0.07421237975358963, 0.0031939486507326365, 0.039633989334106445, 0.14776352047920227, 0.18799054622650146, -0.3896382749080658, 0.04502690210938454, -0.4044448733329773, 0.2044486403465271, -0.05558563023805618, 0.20795488357543945, 0.054654501378536224, 0.10514462739229202, 0.03768732026219368, 0.20392180979251862, 0.22668464481830597, -0.11675320565700531, -0.40540242195129395, 0.0374767892062664, 0.03460017964243889, 0.046364299952983856, 0.042263589799404144, 0.23935921490192413, 0.0290538277477026, 0.04182128980755806, -0.1288025975227356, 0.34080272912979126, 0.016486817970871925, 0.11500563472509384, 0.1626635044813156, 0.08287965506315231, 0.0010986197739839554, 0.2574567198753357, 0.1484718918800354, -0.36226266622543335, 0.24910235404968262, -0.062263354659080505, 0.016050774604082108, 0.0803622156381607, 0.20270775258541107, -0.06262057274580002, -0.009853343479335308, -0.1391783505678177, -0.15776939690113068, -0.0010965699329972267, -0.2609766721725464, -0.040557634085416794, 0.10368942469358444, -0.050993192940950394, 0.09333508461713791, 0.05227038636803627, 0.24647662043571472, -0.1374846249818802, 0.1073702946305275, 0.16817405819892883, 0.09597472101449966, 0.08228009194135666, 0.20663313567638397, -0.1707475185394287, 0.21631400287151337, 0.1950252652168274, 0.18055297434329987, 0.010375200770795345, 0.01995316706597805, 0.12912093102931976, -0.026963580399751663, 0.2609621584415436, -0.021451883018016815, -0.04514069855213165, -0.15281714498996735, -0.06820455938577652, 0.42660537362098694, 0.23146559298038483, 0.05763708055019379, -0.04628157243132591, -0.14417392015457153, -0.03302936255931854, 0.06501586735248566, -0.061110299080610275, 0.02625478059053421, -0.16129770874977112, -0.2113996148109436, -0.01326526515185833, 0.3161798417568207, -0.18751046061515808, -0.18438851833343506, 0.049665890634059906, -0.2798032760620117, -0.34813356399536133, -0.1808265596628189, -0.2605801522731781, -0.10327783972024918, -0.13951976597309113, -0.055312447249889374, 0.2751288115978241, -0.1451619416475296, 0.07067348808050156, -0.07006336003541946, -0.18623287975788116, -0.029592882841825485, -0.1944590061903, -0.06493055075407028, -0.11996626108884811, -0.35145828127861023, -0.17253337800502777, 0.06235745549201965, -0.0517546609044075, 0.2677484452724457, 0.1503002643585205, -0.06599029898643494, 0.2863050401210785, 0.04828081652522087, -0.0931921899318695, -0.1912613958120346, 0.16713905334472656, 0.12890958786010742, 0.03308729827404022, 0.29742732644081116, 0.02086731791496277, 0.14028435945510864, 0.005917614325881004, -0.05049207806587219, 0.3245156407356262, 0.14482520520687103, 0.22476735711097717, 0.1545504778623581, -0.16508586704730988, -0.006851219106465578, -0.1143205538392067, 0.02012024261057377, 0.03965106979012489, 0.211502343416214, 0.12644587457180023, -0.12803347408771515, -0.1542515754699707, -0.08050640672445297, -0.16024282574653625, -0.014710165560245514, 0.11650273948907852, -0.1521141678094864, 0.007236216217279434, -0.02338375896215439, -0.004163128323853016, 0.16640295088291168, -0.09014975279569626, -0.1579691618680954, 0.162993922829628, -0.03242233023047447, 0.20632173120975494, 0.15522342920303345, 0.2582474946975708, -0.00825729500502348, 0.09620113670825958, -0.21645517647266388, -0.29252710938453674, -0.02445807494223118, -0.06947016716003418, 0.0019381982274353504, 0.1382460743188858, -0.027514105662703514, 0.052695102989673615, -0.1815710812807083, 0.16260705888271332, -0.04401669651269913, -0.12332857400178909, -0.013894239440560341, -0.1233581006526947, 0.28646549582481384, -0.019331300631165504, 0.17505164444446564, -0.018680263310670853, -0.07129203528165817, -0.10979128628969193, -0.20745213329792023, -0.25624755024909973, -0.10255634784698486, 0.1070915013551712, -0.29302313923835754, 0.14384551346302032, -0.11641068756580353, -0.017858030274510384, 0.05840497091412544, -0.04240807145833969, 0.03112446703016758, -0.12795217335224152, 0.0786779522895813, -0.275530070066452, 0.13557863235473633, -0.06874102354049683, -0.044892340898513794, 0.19337618350982666, 0.02011575736105442, -0.11983298510313034, 0.014004727825522423, 0.18882423639297485, -0.3658945560455322, -0.04704928398132324, -0.07788888365030289, 0.044728249311447144, -0.2484445720911026, 0.21765117347240448, -0.2903100848197937, 0.07915356755256653, -0.18103045225143433, -0.14401549100875854, 0.06826382130384445, -0.06851071119308472, 0.11402639001607895, 0.29166972637176514, -0.04215005785226822, -0.06458799540996552, 0.0765700712800026, -0.3026983141899109, 0.3728899359703064, -0.22598914802074432, 0.3022335469722748, -0.08018463850021362, -0.1558651328086853, 0.07337833195924759, 0.13558323681354523, -0.01311040110886097, -0.19596189260482788, -0.03477635234594345, 0.1488606333732605, -0.04477812722325325, -0.24468503892421722, 0.14631791412830353, 0.22812817990779877, 0.2690097689628601, 0.010555241256952286, 0.029483288526535034, 0.04831675440073013, 0.17358773946762085, -0.295397013425827, 0.2239956557750702, -0.029838794842362404, 0.023424968123435974, -0.08827567100524902, -0.0789826288819313, -0.05246085673570633, 0.0905090868473053, 0.09036312252283096, -0.003192752134054899, -0.0848015695810318, -0.2814739942550659, 0.09599695354700089, 0.44600945711135864, -0.06709355115890503, -0.09388435631990433, -0.05279570817947388, 0.07815971970558167, -0.05032925680279732, -0.038436222821474075, 0.19138844311237335, -0.12041471898555756, 0.007709330879151821, 0.057163603603839874, 0.060920365154743195, -0.1115940660238266, 0.020768536254763603, -0.5315515398979187, -0.0568862184882164, -0.15651877224445343, -0.14094094932079315, -0.16315621137619019, 0.17287097871303558, 0.0479440800845623, 0.07270568609237671, 0.30570003390312195, -0.07141616195440292, 0.3328852355480194, -0.016540441662073135, 0.1269008219242096, -0.10320077836513519, 0.049977000802755356, 0.009209907613694668, 0.08263509720563889, -0.1726275235414505, -0.07428295910358429, -0.1929592788219452, -0.24002528190612793, -0.12636730074882507, 0.33150896430015564, -0.2366425096988678, -0.06637602299451828, -0.15528327226638794, 0.2511986494064331, 0.09803473949432373, 0.12935607135295868, 0.0486854687333107, -0.6034447550773621, -0.10823854058980942, 0.35040903091430664, -0.011679123155772686, 0.15042781829833984, -0.026291364803910255, -0.2589651346206665, 0.04523688182234764, -0.1287156641483307, 0.06066477671265602, -0.026593632996082306, 0.21171429753303528, -0.2721731960773468, -0.1986275166273117, 0.0987844467163086, -0.10119131207466125, 0.030349744483828545, -0.14250610768795013, -0.004455181770026684, -0.056761931627988815, 0.2605285048484802, 0.01997016742825508, -0.023475024849176407, -0.12912431359291077, 0.1171916201710701, -0.10315633565187454, -0.04987671971321106, -0.16705814003944397, 0.1513773649930954, 0.006294157821685076, 0.1822972148656845, -0.1329880803823471, -0.06341073662042618, -0.2111259549856186, -0.26029521226882935, -0.010636411607265472, -0.23551765084266663, -0.031005803495645523, 0.12043594568967819, 0.1741989701986313, 0.12584276497364044, 0.12316367030143738, -0.14972293376922607, -0.3255588114261627, 0.024585070088505745, 0.0857221856713295, -0.1462070345878601, -0.09826166182756424, 0.007335157133638859, 0.13995195925235748, 0.011289472691714764, 0.09833817929029465, 0.15183816850185394, -0.16792424023151398, -0.13341790437698364, -0.1804679036140442, 0.01898798905313015, -0.05131615325808525, -0.24821476638317108, -0.005760606843978167, -0.27612030506134033, -0.15481355786323547, -0.06636252254247665, 0.0131157161667943, -0.1514243483543396, -0.4785577952861786, 0.0695200189948082, 0.06924948841333389, 0.02530447393655777, 0.18156558275222778, -0.390872061252594, -0.05551409348845482, -0.07447481155395508, 0.16156598925590515, 0.0737200602889061, 0.026015082374215126, -0.03655370697379112, -0.06494889408349991, -0.10487080365419388, -0.12026144564151764, -0.017205987125635147, -0.22621244192123413, 0.03131617233157158, 0.009943816810846329, 0.03737107291817665, 0.12864640355110168, 0.0980975553393364, -0.18828725814819336, -0.09232603013515472, -0.23804442584514618, -0.05551789700984955, 0.07466929405927658, 0.03151469677686691, -0.11742499470710754, 0.017435189336538315, -0.04477670416235924, -0.22361387312412262, 0.004372871480882168, 0.03711523860692978, 0.051431212574243546, 0.2698401212692261, -0.15160197019577026, -0.019345734268426895, 0.00032729722443036735, 0.09203162789344788, 0.10322775691747665, 0.07192444056272507, 0.04019801318645477, -0.015771834179759026, 0.08461179584264755, -0.16641756892204285, 0.03593618422746658, 0.10247517377138138, -0.036246418952941895, 0.0434877909719944, -0.16290530562400818, 0.029558680951595306, -0.09678129106760025, 0.017378808930516243, 0.05109572038054466, 0.03636665642261505, 0.15366283059120178, -0.12054114788770676, -0.17910487949848175, 0.056370723992586136, 0.016654180362820625, 0.08233365416526794, 0.05494399741292, -0.2744463384151459, -0.0734967440366745, -0.02680983953177929, -0.07714293897151947, 0.03964010253548622, -0.035467348992824554, 0.044613514095544815, -0.05199970677495003, 0.12560836970806122, 0.2525210678577423, 0.03190960735082626, 0.1139538437128067, 0.3638879358768463, -0.10743635147809982, 0.08809970319271088, 0.017623135820031166, -0.16315273940563202, 0.024918995797634125, 0.04349207133054733, -0.08891239017248154, -0.22970561683177948, 0.28586262464523315, 0.07881806790828705, 0.035641808062791824, 0.2143353968858719, -0.13390731811523438, 0.036743998527526855, 0.18515507876873016, 0.07180828601121902, -0.06515198200941086, 0.33143195509910583, -0.19685325026512146, 0.051235005259513855, 0.024975769221782684, -0.500339686870575, -0.18416671454906464, 0.013327136635780334, -0.0806262418627739, -0.14021828770637512, -0.06700687855482101, 0.12350775301456451, 0.04629550874233246, -0.1378665417432785, -0.30344876646995544, 0.13732610642910004, -0.05408267676830292, -0.025089122354984283, 0.2603064775466919, 0.29216670989990234, -0.06100403890013695, -0.26227903366088867, 0.0364561602473259, 0.28120461106300354, 0.013619337230920792, -0.16262727975845337, -0.20866505801677704, 0.11777210980653763, 0.06857006251811981, 0.17942792177200317, -0.0023713838309049606, -0.06655608117580414, -0.0061655049212276936, 0.0339384526014328, -0.0018128366209566593, -0.09953781217336655, -0.23325574398040771, 0.07589171081781387, 0.07697122544050217, 0.24630019068717957, -0.33649060130119324, 0.11657661199569702, 0.007624142803251743, 0.19433602690696716, -0.02966441959142685, 0.08733817934989929, 0.07683858275413513, -0.0500812865793705, 0.03492601960897446, 0.01139292772859335, -0.32615408301353455, -0.12070541083812714, 0.057729002088308334, 0.041700851172208786, -0.11147097498178482, 0.177041694521904, 0.1107819601893425, -0.15379218757152557, -0.09896437078714371, 0.06277760118246078, -0.009288853034377098, -0.09120914340019226, 0.03228821977972984, -0.15101106464862823, -0.008027371019124985, 0.044541869312524796, 0.11817459762096405, -0.05610574781894684, 0.4980161190032959, 0.13628821074962616, -0.052668359130620956, 0.12426687031984329, 0.3269176185131073, -0.2062240093946457, 0.08661343157291412, -0.07172458618879318, 0.14370393753051758, -0.09298571944236755, 0.02943914569914341, 0.06969660520553589, -0.014863729476928711, 0.1478930115699768, -0.03859919682145119, -0.025211768224835396, 0.30933040380477905, -0.007237013895064592, 0.312810480594635, 0.16107691824436188, -0.09099795669317245, -0.007152202073484659, 0.03865494206547737, -0.06679663807153702, -0.09739641100168228, 0.08099842071533203, 0.19887302815914154, -0.4098682701587677, 0.05845414102077484, -0.0584871768951416, -0.1243981197476387, -0.04033185541629791, 0.20451247692108154, 0.1359589844942093, 0.009090404026210308, -0.008388904854655266, 0.08846939355134964, -0.3931995928287506, -0.07348033785820007, -0.1535753607749939, 0.043726854026317596, -0.07209949940443039, 0.10646969079971313, -0.2523842751979828, -0.15197379887104034, -0.14058659970760345, -0.19479487836360931, 0.23721499741077423, 0.17845295369625092, -0.10358604788780212, 0.17951582372188568, 0.14871205389499664, -0.26770415902137756, 0.22514544427394867, -0.15325044095516205, 0.39863157272338867, -0.1299472153186798, -0.08212818205356598, 0.12676897644996643, -0.048900239169597626, -0.12923498451709747, 0.27068912982940674, 0.23759964108467102, 0.05387086793780327, 0.2569040358066559, -0.25251275300979614, -0.13399997353553772, -0.29926323890686035, 0.1887437105178833, 0.040214281529188156, 0.1159326434135437, -0.31140002608299255, -0.006318097934126854, -0.1316780298948288, 0.07624200731515884, 0.1739969700574875, -0.08993121236562729, -0.12567564845085144, -0.19724330306053162, 0.2110355645418167, 0.1072186604142189, -0.017402295023202896, -0.2682822346687317, 0.2572026550769806, -0.3004453480243683, 0.24886707961559296, -0.0738234594464302, 0.3719600439071655, 0.14264418184757233, 0.035633865743875504, 0.012762409634888172, -0.3337295949459076, 0.08347633481025696, 0.13939958810806274, -0.011122805997729301, 0.1278555989265442, 0.13545818626880646, -0.013099516741931438, 0.2716934382915497, 0.16394977271556854, 0.02660187892615795, -0.3031957745552063, 0.09845699369907379, -0.11448198556900024, -0.269998699426651, -0.026200562715530396, 0.19248329102993011, 0.15696674585342407, -0.07618523389101028, -0.2472269982099533, -0.10092757642269135, 0.20730841159820557, 0.16460992395877838, -0.11936157941818237, -0.11043957620859146, -0.18549253046512604, 0.4038105607032776, -0.08256056159734726, -0.4391213059425354, -0.06040780618786812, 0.01937994360923767, 0.3393544852733612, 0.004126499406993389, -0.07305770367383957, 0.08767178654670715, -0.0034733805805444717, 0.10646647959947586, 0.19471479952335358, -0.018746525049209595, 0.03463355451822281, -0.19698871672153473, -0.10826587677001953, 0.11920074373483658, -0.14872001111507416, -0.2158159762620926, 0.023040959611535072, -0.042443301528692245, -0.003144359914585948, 0.0549323596060276, 0.12448130548000336, -0.06666915863752365, 0.2954977750778198, -0.007756143808364868, 0.14317438006401062, 0.15317070484161377, 0.1024414449930191, -0.0534336157143116, 0.0390605702996254, 0.0003927453653886914, -0.1695062220096588, -0.11258812993764877, 0.1890902817249298, -0.038428906351327896, 0.1038118228316307, 0.3494378626346588, -0.1866053342819214, -0.06995520740747452, -0.06732562184333801, -0.18424926698207855, -0.12116704881191254, 0.04683791846036911, 0.3166380822658539, 0.06034157797694206, -0.046368539333343506, 0.17227749526500702, 0.16437643766403198, -0.0652386024594307, -0.003547835163772106, -0.061879776418209076, 0.2484797239303589, -0.2672897279262543, 0.042782824486494064, -0.04242287203669548, 0.13472586870193481, -0.1511233001947403, 0.07607518881559372, 0.056870125234127045, -0.043417174369096756, -0.24774079024791718, -0.05490124225616455, -0.05685477703809738, -0.3392525613307953, 0.015103072859346867, 0.020002169534564018, 0.02669740654528141, 0.017024513334035873, 0.09449489414691925, 0.3256836235523224, -0.2586916387081146, 0.33304837346076965, -0.030752038583159447, 0.3065168857574463, -0.14943982660770416, 0.3650032579898834, -0.04956625774502754, -0.005750005599111319, 0.015803378075361252, 0.22271911799907684, 0.16175760328769684, 0.1376003623008728, 0.19655178487300873, 0.12104466557502747, -0.2143913060426712, -0.24818269908428192, 0.010004492476582527, -0.2474842518568039, -0.014232099056243896, 0.07681848108768463, 0.15644033253192902, -0.03540067374706268, -0.23895804584026337, -0.12194343656301498, -0.07475199550390244, -0.11463232338428497, -0.048157431185245514, 0.04534861445426941, -0.09457940608263016, 0.3362716734409332, -0.08091489225625992, 0.055447012186050415, -0.035234611481428146, -0.23387840390205383, -0.11088371276855469, 0.2945876121520996, 0.004348012153059244, -0.17277555167675018, 0.14826960861682892, -0.4047967493534088, 0.04359828308224678, 0.19625036418437958, -0.05139563977718353, 0.11819008737802505, 0.07042709738016129, -0.22690480947494507, 0.060387738049030304, -0.05094888433814049, 0.2125568836927414, -0.14047138392925262, -0.1449141800403595, -0.11019371449947357, -0.11201732605695724, -0.17869679629802704, 0.3967803418636322, 0.19162924587726593, -0.12920688092708588, -0.3200512230396271, -0.2023448497056961, 0.12612073123455048, 0.04234384372830391, -0.06099261716008186, 0.09832308441400528, 0.07334762811660767, -0.04276570677757263, 0.14814022183418274, 0.2651436924934387, -0.34536096453666687, -0.08897843956947327, -0.0646020919084549, -0.16113491356372833, -0.07055607438087463, 0.08381539583206177, -0.041905973106622696, 0.11100725084543228, -0.045297928154468536, 0.05740221589803696, 0.2827966809272766, -0.02024565264582634, -0.2015066146850586, -0.049110956490039825, -0.11766579747200012, -0.1658041924238205, 0.1836828589439392, 0.006026997696608305, 0.020591363310813904, -0.05455581471323967, 0.16967326402664185, 0.009633840061724186, -0.021089157089591026, 0.054843973368406296, 0.2285289615392685, -0.09571388363838196, 0.049708735197782516, 0.22155079245567322, -0.13288909196853638, -0.16814590990543365, -0.11178979277610779, -0.09033791720867157, 0.01871686801314354, -0.13409419357776642, -0.16456076502799988, -0.16313402354717255, 0.1797599196434021, -0.1443936824798584, -0.07679729163646698, -0.0651562288403511, 0.23864415287971497, -0.20524214208126068, -0.15411654114723206, -0.10839654505252838, 0.3671908676624298, 0.12044918537139893, -0.3051168918609619, 0.18171434104442596, 0.15819762647151947, -0.0006568098324351013, 0.22214625775814056, 0.08247681707143784, 0.3771021068096161, -0.032320477068424225, -0.14169351756572723, -0.3226269781589508, 0.03210098296403885, -0.19278983771800995, 0.107867531478405, 0.006119100842624903, -0.05037877708673477, -0.09737641364336014, 0.1318604201078415, 0.07786836475133896, -0.27211469411849976, -0.14304997026920319, -0.024937720969319344, -0.04025298357009888, -0.11794675141572952, -0.21164338290691376, -0.13758112490177155, -0.03534228354692459, 0.0783390998840332, -0.025893842801451683, 0.16229479014873505, 0.10298778116703033, 0.029385551810264587, 0.10235632956027985, 0.020685939118266106, -0.031812816858291626, -0.013861514627933502, 0.067699134349823, 0.04164867103099823, -0.22491922974586487, 0.18970653414726257, 0.2624223828315735, -0.17031559348106384, -0.017885280773043633, -0.10107551515102386, 0.04698571935296059, -0.059192951768636703, 0.08394418656826019, -0.3394829332828522, 0.08599414676427841, 0.006829758640378714, -0.2620084285736084, 0.14152541756629944, 0.3001907467842102, 0.03439858555793762, 0.22572959959506989, -0.13746657967567444, 0.15678150951862335, -0.06116538867354393, 0.1685308814048767, 0.0938200131058693, 0.0005070767947472632, 0.13938066363334656, -0.4190237522125244, 0.5123520493507385, 0.4626259505748749, 0.22789816558361053, -0.22858525812625885, 0.19126607477664948, -0.12210581451654434, 0.24727687239646912, -0.009425048716366291, -0.13186560571193695, -0.22790811955928802, -0.2653823792934418, 0.14825664460659027, -0.10124661028385162, 0.08651134371757507, 0.05565284192562103, 0.08333627134561539, -0.0633256658911705, 0.02181362174451351, 0.11256980150938034, -0.06404127180576324, -0.07097660005092621, 0.17239193618297577, 0.002169439336284995, 0.06407362222671509, 0.07331281900405884, 0.08224289119243622, -0.1588510125875473, -0.008790121413767338, 0.05976146087050438, -0.1953309178352356, 0.1761873960494995, 0.07661861926317215, 0.37365105748176575, 0.07347461581230164, -0.2712963819503784, 0.09805379807949066, 0.24717101454734802, 0.14713172614574432, 0.20028717815876007, -0.07772734761238098, 0.12005364149808884, -0.11857692152261734, 0.1217285767197609, -0.024538684636354446, -0.08312591910362244, 0.19773289561271667, 0.0645071342587471, 0.0688987746834755, -0.04704656824469566, -0.05802364647388458, -0.03282209485769272, -0.21012967824935913, 0.08730160444974899, -0.15967468917369843, 0.43417850136756897, 0.07048533111810684, 0.2291543185710907, -0.05062388628721237, -0.109817273914814, -0.015837417915463448, 0.06445532292127609, -0.053895510733127594, -0.030402716249227524, -0.051020875573158264, 0.04761107638478279, -0.3678433299064636, -0.07473132759332657, 0.06843112409114838, -0.014895264059305191, -0.01834167167544365, 0.044094618409872055, -0.013491561636328697, -0.20290595293045044, 0.014413096010684967, -0.033611882477998734, 0.03237719088792801, 0.103643998503685, -0.15838661789894104, 0.010854024440050125, 0.12654004991054535, -0.19273731112480164, -0.052668843418359756, -0.008809467777609825, 0.05012983828783035, 0.20821517705917358, -0.09059888869524002, 0.2419341653585434, -0.1798659861087799, 0.014179646037518978, 0.12771815061569214, 0.20068968832492828, -0.06850181519985199, 0.13453969359397888, -0.10106872022151947, -0.2406618297100067, -0.08920329064130783, -0.389532208442688, 0.140199676156044, -0.16141754388809204, 0.169630229473114, 0.09531421959400177, 0.030064260587096214, 0.18220539391040802, -0.09587237983942032, 0.1172545775771141, -0.08182727545499802, -0.045952267944812775, 0.11287174373865128, -0.09906716644763947, 0.20495717227458954, 0.012912794016301632, -0.3045567274093628, 0.11500199139118195, 0.15492524206638336, 0.018832776695489883, -0.02267894335091114, -0.08425487577915192, -0.03322384133934975, 0.02801617421209812, 0.03147635981440544, 0.1511937975883484, 0.12834788858890533, 0.1410032957792282, 0.04269294813275337, -0.1097668930888176, -0.0828183963894844, 0.14561526477336884, -0.07905488461256027, 0.019631588831543922, 0.142914280295372, -0.041970111429691315, 0.16576437652111053, 0.004504194017499685, 0.10703102499246597, -0.0327276736497879, 0.28682172298431396, -0.005060478113591671, 0.14263051748275757, 0.12736672163009644, 0.12266600131988525, -0.08974374830722809, -0.06510017812252045, -0.20431579649448395, -0.04018121212720871, 0.36993059515953064, -0.09582366794347763, -0.04285139963030815, 0.15132078528404236, -0.020128192380070686, -0.21016651391983032, 0.22258885204792023, 0.03974524140357971, 0.11650211364030838, 0.29848310351371765, -0.024781914427876472, 0.0362531803548336, -0.3619292080402374, -0.1516570746898651, -0.05936840549111366, 0.15945757925510406, -0.2127407044172287, -0.13045719265937805, 0.3512152135372162, 0.2546776235103607, -0.09048156440258026, -0.15642336010932922, 0.1392333209514618, -0.0673525333404541, -0.09318388253450394, -0.09729031473398209, 0.2960282266139984, -0.18238726258277893, 0.03369514271616936, 0.03803926706314087, 0.06715826690196991, 0.30836954712867737, 0.09962356090545654, -0.029419250786304474, 0.2121792733669281, 0.12151645123958588, -0.03517794609069824, -0.10573622584342957, -0.14919443428516388, -0.11917776614427567, -0.07678545266389847, 0.004147338680922985, 0.07981207966804504, 0.02966814860701561, 0.007698093540966511, 0.0195566788315773, 0.013848723843693733, -0.16817991435527802, -0.2648705542087555, -0.04021842032670975, -0.04447812959551811, 0.13392576575279236, -0.43314382433891296, 0.3368241786956787, -0.14753347635269165, -0.04172102361917496, -0.011765992268919945, 0.14391298592090607, 0.0066336351446807384, 0.21886056661605835, -0.16206735372543335, 0.014180188067257404, -0.003937438130378723, -0.05714508518576622, -0.07116899639368057, -0.08855564147233963, -0.13335052132606506, 0.07092667371034622, 0.13878083229064941, -0.21042872965335846, -0.006940607912838459, 0.0066326335072517395, 0.17455188930034637, -0.007158842869102955, 0.007367948070168495, 0.12613382935523987, -0.27829355001449585, 0.26147955656051636, -0.10873520374298096, 0.03797305375337601, -0.1088850200176239, -0.07566787302494049, -0.02441510558128357, 0.3342607319355011, -0.12229259312152863, -0.009812404401600361, 0.24427352845668793, 0.006249335594475269, 0.15753059089183807, -0.13227544724941254, -0.10062061250209808, -0.2112514227628708, -0.1500476598739624, -0.015171265229582787, 0.06520383805036545, -0.01753963530063629, 0.3791281282901764, 0.14617310464382172, 0.04854089394211769, -0.08254704624414444, 0.17321863770484924, -0.28543999791145325, -0.13453024625778198, 0.08450023084878922, 0.06308906525373459, 0.04237435758113861, 0.07227695733308792, -0.04142539203166962, -0.058706555515527725, 0.025719938799738884, -0.21850790083408356, -0.07980988174676895, -0.04955551028251648, 0.11617210507392883, 0.07995544373989105, 0.10746932774782181, -0.23698969185352325, -0.12230759859085083, 0.058915216475725174, 0.05212272331118584, 0.22755315899848938, -0.054920077323913574, 0.14098693430423737, -0.05949639528989792, 0.14650018513202667, -0.24516332149505615, 0.03134099766612053, 0.15652824938297272, -0.15810437500476837, 0.09980946034193039, -0.025257227942347527, 0.16990599036216736, 0.11313846707344055, -0.03968994319438934, -0.031012078747153282, -0.37339353561401367, -0.06887295097112656, -0.08208823204040527, 0.055685438215732574, 0.07387130707502365, -0.09314674139022827, -0.09077691286802292, -0.10302192717790604, 0.11212184280157089, -0.15641647577285767, -0.13813988864421844, 0.13584071397781372, 0.07250618189573288, 0.13423481583595276, 0.2739984393119812, 0.2659899890422821, -0.2943874001502991, -0.1425836980342865, -0.1867143213748932, 0.1696082502603531, -0.06575945764780045, -0.04738658666610718, 0.0021415019873529673, -0.14417524635791779, -0.13735255599021912, 0.06835106760263443, -0.24219106137752533, -0.22488097846508026, -0.027351336553692818, -0.10877896845340729, 0.18658559024333954, 0.06933329999446869, 0.2831137180328369, -0.012410718947649002, 0.0433456189930439, -0.026271745562553406, 0.15601633489131927, 0.20887866616249084, -0.19234739243984222, -0.2816704213619232, -0.10079335421323776, -0.21733999252319336, 0.14426745474338531, -0.09919214993715286, -0.18552720546722412, -0.049606818705797195, 0.1537148803472519, 0.22974392771720886, -0.09340082854032516, 0.06725358217954636, -0.0400703065097332, 0.0952458456158638, 0.23337820172309875, -0.10783232003450394, -0.24490784108638763, 0.005039925221353769, 0.2208726704120636, -0.5133597254753113, 0.012055160477757454, 0.010475129820406437, 0.2313774973154068, -0.08762311190366745, 0.17570117115974426, -0.24963681399822235, 0.05901021882891655, -0.251300185918808, -0.4529475271701813, 0.11185076832771301, 0.028779882937669754, 0.07335596531629562, -0.0651940330862999, 0.10089562088251114, -0.3308370113372803, -0.12236084043979645, 0.5290876626968384, -0.21666841208934784, -0.3540031611919403, -0.23371943831443787, -0.12155918776988983, -0.16093629598617554, 0.14127308130264282, -0.27291324734687805, -0.233003631234169, 0.028612958267331123, -0.02993830479681492, -0.3345920741558075, 0.15521450340747833, -0.13468828797340393, -0.07384710013866425, -0.20185889303684235, -0.025712227448821068, 0.4594952464103699, 0.0235696192830801, -0.10301487892866135, 0.18708090484142303, 0.04712445288896561, 0.14495937526226044, -0.1580042541027069, 0.281074583530426, -0.1526789516210556, 0.028186123818159103, -0.06891949474811554, -0.3412732481956482, -0.009072433225810528, -0.06956920772790909, -0.0006014087121002376, -0.22803820669651031, -0.10730312019586563, 0.18260954320430756, 0.11328040808439255, 0.28751033544540405, -0.2326122671365738, -0.005900269374251366, 0.1057005524635315, 0.06770793348550797, 0.2461998611688614, 0.17158310115337372, -0.05716746300458908, 0.02042841725051403, 0.04962562769651413, 0.003541721496731043, 0.10746430605649948, 0.08219372481107712, 0.01154968049377203, 0.20926174521446228, -0.007481317035853863, 0.06575066596269608, 0.023378580808639526, -0.08759718388319016, -0.10963636636734009, 0.08573794364929199, 0.3102196455001831, 0.1659877598285675, -0.08950851112604141, 0.14758135378360748, 0.06997764110565186, 0.042173389345407486, -0.13784191012382507, -0.2457352727651596, 0.0804506167769432, 0.061043206602334976, -0.04272058978676796, -0.07604549825191498, -0.01212721411138773, 0.03452536463737488, 0.013306539505720139, -0.07658720016479492, -0.07146400958299637, -0.043632201850414276, -0.3138343393802643, -0.08287013322114944, 0.17237141728401184, -0.20204174518585205, 0.012779118493199348, -0.14182724058628082, -0.012739123776555061, -0.195262148976326, 0.3186815083026886, -0.23713235557079315, 0.036372341215610504, -0.1837400496006012, 0.09367658197879791, -0.33667078614234924, 0.027581987902522087, 0.0815209299325943, 0.3109080493450165, 0.1445714384317398, 0.06141674518585205, 0.13273227214813232, -0.050309378653764725, 0.09199400991201401, 0.13940992951393127, 0.16237135231494904, -0.1719297170639038, -0.1391524374485016, -0.11553869396448135, -0.04716469347476959, -0.1680673509836197, 0.018788117915391922, -0.10475572198629379, -0.05069080740213394, 0.10708890110254288, 0.011218138970434666, -0.09179037809371948, -0.11814010143280029, -0.30022671818733215, -0.10910151153802872, -0.020098449662327766, 0.1753692328929901, -0.16372886300086975, -0.05205168575048447, -0.07814454287290573, 0.019493116065859795, 0.017026200890541077, -0.27516618371009827, -0.05175209790468216, 0.17535769939422607, 0.006652911193668842, 0.44715699553489685, -0.0414421446621418, 0.007873979397118092, -0.2497512847185135, -0.048477642238140106, -0.19161394238471985, -0.2647668421268463, -0.06787726283073425, -0.00011537541286088526, 0.08849938958883286, 0.04118350148200989, 0.010143276304006577, -0.2405964434146881, -0.05874130502343178, -0.2476213574409485, -0.052779652178287506, 0.35130465030670166, 0.06780433654785156, 0.1624484658241272, 0.02189302258193493, -0.006503494456410408, 0.08076696842908859, -0.1872043013572693, 0.04345439001917839, 0.14688004553318024, 0.3081275224685669, 0.02242548018693924, -0.00024259541532956064, 0.037312425673007965, -0.016521772369742393, -0.19004777073860168, 0.17156781256198883, -0.044237226247787476, 0.005531642585992813, -0.1673780381679535, 0.23074105381965637, 0.2678436040878296, 0.0460292249917984, -0.05345306172966957, -0.012790939770638943, 0.21801088750362396, 0.0688055157661438, 0.08980704843997955, -0.1269848346710205, 0.023207008838653564, 0.10305267572402954, 0.3892374038696289, -0.15774711966514587, -0.043287698179483414, -0.0528453066945076, -0.10009980946779251, 0.09356210380792618, -0.2348196655511856, -0.30515792965888977, -0.0898355096578598, -0.07212657481431961, -0.14296352863311768, 0.13491953909397125, 0.13850203156471252, 0.1273394525051117, -0.2303399294614792, -0.1433418095111847, -0.17513491213321686, 0.17763274908065796, 0.010000423528254032, -0.003946678712964058, -0.05272814631462097, 0.00914802961051464, 0.07422350347042084, 0.1315426379442215, -0.0775415450334549, 0.11736846715211868, -0.09300725162029266, 0.022525759413838387, 0.22015884518623352, 0.1967230886220932, 0.13930392265319824, -0.10147567093372345, -0.24013805389404297, 0.11561691761016846, -0.05644705891609192, -0.0693211704492569, 0.22565779089927673, -0.22267289459705353, -0.1135220155119896, -0.11635354906320572, 0.10080521553754807, -0.03778582066297531, 0.2979326546192169, 0.19377660751342773, 0.0816233679652214, 0.16225174069404602, -0.0006117636221460998, 0.024314826354384422, 0.005427147261798382, 0.3692682385444641, -0.14066579937934875, 0.12719668447971344, 0.17420366406440735, 0.17033076286315918, -0.11663755774497986, -0.2450140416622162, -0.16006337106227875, 0.23014092445373535, 0.03601204976439476, -0.02731245942413807, -0.18458612263202667, 0.06782110035419464, -0.058033235371112823, 0.1311185657978058, 0.16100643575191498, 0.17939750850200653, 0.04786672815680504, 0.16039495170116425, -0.07639732956886292, 0.0694003701210022, -0.016341928392648697, -0.17952437698841095, 0.1057669147849083, -0.1470997929573059, -0.23611348867416382, 0.3038823902606964, -0.0299090463668108, 0.029612544924020767, 0.018733328208327293, -0.19730843603610992, 0.23368321359157562, 0.03088727407157421, 0.02358481101691723, -0.060621228069067, 0.06330692768096924, 0.09629913419485092, -0.16880463063716888, 0.10908465832471848, 0.14686962962150574, -0.10243213176727295, 0.05055184289813042, 0.10165957361459732, -0.19668874144554138, -0.06237359344959259, 0.0823536068201065, -0.028031758964061737, 0.018908215686678886, -0.15268602967262268, -0.013743894174695015, 0.05632828176021576, 0.17702212929725647, -0.10355163365602493, 0.11393439769744873, 0.2592524588108063, -0.11715390533208847, -0.0037082957569509745, 0.3096044063568115, -0.07183309644460678, -0.017404645681381226, 0.21059635281562805, -0.13213993608951569, -0.0574919693171978, 0.18251994252204895, -0.02768074907362461, -0.0837210863828659, 0.06730972230434418, -0.051234278827905655, 0.1256583333015442, -0.219402477145195, 0.004614235367625952, 0.048310745507478714, 0.023274743929505348, -0.03465169668197632, -0.07432401925325394, -0.3394511342048645, -0.09199107438325882, -0.19609327614307404, 0.015195546671748161, -0.018291577696800232, 0.0052947551012039185, 0.17227515578269958, 0.31934893131256104, -0.07846823334693909, 0.07346131652593613, 0.1310337334871292, 0.09123268723487854, -0.21223382651805878, 0.14338254928588867, 0.15869958698749542, -0.21551671624183655, -0.17131759226322174, -0.0075753009878098965, -0.048477161675691605, 0.18283584713935852, 0.011786390095949173, 0.15735764801502228, -0.000668759923428297, 0.1781884878873825, 0.28870466351509094, 0.09973868727684021, 0.00040268534212373197, 0.03509945049881935, 0.03901948034763336, -0.1722010225057602, 0.12391331046819687, -0.02584129571914673, 0.0987914428114891, -0.24462276697158813, -0.02216045744717121, 0.2168576419353485, -0.03436458110809326, -0.08650442212820053, 0.12900562584400177, 0.016802364960312843, -0.054491691291332245, 0.3441033661365509, -0.054239507764577866, -0.4842589497566223, -0.104108527302742, 0.031425878405570984, -0.6597700715065002, -0.041204821318387985, 0.06361980736255646, 0.1680896282196045, -0.009714820422232151, 0.09168793261051178, 0.09938401728868484, 0.04836287721991539, -0.04271285608410835, 0.20091480016708374, 0.17623905837535858, 0.17470042407512665, 0.07153846323490143, 0.036613620817661285, 0.027346186339855194, 0.06950890272855759, -0.4176940619945526, -0.10903388261795044, 0.18023888766765594, -0.10473863035440445, -0.2432587891817093, -0.1823304444551468, 0.03890983760356903, 0.043688684701919556, -0.05977518483996391, -0.1675020009279251, 0.010140182450413704, 0.18084849417209625, 0.11823870241641998, 0.21171198785305023, -0.12333742529153824, -0.1419687420129776, -0.2607980966567993, 0.015429734252393246, -0.034047242254018784, -0.03920017182826996, 0.09185044467449188, -0.08732504397630692, 0.2321789413690567, -0.007984371855854988, -0.06769529730081558, -0.045676518231630325, -0.0811021625995636, -0.3004460036754608, -0.27747949957847595, -0.07987505942583084, 0.16375140845775604, -0.34494268894195557, -0.008431876078248024, -0.27523311972618103, -0.020338615402579308, 0.04724806174635887, 0.06404579430818558, -0.14956146478652954, 0.024426249787211418, -0.2207050621509552, -0.026896461844444275, 0.12417364865541458, 0.1669839322566986, -0.36240267753601074, -0.10097017139196396, 0.13080650568008423, -0.04906972870230675, 0.22945496439933777, 0.15829461812973022, -0.05292298644781113, 0.17411747574806213, 0.08737753331661224, 0.02393084205687046, -0.1092209592461586, 0.19541150331497192, -0.17030705511569977, -0.2834848165512085, -0.004073267802596092, -0.06196502596139908, 0.22229641675949097, -0.3040364384651184, -0.2906586825847626, -0.05503448098897934, 0.1573895364999771, -0.13916413486003876, 0.06574034690856934, -0.10666655004024506, 0.24858766794204712, 0.20722639560699463, 0.02280271239578724, 0.010210424661636353, 0.12825492024421692, -0.06383734196424484, 0.06999258697032928, 0.05344884470105171, 0.13138450682163239, -0.07100483030080795, 0.046687766909599304, 0.2105012983083725, -0.005410292185842991, -0.06276938319206238, 0.020869266241788864, -0.2263374626636505, -0.11158290505409241, 0.04873429611325264, -0.10913891345262527, 0.29192134737968445, -0.10758958756923676, 0.01693054474890232, 0.23056954145431519, 0.02935107983648777, -0.23601405322551727, 0.12488359957933426, 0.11125750839710236, 0.035973213613033295, 0.23417113721370697, 0.2237371802330017, 0.17042066156864166, 0.20598292350769043, -0.1054321750998497, -0.11094332486391068, 0.2552903890609741, 0.07534147799015045, 0.14586390554904938, -0.0010423309868201613, -0.20256520807743073, -0.11325827240943909, 0.0711812824010849, -0.05719606578350067, -0.2587849199771881, 0.20331473648548126, 0.33754783868789673, 0.07155092060565948, -0.01824234053492546, -0.030832471325993538, 0.23830774426460266, -0.026131704449653625, -0.31109365820884705, 0.02296585962176323, -0.22073958814144135, 0.07613685727119446, -0.034856703132390976, -0.08578735589981079, 0.1814756989479065, -0.1497810184955597, -0.003983626142144203, -0.1297687292098999, -0.0005170775693841279, -0.05440241098403931, 0.05406178906559944, -0.09163598716259003, 0.20628006756305695, -0.16081050038337708, -0.05261479318141937, -0.04419375956058502, -0.18057265877723694, 0.08998892456293106, -0.044282034039497375, -0.18957841396331787, -0.08388630300760269, 0.13710620999336243, -0.09513138979673386, -0.03561557084321976, -0.376748263835907, 0.23602324724197388, 0.03875249624252319, -0.14060944318771362, 0.07979180663824081, -0.2081432342529297, -0.27637535333633423, 0.11686457693576813, -0.12400408089160919, -0.02059963345527649, 0.03815879300236702, 0.04535893350839615, 0.13573701679706573, 0.07069049775600433, 0.13555537164211273, -0.15583117306232452, 0.20459841191768646, 0.10131894797086716, -0.06887846440076828, 0.22738218307495117, 0.011922115460038185, 0.18378371000289917, 0.03335234522819519, 0.1500692218542099, 0.028058400377631187, -0.05199017375707626, 0.22750818729400635, 0.020657937973737717, -0.3141641318798065, -0.06351513415575027, 0.1462964415550232, -0.21444381773471832, -0.14360935986042023, 0.0772356316447258, -0.35715222358703613, 0.04264860600233078, -0.10069004446268082, 0.3095981180667877, 0.05684376135468483, -0.07648894935846329, -0.09875800460577011, 0.16847357153892517, 0.02402425743639469, -0.04539870098233223, -0.03878408297896385, 0.25954699516296387, -0.14113877713680267, -0.07765701413154602, 0.010021058842539787, -0.2090483009815216, -0.47008049488067627, 0.2475813776254654, 0.016969693824648857, -0.14443880319595337, -0.47600457072257996, -0.23117613792419434, 0.06913505494594574, 0.07080230861902237, 0.005294593051075935, -0.07552160322666168, 0.11949675530195236, -0.12325495481491089, 0.029789503663778305, 0.07406763732433319, -0.2651461660861969, 0.14701154828071594, 0.21853861212730408, 0.09024617075920105, 0.11232893913984299, 0.02016911655664444, 0.16377267241477966, -0.05607132241129875, 0.18668128550052643, -0.12064051628112793, 0.37880879640579224, 0.27772387862205505, 0.06006981059908867, 0.24084508419036865, -0.037822265177965164, -0.0934344157576561, 0.037488993257284164, 0.01709435135126114, -0.02518930844962597, 0.10287905484437943, 0.09535566717386246, 0.1812112033367157, 0.004869980737566948, 0.2712404429912567, -0.1320371776819229, -0.24853484332561493, -0.07958585768938065, 0.02570614032447338, 0.13041932880878448, 0.07469122111797333, 0.1468002200126648, 0.3055836260318756, -0.10524959117174149, 0.023781070485711098, 0.09841005504131317, -0.038740504533052444, 0.07459232956171036, 0.026809055358171463, -0.13280390202999115, 0.106477290391922, -0.07874516397714615, -0.07980342209339142, -0.17694337666034698, 0.17350740730762482, -0.08958351612091064, -0.24106036126613617, -0.12750501930713654, 0.25034669041633606, -0.16020667552947998, 0.04682992398738861, -0.141628697514534, -0.26435068249702454, -0.003061347408220172, -0.05866191163659096, 0.13017095625400543, -0.03780346363782883, -0.08256632089614868, -0.054108910262584686, 0.024957699701189995, -0.08496053516864777, 0.18554124236106873, 0.11809272319078445, -0.013504420407116413, 0.2209249883890152, 0.04802727699279785, 0.37562114000320435, 0.19146758317947388, -0.17981374263763428, 0.12998291850090027, -0.016414577141404152, -0.09296557307243347, 0.08954309672117233, 0.0010497748153284192, -0.10040760040283203, 0.026653068140149117, -0.0278150774538517, 0.07900398224592209, 0.18559442460536957, -0.003698410000652075, -0.07891111820936203, -0.05776084214448929, 0.14521938562393188, 0.0904000774025917, 0.04112713783979416, -0.1912447214126587, -0.03641870990395546, 0.09661100804805756, 0.04539033770561218, -0.05756070837378502, 0.12357397377490997, 0.060638394206762314, 0.1152745932340622, 0.2563399374485016, 0.09389042854309082, 0.24251581728458405, -0.08218760043382645, -0.18172687292099, 0.19351860880851746, -0.18416868150234222, 0.06315375119447708, 0.3798544108867645, 0.025186441838741302, -0.3081396222114563, -0.009557380340993404, 0.08554062247276306, -0.08479776233434677, 0.10307259857654572, 0.10331862419843674, 0.3142983019351959, -0.1074245348572731, -0.10649345070123672, 0.027199095115065575, 0.26981469988822937, 0.06876810640096664, -0.0330674909055233, -0.0895332545042038, 0.010190791450440884, 0.18151913583278656, 0.10146006941795349, 0.06953690201044083, 0.038856472820043564, -0.24350333213806152, 0.2046879678964615, 0.09895698726177216, -0.015234827063977718, -0.17845630645751953, 0.05310329794883728, -0.10206916928291321, 0.24796272814273834, -0.19321732223033905, 0.01365884393453598, -0.017228854820132256, -0.49466395378112793, -0.21443238854408264, 0.024742688983678818, -0.004197992850095034, 0.3327280580997467, -0.10226638615131378, 0.18202732503414154, -0.09531348943710327, 0.01713344268500805, 0.5665929913520813, -0.1977258324623108, -0.5421844124794006, 0.11298716068267822, 0.0652322843670845, 0.22885188460350037, 0.0743827298283577, 0.33135923743247986, -0.16764606535434723, 0.029118891805410385, -0.13756033778190613, 0.22537676990032196, -0.34213894605636597, 0.06502366065979004, 0.43027907609939575, -0.150458425283432, -0.09261586517095566, -0.058334264904260635, 0.022361652925610542, -0.22221681475639343, 0.16552627086639404, -0.06092222407460213, 0.18051789700984955, 0.057022083550691605, 0.0724157840013504, 0.17243440449237823, 0.06309151649475098, -0.11612168699502945, -0.03241181746125221, -0.021316157653927803, 0.03511643037199974, 0.14320087432861328, -0.181312695145607, -0.1611752212047577, 0.009435589425265789, -0.06634120643138885, 0.2611618936061859, -0.3435671925544739, 0.01407984085381031, -0.26887744665145874, 0.19624577462673187, 0.3331654667854309, -0.016246579587459564, -0.04085414111614227, 0.015268448740243912, 0.0020286727230995893, 0.14853888750076294, 0.20735491812229156, -0.016695834696292877, 0.2935480773448944, -0.22687599062919617, -0.19708368182182312, 0.21935075521469116, -0.09230116009712219, -0.024445900693535805, 0.014582161791622639, 0.15929779410362244, 0.17104271054267883, -0.23191742599010468, -0.15850910544395447, -0.21773211658000946, -0.023551249876618385, -0.16658811271190643, 0.2108042985200882, 0.520880937576294, -0.2281152307987213, -0.16045674681663513, 0.11242600530385971, 0.21318365633487701, -0.33510392904281616, 0.0938696414232254, 0.09938540309667587, 0.17591018974781036, 0.29087257385253906, 0.06388162821531296, 0.11543379724025726, -0.14927023649215698, 0.03603179007768631, -0.10735304653644562, 0.27573439478874207, 0.04862204194068909, 0.461893767118454, 0.1515974998474121, 0.2356330007314682, 0.20756663382053375, -0.2350788712501526, -0.7529029846191406, -0.10965174436569214, 0.32876935601234436, 0.39939039945602417, -0.08331082761287689, 0.08375433087348938, 0.21329830586910248, -0.08601517975330353, -0.28132450580596924, -0.3428415060043335, -0.07739872485399246, -0.00975813064724207, -0.06038842722773552, -0.013988535851240158, 0.08252201229333878, -0.07269802689552307, -0.16716830432415009, 0.16215208172798157, -0.0875917375087738, -0.06193167716264725, -0.02283194474875927, 0.03047071024775505, 0.15388546884059906, 0.15026035904884338, -0.1764712631702423, 0.15149614214897156, -0.2974095046520233, -0.20727525651454926, 0.06272971630096436, -0.023235850036144257, -0.11597632616758347, 0.2266717553138733, -0.19215719401836395, 0.0096092838793993, -0.48973068594932556, 0.10527650266885757, 0.05324931815266609, 0.2531857192516327, 0.10814494639635086, 0.20045088231563568, -0.3046305775642395, -0.02651977725327015, 0.2342730462551117, -0.14544633030891418, -0.24662527441978455, 0.20871496200561523, 0.009802848100662231, 0.47274085879325867, 0.4837890863418579, 0.3124658167362213, -0.018338197842240334, -0.1124507412314415, 0.37588611245155334, 0.13782772421836853, -0.24728494882583618, 0.04883745685219765, 0.4659590721130371, 0.1756836473941803, 0.1467844694852829, 0.5954950451850891, -0.09675020724534988, 0.056374020874500275, 0.05902612954378128, 0.03745824843645096, -0.32982325553894043, -0.07042520493268967, 0.00622833427041769, 0.2803342044353485, -0.19354267418384552, 0.17321015894412994, -0.2899891138076782, -0.031751859933137894, -0.06982125341892242, -0.6993588209152222, 0.21255721151828766, 0.03032480925321579, 0.09135209769010544, 0.14383956789970398, 0.33888620138168335, -0.38883987069129944, 0.018476881086826324, -0.19465555250644684, -0.08322959393262863, 0.31421154737472534, 0.017950834706425667, -0.12110487371683121, -0.2199769765138626, 0.32673242688179016, 0.33964911103248596, -0.13984183967113495, -0.45317670702934265, -0.28001272678375244, 0.0949312150478363, 0.27094167470932007, -0.12895521521568298, 0.07899759709835052, 0.08439317345619202, -0.27035295963287354, -0.23274430632591248, -0.20624959468841553, -0.03599333018064499, 0.07777810841798782, -0.0410529300570488, 0.37250664830207825, -0.4398675560951233, 0.20298263430595398, -0.01669846847653389, -0.401186466217041, -0.5962418913841248, 0.3927541971206665, 0.07441592961549759, 0.30537787079811096, -0.09919710457324982, 0.3634728491306305, -0.08455977588891983, 0.21835772693157196, -0.23076120018959045, -0.04152887314558029, -0.048593971878290176, -0.1092335432767868, 0.04866434633731842, 0.11451798677444458, 0.05922991409897804, -0.052956704050302505, 0.5533167719841003, -0.1583431512117386, -0.10959522426128387, -0.309219628572464, -0.39465540647506714, -0.2510945498943329, 0.16083569824695587, 0.1458689123392105, 0.17675872147083282, -0.06692268699407578, 0.4732556641101837, 0.2229333072900772, -0.3057621419429779, -0.38800349831581116, 0.15647807717323303, -0.14739207923412323, -0.08025379478931427, 0.21938146650791168, 0.5162839293479919, -0.31725507974624634, -0.11330663412809372, 0.32471248507499695, -0.04412925988435745, -0.7185484170913696, -0.1681929975748062, -0.039161570370197296, -0.06690117716789246, -0.1857941448688507, 0.01674872450530529, -0.20429310202598572, -0.5205448269844055, 0.19334520399570465, 0.442397803068161, -0.19588397443294525, 0.42158254981040955, 0.08079580217599869, -0.15411730110645294, -0.04004888981580734, 0.06946777552366257, 0.08543434739112854, 0.022245517000555992, 0.0354156419634819, 0.03559330105781555, 0.3394833207130432, -0.47163885831832886, -0.05379891395568848, 0.1869160234928131, -0.7254535555839539, -0.39647209644317627, 0.5014800429344177, 0.2179000973701477, -0.40389642119407654, -0.4477770924568176, 0.4771648943424225, 0.11255735158920288, -0.5252948999404907, -0.09709040820598602, -0.3894883990287781, -0.04227806627750397, 0.20334157347679138, 0.25881513953208923, -0.32624098658561707, -0.2757929563522339, 0.3493923842906952, -0.15814915299415588, -0.2868072986602783, 0.3519101142883301, -0.014252999797463417, 0.2550489604473114, -0.2552342712879181, 0.15112459659576416, -0.04762505739927292, 0.5317708253860474, -0.17735669016838074, -0.05342680588364601, 0.2700020372867584, -0.08452417701482773, 0.03986779600381851, -0.0019391396781429648, -0.2887495756149292, -0.2934756278991699, 0.028401318937540054, 0.18436592817306519, -0.5152209401130676, -0.2364807426929474, -0.08487807214260101, 0.17713713645935059, 0.003604684956371784, -0.228190079331398, 0.1348271369934082, -0.2623395025730133, 0.07189998775720596, 0.4776172339916229, 0.07057566195726395, -0.20867612957954407, 0.2615591883659363, 0.1265818327665329, 0.32449209690093994, -0.17055873572826385, -0.13746659457683563, -0.5761593580245972, -0.09197109937667847, -0.1358596682548523, 0.07607074826955795, 0.07053900510072708, 0.05950850248336792, 0.2680312693119049, 0.17178697884082794, 0.0046533034183084965, -0.44963517785072327, 0.027835417538881302, -0.011688749305903912, -0.3531021773815155, -0.23928195238113403, 0.256388396024704, -0.22056148946285248, -0.13082295656204224, -0.2192637175321579, 0.2984054386615753, -0.21862512826919556, -0.048170268535614014, 0.16801756620407104, -0.2849198579788208, 0.21770869195461273, 0.08099978417158127, -0.438117653131485, 0.09044147282838821, 0.004206719808280468, 0.1275934875011444, -0.18084247410297394, 0.09039449691772461, -0.09148828685283661, 0.08221807330846786, 0.05885057523846626, 0.3786170184612274, 0.06745675951242447, -0.12382636964321136, -0.1076355129480362, 0.1633027344942093, -0.20291836559772491, -0.14182285964488983, -0.16092215478420258, -0.22969627380371094, -0.12904863059520721, -0.07003852725028992, -0.012317745946347713, 0.08756657689809799, -0.11979331076145172, -0.32005882263183594, 0.19754630327224731, 0.018002258613705635, 0.210226908326149, -0.5355124473571777, -0.06533852964639664, -0.265263170003891, 0.07527034729719162, 0.10897638648748398, -0.4507903456687927, -0.03704541549086571, 0.35940292477607727, 0.0851970687508583, -0.7287196516990662, 0.9265876412391663, -0.6740537881851196, 0.08816084265708923, -0.5968757271766663, 0.3573261499404907, -0.023644063621759415, 0.5676302909851074, -0.4918502867221832, 0.2504937946796417, 0.3711671233177185, 0.3418923318386078, 0.3214142918586731, -0.09667499363422394, 0.05062262713909149, 0.05223593860864639, 0.6536036729812622, 0.4975429177284241, -0.16585588455200195, 0.0021545696072280407, 0.07071186602115631, 0.2732769846916199, -0.008200494572520256, -0.5122621655464172, 0.443415105342865, -0.07623352110385895, 0.07645698636770248, 0.053972627967596054, 0.1539420336484909, 0.1311892867088318, 0.07394269853830338, 0.15894471108913422, -0.24507935345172882, 0.6148583889007568, 0.48538148403167725, 0.01730361208319664, -0.12337374687194824, 0.0741901770234108, -0.18226253986358643, -0.032842621207237244, -0.5919885635375977, -0.05882484093308449, 0.012397168204188347, -0.3993358016014099, -0.2673255205154419, 0.2024223506450653, -0.3084864914417267, -0.26908931136131287, 0.24012622237205505, 0.29625168442726135, 0.21474342048168182, -0.12490583211183548, -0.13932503759860992, -0.23767420649528503, 0.45161259174346924, 0.2374250292778015, -0.6828355193138123, -0.09929302334785461, 0.15744273364543915, -0.07326254993677139, -0.11554834246635437, -0.27732768654823303, 0.28190940618515015, 0.23499225080013275, 0.2110869437456131, -0.006850854959338903, -0.04890241473913193, 0.14292003214359283, -0.10011523216962814, 0.2788754105567932, 0.10365027189254761, -0.03329268842935562, 0.13362079858779907, -0.1462194323539734, -0.22824536263942719, -0.5617566108703613, -0.018689490854740143, -0.06350038945674896, -0.1429482102394104, 0.19061414897441864, 0.06114179268479347, 0.19232997298240662, 0.4038628041744232, -0.01649850234389305, 0.44882240891456604, -0.1792636513710022, -0.2919940650463104, -0.14369723200798035, -0.6803295612335205, -0.29508131742477417, 0.05369690805673599, 0.41583478450775146, -0.4207058548927307, 0.09749799966812134, 0.14291629195213318, -0.08603490889072418, -0.15017564594745636, -0.1504368782043457, -0.29038798809051514, 0.2134050726890564, -0.1117720976471901, 0.3485548794269562, -0.43474677205085754, 0.27062687277793884, -0.05581502616405487, -0.014325276017189026, 0.24226555228233337, -0.34294986724853516, -0.1231941282749176, 0.12738393247127533, -0.18183833360671997, -0.23756791651248932, -0.29065531492233276, 0.14926020801067352, -0.295953631401062, -0.18917840719223022, 0.1097390353679657, 0.15728895366191864, 0.2220565229654312, -0.5423499941825867, 0.25066789984703064, -0.13115082681179047, 0.31206998229026794, 0.26854076981544495, -0.15667006373405457, -0.03381815552711487, 0.02568073943257332, -0.038617316633462906, -0.04331648349761963, -0.01664644479751587, -0.0675654411315918, 0.1330706626176834, -0.013912727124989033, -0.10710803419351578, -0.04794584587216377, 0.024051690474152565, 0.08329339325428009, 0.028206875547766685, 0.22603951394557953, 0.04938254877924919, -0.17429134249687195, 0.06560686230659485, -0.23663687705993652, -0.07980894297361374, 0.029569031670689583, 0.03482239320874214, -0.25345563888549805, -0.19746437668800354, 0.20540422201156616, -0.17425477504730225, 0.15743769705295563, -0.25178587436676025, 0.16605448722839355, -0.02454448863863945, 0.1513262540102005, 0.10552598536014557, -0.024591736495494843, 0.011680926196277142, 0.43326276540756226, -0.05705619975924492, -0.1638053059577942, 0.16686303913593292, -0.12089737504720688, -0.10561250150203705, 0.03783077746629715, 0.13971500098705292, 0.2827855348587036, -0.09899688512086868, 0.03079431690275669, -0.04396501183509827, -0.004480288363993168, -0.012225664220750332, 0.046070002019405365, 0.06878858804702759, 0.044866565614938736, 0.18277715146541595, -0.031614165753126144, -0.19408972561359406, -0.09320101886987686, -0.12299919873476028, -0.13441157341003418, 0.07345522940158844, -0.2575753331184387, -0.24876675009727478, -0.03855155408382416, -0.1762816309928894, 0.14046064019203186, -0.029644988477230072, 0.18464000523090363, -0.13208703696727753, 0.04228582978248596, 0.08752944320440292, -0.09250801801681519, -0.25610360503196716, -0.14973010122776031, -0.19255658984184265, -0.0570402517914772, -0.053531527519226074, 0.4407302439212799, 0.07620210945606232, 0.24033452570438385, 0.3427661657333374, 0.28952574729919434, -0.24848005175590515, 0.10688348859548569, 0.2856561541557312, -0.030055010691285133, -0.03744559735059738, 0.35379064083099365, 0.37393173575401306, -0.1125616654753685, 0.05676236003637314, 0.08666771650314331, 0.17385558784008026, -0.035732757300138474, -0.13586704432964325, 0.012803442776203156, 0.014616765081882477, 0.18179872632026672, 0.07215192168951035, -0.0678764134645462, -0.23104114830493927, 0.3206624388694763, 0.24213506281375885, -0.06302923709154129, -0.08342812210321426, 0.0011581920552998781, -0.020928161218762398, 0.026182958856225014, -0.36948448419570923, 0.3445636034011841, 0.0902000218629837, -0.00416401494294405, -0.08213309198617935, 0.11392489820718765, -0.37059086561203003, -0.291012167930603, 0.13687783479690552, -0.3289567828178406, -0.3841393291950226, 0.08021470159292221, 0.33397790789604187, -0.13005484640598297, -0.25232070684432983, 0.09060321748256683, 0.06617968529462814, -0.19622722268104553, -0.3138601779937744, 0.13034428656101227, -0.2193775475025177, -0.08007734268903732, -0.13677771389484406, 0.2703717350959778, -0.008540046401321888, -0.0903511792421341, -0.08418704569339752, -0.3233310580253601, 0.11042831838130951, 0.1025032177567482, 0.06057922542095184, -0.20299383997917175, 0.1633046269416809, 0.12826938927173615, 0.1308172345161438, -0.19893278181552887, 0.3142624795436859, 0.032706309109926224, 0.03646303340792656, -0.37312617897987366, 0.16198895871639252, 0.2278129756450653, -0.16256491839885712, -0.1407666802406311, 0.19398349523544312, -0.3329715132713318, 0.5556434392929077, -0.15347892045974731, 0.25465765595436096, -0.46513837575912476, 0.10298755764961243, -0.0065134321339428425, -0.15144021809101105, 0.3177259862422943, 0.31157419085502625, -0.05832185223698616, 0.09917570650577545, 0.22538216412067413, -0.18044860661029816, -0.03707445412874222, 0.18386808037757874, -0.06707259267568588, -0.04734855890274048, -0.20560306310653687, 0.2508528232574463, 0.3447021245956421, -0.11129669845104218, -0.15483352541923523, -0.0733071118593216, 0.06576912105083466, -0.0971665233373642, -0.22310158610343933, 0.47124573588371277, -0.12356392294168472, -0.4984779953956604, 0.07464554160833359, 0.21239154040813446, -0.5811654329299927, -0.05615191161632538, 0.07441771775484085, -0.3240838646888733, -0.044270481914281845, -0.17389152944087982, 0.2640203535556793, -0.14927832782268524, 0.4198318421840668, -0.02483878843486309, -0.32700878381729126, -0.10331550985574722, 0.4791635274887085, 0.1209653988480568, -0.04146069288253784, 0.48924705386161804, 0.035718031227588654, 0.29267996549606323, -0.048757005482912064, 0.22025273740291595, 0.4305972456932068, 0.2750477194786072, -0.344012588262558, -0.22574172914028168, 0.12654028832912445, -0.36317679286003113, 0.2961488962173462, 0.06453052163124084, -0.2513457238674164, -0.33276620507240295, 0.26635682582855225, 0.3072897791862488, 0.05467747151851654, -0.2588844895362854, 0.25310754776000977, -0.2710078954696655, 0.07102274149656296, -0.08322171866893768, 0.0360586978495121, -0.039972368627786636, 0.12402347475290298, 0.16222001612186432, -0.30244797468185425, 0.07624994963407516, 0.029535681009292603, 0.19048148393630981, -0.3194103240966797, 0.2824094891548157, -0.17085887491703033, 0.16217856109142303, 0.036114443093538284, -0.26209917664527893, -0.17793215811252594, 0.3377700448036194, -0.49576252698898315, -0.042615290731191635, 0.2046336680650711, 0.034416768699884415, 0.06459210067987442, 0.00956975668668747, -0.4167354702949524, -0.2207992970943451, 0.4010463356971741, 0.19360369443893433, -0.1185913234949112, -0.044624608010053635, 0.1404079794883728, -0.057665370404720306, 0.27351298928260803, -0.3387410044670105, -0.37063005566596985, -0.2654014527797699, 0.25322452187538147, 0.18660229444503784, -0.15903711318969727, 0.0977831706404686, -0.03878495842218399, 0.0389079749584198, 0.092281274497509, 0.11322766542434692, -0.28593555092811584, 0.0057905265130102634, -0.35060805082321167, -0.057282641530036926, 0.036423079669475555, 0.0985792949795723, 0.26627472043037415, -0.16990803182125092, 0.17289912700653076, -0.24585267901420593, 0.0945625975728035, 0.045946910977363586, 0.17070966958999634, -0.37212902307510376, 0.2846464216709137, 0.07913105934858322, 0.253420352935791, -0.13887391984462738, 0.13367244601249695, -0.20640289783477783, 0.024526622146368027, -0.08853670209646225, 0.09508811682462692, -0.07187532633543015, 0.23257537186145782, 0.379030704498291, -0.3649444282054901, -0.5195755958557129, 0.22367119789123535, 0.10590717196464539, -0.7847726345062256, 0.0698334351181984, 0.315556138753891, -0.16092467308044434, 0.304972380399704, -0.08776438981294632, -0.025799347087740898, 0.15205073356628418, 0.2915133535861969, 0.3029782176017761, 0.5929279327392578, -0.3645956814289093, 0.28408920764923096, -0.0580681674182415, -0.007161614019423723, -0.24845188856124878, 0.7782576084136963, 0.13383984565734863, -0.382296621799469, -0.008260213769972324, 0.40023472905158997, 0.08336576819419861, -0.253698468208313, -0.12278112024068832, 0.4233091175556183, -0.07654088735580444, -0.022102728486061096, 0.5479163527488708, -0.03620243817567825, -0.4009196162223816, 0.2510325312614441, -0.0503803975880146, 0.14562325179576874, -0.23764380812644958, 0.0854097381234169, 0.17855562269687653, 0.08562344312667847, -0.5101081728935242, 0.0900966227054596, 0.2217164933681488, 0.2223902940750122, 0.22105206549167633, 0.4822162389755249, -0.5526973009109497, 0.15471217036247253, -0.028523189947009087, -0.45640793442726135, -0.270053505897522, 0.22096458077430725, -0.0496295802295208, -0.02295825444161892, -0.4552669823169708, 0.06843649595975876, 0.06462287157773972, 0.10767104476690292, -0.24898415803909302, 0.00633990578353405, -0.4653611481189728, -0.030478697270154953, -0.26131075620651245, -0.04580433666706085, -0.2705095410346985, 0.14795167744159698, 0.4100196957588196, -0.15930910408496857, 0.061486802995204926, -0.18834613263607025, -0.05614509806036949, 0.015362575650215149, -0.3216463625431061, 0.23063161969184875, 0.6485452651977539, -0.37586554884910583, 0.5606955289840698, -0.12692508101463318, -0.39008042216300964, -0.438972532749176, -0.3656252324581146, -0.0049463482573628426, -0.09278759360313416, -0.040685392916202545, 0.02226700447499752, 0.35103052854537964, 0.1190984919667244, 0.3610508441925049, 0.19025805592536926, 0.11040002852678299, -0.23015156388282776, -0.16454514861106873, -0.3812258839607239, 0.20629751682281494, 0.20158596336841583, -0.2274494618177414, -0.42550182342529297, 0.2185220867395401, 0.3897198438644409, -0.16327756643295288, -0.29666152596473694, -0.3164117932319641, -0.32709363102912903, -0.3389624059200287, 0.34366363286972046, 0.3058873116970062, 0.053329262882471085, -0.1952655017375946, 0.18821930885314941, 0.1695835441350937, -0.3412661850452423, -0.46009933948516846, 0.18672683835029602, -0.18293367326259613, -0.42372116446495056, 0.14313434064388275, 0.35949257016181946, -0.16695040464401245, -0.25405120849609375, 0.36013081669807434, 0.09026490151882172, -0.09069159626960754, -0.09498293697834015, -0.11070417612791061, -0.23028281331062317, 0.4009975790977478, 0.15155047178268433, -0.26767048239707947, -0.4120568335056305, 0.04087338224053383, 0.020958106964826584, -0.043208975344896317, -0.06934661418199539, -0.04861876741051674, -0.04113750159740448, -0.04354250803589821, -0.30811893939971924, -0.004092830698937178, -0.11245737969875336, 0.2033005803823471, -0.16581404209136963, 0.22255343198776245, -0.2042577713727951, -0.03494220972061157, 0.015411409549415112, -0.3883519768714905, -0.265652596950531, 0.3112720549106598, -0.01070158090442419, 0.042943768203258514, 0.04503878206014633, 0.3370368778705597, -0.19796958565711975, 0.04485364630818367, -0.31360766291618347, -0.017610663548111916, -0.21004776656627655, 0.35425448417663574, 0.2433876097202301, -0.29225918650627136, -0.4163169264793396, 0.23381151258945465, -0.0429280586540699, -0.23796974122524261, -0.015089549124240875, -0.2137276828289032, -0.009341703727841377, -0.343916118144989, -0.10247461497783661, 0.10601414740085602, 0.014000383205711842, 0.3178187906742096, 0.3157280683517456, 0.36570894718170166, -0.2545154392719269, -0.2113814651966095, 0.13667787611484528, -0.43499457836151123, -0.21051408350467682, 0.208468496799469, 0.03198637068271637, -0.2808886468410492, -0.27283957600593567, 0.35322049260139465, 0.1473200023174286, -0.6124927401542664, -0.02554508112370968, 0.4065803289413452, -0.014557050541043282, -0.002383808372542262, 0.08182744681835175, -0.4691685140132904, -0.6686776876449585, -0.23511923849582672, -0.010036718100309372, -0.48969951272010803, 0.3605859577655792, 0.2954515218734741, 0.16266083717346191, -0.11145427823066711, -0.07325909286737442, 0.033757202327251434, 0.40232864022254944, 0.4592769145965576, 0.10888820141553879, 0.7065661549568176, -0.1496111899614334, 0.24889729917049408, 0.4251021146774292, -0.13148806989192963, -0.3052492141723633, 0.37056368589401245, 0.20989932119846344, -0.06475981324911118, -0.36097416281700134, -0.15067408978939056, 0.14608991146087646, -0.27483776211738586, 0.022103270515799522, 0.35111504793167114};
#endif

#endif
