//Numpy array shape (32, 128)
//Min -0.290194660425
//Max 0.317611545324
//Number of zeros 0

#ifndef LSTM2_H_
#define LSTM2_H_

#ifndef __SYNTHESIS__
model_default_t lstm2[4096];
#else
model_default_t lstm2[4096] = {0.034912497, 0.13785103, 0.03462852, 0.049900994, 0.018304234, -0.052122224, 0.0074869497, -0.1696487, -0.07682017, -0.04235853, -0.0055140653, -0.00083408086, -0.14416364, -0.06374539, 0.004586614, 0.0105018085, -0.070953466, 0.05073181, 0.050814375, -0.06710402, 0.064983666, -0.08202214, -0.1476547, -0.013381728, -0.06205495, -0.14104241, 0.06725399, -0.090962544, 0.10231008, -0.026813628, -0.07560189, 0.0068861498, -0.10113314, -0.04672742, 0.10926431, -0.03805386, -0.0062054084, 0.14103678, -0.070869714, 0.059096854, 0.020871902, 0.07285099, -0.067142166, 0.12025847, 0.15038025, 0.0036299482, -0.016820673, -0.0875731, -0.06929356, -0.10211566, 0.13028313, -0.07517385, -0.02101824, -0.0015438828, -0.18252929, -0.19355965, -0.04570757, 0.09018523, -0.14542937, -0.037960593, 0.060521152, -0.032634206, 0.040918622, 0.22389713, 0.10135267, 0.044485603, 0.039996713, 0.046012323, 0.020052299, 0.04172616, -0.00013518188, 0.077461936, -0.0906131, 0.005917182, 0.19732927, -0.0056129326, 0.021166837, -0.0706133, 0.04985104, 0.1419675, 0.016944248, -0.118183576, -0.12128601, -0.02999741, -0.17995022, 0.15893163, 0.08883314, -0.073290445, -0.14720963, 0.01588608, 0.1778135, 0.008519404, -0.041016143, -0.034121413, 0.0027094884, -0.006208231, -0.1386206, -0.0012378966, -0.04778574, -0.026633918, -0.14237694, 0.08438055, -0.010416568, 0.031222453, 0.0040047695, 0.043584473, 0.024555376, -0.11642575, 0.06967981, 0.11356846, 0.043491215, -0.008102351, -0.054141324, 0.08589947, 0.096218534, -0.101772964, -0.10645639, 0.1582985, 0.016036343, 0.066022694, 0.007162355, -0.09069291, 0.09854291, 0.10415714, 0.02738745, 0.05150162, 0.03378925, -0.24261741, -0.11976545, 0.15826754, -0.007896732, -0.06047259, 0.07996957, -0.074341886, -0.15507504, -0.032729406, -0.043942574, -0.04186884, -0.10232995, -0.15626496, -0.019613216, 0.17499752, 0.045835156, 0.14234702, -0.029156143, 0.052372694, -0.04180057, 0.032908168, -0.10863009, 0.18668132, -0.053092323, -0.099940225, 0.07078533, 0.0155808525, 0.1369759, 0.0978777, -0.09310712, -0.15393953, -0.074139886, 0.07846033, -0.001904755, 0.1636222, -0.0042453087, 0.07649234, -0.033658147, -0.029555092, -0.11368306, 0.15131469, -0.022917565, 0.08970374, 0.027594203, -0.051844157, -0.1228203, 0.09999844, -0.094176844, -0.13301043, -0.07342635, -0.11235604, -0.05325347, -0.011121748, 0.036177594, 0.05747538, -0.025108865, 0.09704927, 0.13299136, -0.07555728, -0.12886035, 0.07311205, -0.0014414956, -0.12945355, 0.07414833, 0.0064011803, -0.05327519, 0.10202916, 0.042046756, 0.030873712, -0.08709746, -0.11082806, 0.0914225, -0.07010456, -0.03026486, -0.003928405, -0.036950015, 0.08220275, 0.03281176, -0.028803477, 0.25272742, -0.020764727, 0.030341541, 0.10347974, -0.04435022, -0.13893715, 0.101598196, 0.062251914, 0.09574354, -0.02660379, 0.08878956, -0.088428, 0.038694926, 0.1084179, -0.017507607, 0.04594258, 0.08684818, -0.017703747, 0.029978646, 0.049669687, 0.005755613, 0.047562446, 0.07826228, -0.078679465, -0.11637082, 0.06598302, 0.13386187, -0.043554414, -0.010744747, 0.13003409, 0.08864048, -0.08757277, 0.20203045, 0.054269046, 0.019710137, 0.053514976, 0.013475948, 0.008144759, 0.014109214, 0.10423444, 0.06334445, -0.05852517, 0.00031026226, -0.03638548, -0.06255681, 0.071067, 0.15202636, 0.12607266, 0.15031484, 0.006209853, -0.078449294, -0.06924857, 0.09071486, -0.02466658, 0.02549758, -0.09649649, 0.052938297, -0.057422828, 0.017260792, 0.13559711, -0.0052353158, 0.09954173, 0.04682506, -0.047670905, 0.014536222, -0.08713046, 0.14905302, 0.06696214, 0.061510283, -0.038693238, 0.024574654, -0.024728615, 0.03853226, 0.08208041, -0.15812777, 0.06720729, 0.0094105685, -0.09071176, 0.06897195, -0.0010359812, -0.22981076, 0.014417031, -0.079224266, 0.00039738763, 0.03400261, -0.0035148726, 0.15428978, -0.07937468, -0.098486826, -0.18028969, -0.14517514, 0.010367928, 0.2540908, 0.1304701, -0.01287762, 0.049615037, 0.15575816, -0.030336533, 0.037614435, 0.11098376, 0.07195913, 0.07614554, 0.20431828, 0.011794986, -0.04658217, -0.10911135, 0.012112584, -0.1795754, 0.0285473, -0.11963564, -0.0046326234, -0.087155946, -0.020908933, -0.070782654, 0.04855983, 0.10392865, 0.11667026, 0.026001364, -0.036009513, -0.009327127, 0.050574634, -0.082788534, 0.02598553, 0.011579839, -0.13924171, 0.06931103, 0.03489212, -0.027492149, -0.083622925, 0.031339776, 0.04810451, -0.106739044, -0.08224251, -0.014408209, 0.08141682, -0.044371292, 0.085385405, 0.07532445, 0.021437231, 0.008782735, -0.058870975, -0.038104307, -0.011545509, 0.06481293, 0.025428427, -0.073952414, -0.0887246, 0.08057523, -0.0031976013, -0.13445811, -7.120162e-05, -0.01943041, -0.22686474, 0.054554477, -0.011786929, 0.03747778, 0.08361923, -0.0037814993, -0.05288453, 0.052275, 0.10513, -0.10536218, 0.1976838, -0.084825546, 0.107512794, 0.07380357, 0.014127831, 0.1939922, -0.07118665, -0.07001872, -0.19964379, -0.056808684, -0.0960993, 0.09352676, 0.08260887, -0.013556908, -0.04389046, 0.029440489, -0.014151864, 0.07632848, 0.10790961, -0.039548855, -0.14204827, -0.102956764, 0.0827576, -0.07339723, -0.11373237, -0.17962353, 0.0038609484, 0.046290804, -0.0017976265, 0.015846869, -0.0056555727, 0.10517764, -0.023903616, -0.017410647, -0.046450976, -0.025268655, 0.007881774, -0.05499673, 0.16341701, -0.069984645, 0.025295865, 0.055227958, 0.08444806, 0.0050254785, 0.11277558, -0.09327846, -0.06553428, 0.007853737, 0.060148314, -0.03957295, 0.06160337, 0.011928323, 0.078754365, -0.019438343, -0.022764787, 0.12347996, -0.11474918, -0.007960491, 0.038307667, -0.11509883, -0.10936993, 0.007980372, 0.059319697, 0.06970685, 0.045664657, -0.07249863, 0.02071398, -0.20442352, 0.049146265, -0.18171892, -0.080074854, -0.06135631, 0.14139335, -0.10101233, -0.07215283, 0.013407234, 0.042478938, -0.059372883, -0.16316883, 0.108904496, 0.014923884, -0.061447967, 0.017491741, -0.08833436, -0.1317843, -0.11266492, -0.007514691, 0.106935576, -0.015804043, -0.034329876, -0.083326556, -0.04287731, -0.18152453, -0.048004165, 0.020846875, -0.038899194, -0.005469782, 0.032372095, 0.102544345, 0.15500624, 0.01838064, -0.14413953, 0.07472682, 0.19743747, -0.13550584, 0.013105395, -0.0014402661, -0.028793186, -0.22123116, -0.048437785, -0.09568312, -0.05409944, -0.07435278, -0.17523928, 0.07615974, 0.03151322, 0.04875429, -0.010896187, -0.014484002, -0.16825047, -0.109154195, -0.017825311, -0.13617328, -0.009436607, -0.084439576, -0.04495874, 0.03469465, 0.03688005, 0.00081753236, -0.08339189, -0.011465015, -0.03205422, 0.007647721, -0.1498294, -0.05835408, 0.018036582, 0.0040728054, 0.09741461, 0.015005902, 0.2046111, 0.03235256, -0.20548637, 0.11370251, -0.07367298, -0.07553953, 0.025247449, 0.035199642, -0.15390769, 0.0016936855, 0.004454613, 0.031199003, -0.044116292, -0.14572367, -0.048699263, 0.19640514, 0.10290904, -0.0016164627, 0.13636877, -0.12129522, 0.07670292, 0.049835384, 0.008893355, -0.19298552, 0.03697857, 0.21560588, -0.17246187, -0.07541001, 0.051469777, 0.066906504, 0.06330037, -0.13959435, 0.06721276, 0.096141085, -0.0983786, 0.0044219606, 0.12459085, -0.042885218, -0.079163074, -0.055013902, 0.024595493, 0.00715034, -0.020431653, -0.046261847, -0.10280656, -0.16351801, 0.0768832, 0.03141121, -0.115564026, -0.052007124, 0.13508901, -0.08963383, 0.04516233, -0.033858307, 0.11007064, 0.026949445, -0.08214658, -0.082075365, 0.043316074, -0.029083695, 0.020038497, -0.090724364, 0.04824046, -0.08466139, 0.042928863, 0.07354462, 0.029562198, -0.062289856, -0.02926155, 0.053741638, 0.08675281, 0.028766297, -0.032454863, -0.035041448, -0.11311457, -0.0037637467, -0.022430861, -0.0037857033, -0.18206087, 0.112615146, -0.1183442, 0.033153012, 0.11686952, 0.06723107, -0.16579653, -0.05589319, -0.029377533, -0.087928094, 0.0023381256, -0.038590252, -0.008828109, -0.07096134, -0.062053386, -0.0031490165, 0.013026743, 0.0075986832, 0.0659886, -0.18758447, 0.060100317, 0.0071659577, 0.0728485, 0.09271171, 0.29313698, 0.065932155, 0.045386937, -0.12155685, 0.08922909, -0.040858697, 0.077517554, 0.04380829, 0.085615985, -0.012390536, 0.02332268, 0.035896312, 0.09423404, 0.041429322, -0.023557998, -0.1127934, -0.15956542, -0.02207382, 0.07468711, -0.007329252, 0.025734121, -0.05358746, 0.19950186, 0.06547206, -0.02618227, -0.06355465, -0.042516347, -0.013069365, 0.03690572, -0.09344642, 0.16524948, 0.0908624, -0.05512027, -0.065530546, -0.14348102, 0.15146974, -0.06165213, 0.18641914, -0.081922196, 0.12366256, -0.012301524, -0.08454281, -0.03170653, -0.004095348, 0.07638219, 0.06274082, 0.0876819, -0.07895562, -0.03657707, 0.0016361411, 0.083332226, -0.06004138, -0.06036577, 0.010190541, 0.004031292, 0.11414065, 0.09999403, 0.117595084, 0.044357877, -0.0063303104, -0.18681185, 0.16536984, 0.07045044, -0.12104961, -0.010640092, -0.019194327, -0.031453043, -0.056301497, 0.077362575, 0.108945675, 0.009153297, -0.016848188, 0.03485834, 0.08456878, -0.08799928, 0.04771453, 0.04113283, 0.0668929, 0.034428313, -0.012802655, 0.12993866, -0.06985894, 0.07337077, 0.034927405, 0.05719231, -0.13948792, 0.088576235, -0.04974588, 0.016110893, 0.11065681, 0.0040597715, -0.04792203, 0.032435834, -0.011243429, 0.14069603, 0.07863532, -0.00042049392, 0.026169224, -0.045867655, 0.14304006, -0.016801788, -0.08286038, 0.025444979, -0.023430256, 0.0522552, 0.08500777, 0.108860165, -0.16106954, -0.09130298, -0.13997324, -0.03538912, -0.19461823, -0.14240302, 0.06861815, -0.075749524, -0.00794784, -0.044008497, 0.011199645, 0.10386374, 0.18515843, -0.048434183, -0.010435558, 0.102404974, 0.013346213, 0.09026396, -0.027352456, -0.11771328, 0.05932583, 0.070640154, -0.19301374, 0.09662282, -0.09372307, 0.0525848, 0.0022611201, -0.031237993, 0.05652295, -0.18907835, 0.14846596, -0.11896644, -0.17320393, 0.012915998, -0.06072479, -0.119536884, -0.052691974, -0.019948913, 0.12388732, -0.05998971, 0.1307532, 0.09024374, -0.02941121, -0.031121057, 0.075581975, 0.030883197, -0.029794693, 0.1506778, 0.042798687, -0.019528136, 0.15303232, -0.006434363, -0.052990902, -0.029869499, 0.022536261, -0.09438413, -0.03065373, -0.068771124, -0.11314441, 0.13519847, 0.0057921046, -0.23735443, -0.050115686, -0.07390799, -0.06271202, 0.0077724233, 0.05110128, -0.15041153, -0.07355271, 0.064086586, -0.014806558, -0.0041537248, 0.13859764, 0.11716197, 0.1023488, 0.0017336478, 0.0036380566, 0.028191425, -0.08449079, -0.012056707, 0.06338417, 0.20799245, 0.027130237, -0.033249944, 0.0066709984, -0.031280838, 0.020082112, 0.09450671, -0.001722595, 0.04885538, -0.0647552, -0.057730254, 0.0297573, 0.065846376, 0.31761155, -0.08546032, 0.011828253, 0.07742922, 0.09359339, -0.027929433, -0.1193179, -0.141489, 0.00481237, 0.1060016, 0.069689356, 0.07967845, -0.048328333, -0.090281434, 0.05155611, -0.017926624, -0.06770496, 0.06491728, 0.012512776, 0.13734771, 0.010432772, -0.102160424, 0.0072987755, -0.12174759, -0.08217424, -0.12652782, -0.04526944, -0.052768648, -0.073879175, -0.031557422, -0.042095024, 0.19363594, -0.02502119, -0.0052852123, -0.041866776, 0.06856948, -0.058720637, 0.041888844, -0.16486208, -0.026241593, -0.0035173385, 0.03315946, -0.10965133, 0.11868282, 0.013156654, 0.007931423, -0.024736343, -0.05792605, 0.16048768, 0.086391516, 0.12221862, 0.13289586, -0.076595925, 0.106161974, -0.016228177, 0.10478097, -0.05604582, 0.026455425, 0.014956993, 0.10296088, 0.14019628, 0.04041551, 0.03556461, 0.0037100941, -0.11571575, 0.10341863, -0.050709214, 0.16283311, -0.068876155, 0.095388874, 0.16998966, -0.06102115, -0.062581204, -0.22317488, -0.07364081, -0.056684952, 0.049024343, 0.0015965948, 0.019770311, 0.008476067, -0.113248535, 0.06761173, 0.08319464, -0.0014628066, 0.050510418, 0.07261143, 0.19791847, 0.045907456, 0.11058447, -0.07419008, 0.001610919, 0.14440055, -0.0391807, 0.07047592, -0.06298115, 0.16777433, -0.032855164, 0.025664648, -0.15601613, -0.050288253, -0.03339092, 0.0068723233, 0.26908055, -0.09598731, 0.06997828, -0.011498755, -0.03804296, -0.06390836, -0.04942881, 0.06360294, 0.09333219, -0.055302493, -0.07029811, -0.060070504, -0.051956978, -0.045632053, -0.013047108, -0.007882894, 0.053786334, 0.13739641, 0.18900764, -0.024861231, 0.04217393, 0.05286476, -0.11373974, -0.04973276, -0.14260961, -0.011151288, 0.1263743, -0.19969791, 0.010744652, 0.09736401, -0.1589473, -0.029727006, 0.011710696, -0.06110374, 0.03784436, -0.034614332, 0.03496379, 0.06579933, -0.0467811, 0.15560855, -0.15615685, -0.035436787, -0.011817697, 0.044979654, -0.05958764, -0.03032979, -0.009754115, 0.031097453, 0.042684287, 0.011291158, -0.07206439, -0.0069171377, -0.008477066, -0.15145856, -0.03151581, 0.13677268, 0.07854457, -0.005168431, 0.22968812, 0.16585205, -0.053293414, 0.12788558, -0.17578496, 0.112604894, 0.007028376, -0.04128183, 0.08015469, 0.16487782, 0.07009033, -0.056179572, 0.19524635, 0.0015324473, 0.036509927, 0.073801205, 0.07839894, -0.005326314, 0.03475142, 0.0247872, 0.00901038, 0.009540617, 0.016926223, 0.003698638, 0.0011394004, -0.025943758, 0.08495935, -0.09862033, -0.013557497, 0.039995745, 0.01697421, 0.04211293, 0.00010949425, 0.036342848, 0.20659268, -0.0685945, -0.14143945, 0.014303005, 0.0005445175, 0.07471387, 0.016019547, -0.038108077, -0.085640535, -0.1383656, 0.0045771142, -0.099129364, -0.09045972, -0.05525819, -0.018760942, -0.020628864, -0.057096772, 0.003839202, 0.15044819, 0.0376169, 0.09321933, -0.11209498, -0.040043943, -0.08391059, -0.004535433, 0.047666773, 0.051614556, -0.015500735, 0.04611468, 0.122995235, 0.105162404, 0.08038648, 0.14337023, 0.060022365, 0.10095785, 0.039840978, 0.051746123, 0.03325029, -0.013032248, -0.13908969, -0.005740199, 0.0759369, 0.013514082, 0.07067046, -0.13399701, -0.031300828, 0.15168387, 0.070498645, -0.04070534, -0.012419916, -0.031227285, -0.11534504, 0.011347431, -0.19164279, -0.0029053262, -0.08169928, 0.12799357, -0.023557907, 0.07442097, -0.044339772, 0.0047310125, 0.11377867, -0.042010065, -0.15642008, -0.115311705, 0.21445404, -0.043762468, 0.058737416, -0.12873621, -0.1068117, -0.18066896, -0.05089548, -0.06540278, 0.09131692, -0.13635638, 0.05788727, -0.051520593, 0.024071278, -0.009447791, -0.025817834, -0.10505026, -0.08524727, -0.089679375, -0.05957516, -0.050570812, 0.03149578, 0.15536931, -0.0437869, -0.0078903735, -0.009392589, -0.14763355, -0.062320843, -0.07546779, -0.099563755, -0.12818581, -0.16752008, -0.07126484, 0.050031524, 0.21677668, 0.23799436, -0.07777312, -0.061870452, 0.08218631, 0.041120373, -0.029049845, -0.06384937, 0.039994355, -0.021113558, -0.012759905, 0.081510834, 0.07439414, -0.02391915, 0.10747538, -0.042423792, 0.032266535, 0.11759257, -0.083089404, -0.06402083, 0.1277981, -0.06226155, -0.01417655, -0.050557412, -0.018566439, -0.038381666, 0.015074688, -0.14534687, 0.06942582, 0.08655637, -0.041506782, 0.12926024, -0.07966273, -0.070438735, 0.017392099, 0.04037165, -0.12350539, -0.11985436, -0.044425625, 0.16482274, 0.06106386, -0.007364277, 0.024308886, 0.03206102, 0.08788667, -0.038592372, -0.12694326, 0.089322746, 0.02731871, -0.038316566, -0.1039554, -0.105210975, 0.08493632, 0.060707264, -0.0532652, -0.07409156, -0.00011604245, 0.08978544, 0.15189427, -0.032985266, -0.09116667, -0.0401155, -0.07254369, -0.0013164765, -0.06705548, -0.08512342, 0.08150243, 0.019970495, -0.018807719, -0.028577205, 0.06869075, -0.080335215, 0.115915306, -0.15629944, -0.06866873, -0.008276395, -0.011529672, 0.028068822, 0.08028919, -0.04825623, 0.1979735, -0.106739916, 0.07406726, -0.003987115, -0.016433293, 0.03485271, 0.014075325, 0.049524233, -0.062099293, -0.033514593, 0.07189158, 0.085878044, -0.09859717, -0.02081177, -0.0642354, 0.024678934, 0.0416867, 0.044085424, 0.14481454, 0.012696657, 0.092047445, 0.05474119, 0.09425386, 0.09580167, -0.066268094, 0.030170113, 0.02202598, -0.05073473, -0.08632385, 0.042794902, 0.0020167565, 0.023383876, -0.08356978, -0.01803735, -0.05562515, 0.098003216, 0.12844747, 0.09400011, 0.042146638, 0.02198545, 0.103247166, 0.015391159, -0.06167682, 0.047675055, 0.047583003, 0.10854754, -0.0023601332, 0.12118377, -0.06603563, 0.108224176, 0.1570372, -0.120641075, -0.003646655, 0.041102733, 0.060394064, 0.2207415, 0.019135343, 0.0046958574, -0.027480101, -0.12233879, 0.10065027, -0.08358315, -0.13348196, 0.0019875416, 0.2696328, -0.1373466, 0.09844157, -0.09029606, 0.08442549, 0.16654696, -0.01735342, -0.014495079, 0.047521546, 0.0542922, -0.0042791334, -0.2138673, 0.14657462, 0.123564035, 0.021589408, 0.0044636945, -0.02131878, 0.007873192, -0.0758258, -0.06893493, -0.14640847, 0.055263028, -0.040307608, 0.068291456, -0.06510974, 0.22135171, -0.03939797, 0.18843357, -0.14342201, -0.032542247, -0.12154487, -0.036884002, 0.047305875, -0.071885034, -0.056563962, -0.059074625, -0.13204886, -0.0032211156, 0.050213765, 0.016728548, 0.009028632, -0.09122127, -0.18928143, 0.0074529066, 0.0918449, 0.084407814, -0.036119636, 0.04321201, -0.1361195, -0.013569638, -0.13339306, 0.029004505, -0.06882183, 0.09876757, 0.074957415, 0.14635773, 0.094093286, 0.03445722, -0.06375529, -0.15774345, 0.0051404024, -0.14619197, -0.013686555, -0.07893123, 0.058678016, -0.21397139, 0.18624364, -0.10386598, 0.04899339, 0.0979136, -0.017751044, 0.15222125, 0.12106643, -0.06827991, 0.0010057627, 0.085065335, -0.0495647, 0.08210931, -0.040422432, 0.097698085, -0.107855715, -0.043083277, -0.009059097, -0.00096338, 0.051675633, 0.13335633, -0.090628654, 0.10893924, -0.057970025, -0.1395334, -0.063680045, -0.044514667, -0.13368668, -0.012310704, -0.053501543, -0.028020337, 0.053833097, 0.052086428, 0.18390484, 0.033954326, -0.14424598, 0.20808226, -0.0029473074, -0.066657, -0.060234684, -0.12666582, -0.010876678, -0.026074369, -0.03109382, -0.07926256, -0.10449925, -0.10036487, 0.099524975, -0.024808362, -0.048516646, 0.06509563, -0.09902259, 0.05847668, 0.19741303, -0.13026588, -0.044314988, 0.079087995, 0.07748698, -0.028740004, 0.0072191977, -0.064854205, 0.0635376, 0.09253469, 0.09775344, -0.047616154, 0.07807956, -0.13806, -0.1481212, 0.019394118, 0.063087486, -0.006655286, 0.020166738, 0.0533165, -0.08248771, 0.05691699, 0.03391364, -0.07598448, 0.09474775, 0.013014797, -0.056604564, -0.0021404664, 0.0346587, 0.036556732, 0.067508005, 0.006355863, 0.09514191, -0.085809186, 0.05112719, 0.013583987, -0.13743103, -0.025466267, -0.19717251, 0.0363873, -0.054959238, -0.14471208, 0.047657818, 0.042585563, -0.13146971, 0.07301711, 0.06629128, 0.074665636, -0.05417972, 0.10432849, -0.070790716, 0.027243998, 0.032442123, -0.04982678, 0.18490149, -0.06835563, -0.15963407, -0.08877285, -0.056469798, 0.0038226857, 0.00795317, 0.14160205, -0.0621622, -0.076836646, 0.0878555, 0.0015722543, -0.06716208, -0.11471313, 0.13126966, -0.10888938, 0.08420522, -0.043563418, -0.08741937, -0.02201936, 0.0022903676, 0.10399056, 0.12864645, -0.041725837, 0.06851813, 0.038773682, 0.011847845, -0.053162467, -0.108824186, -0.11946149, -0.04324777, 0.09119439, -0.1365986, -0.104087174, -0.17907262, -0.110854916, -0.005708509, -0.04436652, -0.055749133, 0.086506374, -0.21887043, -0.013050294, 0.15982182, 0.045775708, 0.03404688, 0.048437834, -0.04039812, 0.025517935, 0.0731412, -0.12793821, 0.021854183, -0.05271973, -0.033130698, 0.039658744, 0.025959762, -0.1233701, -0.03845037, -0.09661269, 0.036658894, -0.05984726, 0.107655115, -0.14878789, 0.01303293, -0.05142668, 0.007326239, -0.01405254, 0.056092735, -0.0009016968, -0.14694554, -0.10209643, 0.047741286, -0.0706508, 0.08213817, -0.07342975, 0.19940364, -0.06528705, -0.018524492, -0.016673835, -0.014079702, -0.011083654, -0.023589944, 0.028471325, -0.009071083, 0.058308735, -0.013477061, -0.010602937, -0.06509543, -0.059037056, -0.059254397, -0.13300437, -0.0067326347, 0.16260774, 0.21134797, -0.024426822, -0.04029714, -0.07375284, -0.04015802, -0.10191187, 0.060555484, 0.13611072, -0.07126761, 0.11799903, 0.17398551, 0.11374352, 0.056590054, 0.03082382, 0.03997288, 0.27892762, -0.07021837, -0.023672579, 0.09597935, 0.06588827, 0.08217313, 0.008213888, -0.028899388, -0.05146989, 0.06710701, -0.051114175, -0.05160714, 0.09886465, 0.0546884, 0.11699248, 0.06986418, -0.008483425, 0.16531563, -0.07098651, -0.0122948745, -0.0719442, -0.017616373, -0.003135741, 0.17305483, 0.10938762, 0.115774155, -0.10140833, 0.0509558, 0.059289154, 0.058987558, 0.07174821, -0.0068057436, 0.12611018, 0.0522344, -0.05106829, 0.09877498, -0.013063282, -0.019236486, -0.18178041, -0.010202624, -0.039128207, 0.051090878, 0.05817059, -0.06410423, -0.09217629, -0.003364306, -0.06887424, 0.015582746, -0.18416369, 0.17009544, -0.10741213, -0.0150624495, 0.06502215, -0.020566968, 0.019338755, -0.03818817, 0.021431755, -0.09822653, -0.052794278, -0.14205463, -0.04065096, 0.14215937, 0.12505753, -0.00962556, 0.16589834, 0.096948564, -0.11584469, 0.025425375, 0.065949455, -0.029164825, 0.09836452, -0.11368326, 0.020631228, -0.033500925, 0.03976959, -0.104739614, -0.056522902, 0.07253199, -0.1185041, -0.09840217, -0.047408585, -0.041113127, -0.07507816, 0.12129096, -0.17100014, 0.14116505, -0.03460287, 0.07901028, 0.02779004, -0.17457934, -0.12628508, 0.029996332, -0.11688842, 0.0173748, 0.004230744, -0.15509939, 0.10885718, 0.028086495, -0.0600202, 0.124544784, -0.014255031, -0.03964055, -0.012828006, -0.08946273, -0.05695106, -0.024676286, 0.040765464, -0.17104153, -0.12663756, 0.1585294, -0.047580745, 0.059556365, 0.09304489, -0.063709974, -0.046513923, 0.036604807, -0.11160984, -0.10978482, -0.027320126, 0.054110117, -0.12568235, -0.027032074, -0.085876755, 0.08306976, 0.06325548, -0.034139838, 0.09692075, 0.074468344, -0.11185409, 0.12212655, 0.05669323, -0.025483115, -0.06034644, -0.14871383, -0.036282454, -0.009043394, 0.009274069, 0.14578907, -0.104563765, 0.05315812, -0.09040063, 0.07023924, 0.19574861, -0.038410403, -0.0138810845, -0.14774545, -0.13903046, -0.07253116, 0.044488925, 0.09911406, 0.05435527, -0.061925314, -0.053894922, 0.020704817, 0.018990548, -0.08688909, -0.12966993, -0.06655451, -0.17154962, -0.15710895, -0.069805294, -0.055676106, 0.0028014511, 0.08187917, 0.06918226, -0.09722358, -0.009343111, 0.0069081197, -0.13445215, 0.019415574, 0.015890118, -0.29019466, -0.11056955, -0.046826966, 0.069953434, -0.059366897, -0.008730216, 0.06559268, -0.064076334, -0.034920268, 0.042163413, -0.06439612, 0.08450657, 0.12856558, 0.042656902, -0.06508238, 0.0066792862, -0.070082776, 0.06611618, -0.07120728, 0.16738081, 0.01714692, -0.053942744, 0.0020694532, 0.065609835, 0.11445553, -0.09350164, -0.026097441, 0.02016458, -0.008786259, 0.1511245, 0.05729542, -0.09166634, -0.110883996, -0.08049474, -0.03285535, -0.0685409, 0.023255987, -0.068774536, -0.114878, 0.15152378, -0.03835707, 0.0015850406, 0.02733623, 0.071385406, -0.018187588, -0.061712086, 0.0988778, -0.013142106, 0.03027236, 0.15362018, -0.102779314, 0.05245978, 0.030691016, -0.014023111, 0.064383894, -0.012825503, -0.12551972, -0.048859164, 0.030342693, -0.11941209, 0.0033482097, 0.15319811, 0.09471257, -0.16461185, -0.11368162, 0.025864622, 0.012900632, -0.024805324, -0.053304147, 0.09739382, -0.10751806, -0.13927822, -0.12799323, -0.028119866, -0.013010807, 0.12689812, -0.004884121, -0.050936766, -0.1565452, 0.19376868, 0.14430362, -0.0010371426, -0.03252985, -0.008100258, 0.073402554, 0.083048694, 0.037978098, 0.05923193, -0.013628342, 0.011804039, -0.027639471, 0.057026878, -0.11772114, 0.108200215, 0.12797475, 0.14598152, -0.12738425, 0.035762835, -0.1472278, -0.03830424, 0.13079856, 0.04136703, -0.0906687, -0.01785627, 0.1779998, 0.013867264, 0.044592146, -0.037625488, -0.17563103, -0.010834074, 0.06674001, -0.04695175, -0.040695567, -0.036255635, 0.08559225, -0.037399303, 0.059208006, -0.063136674, -0.08836135, 0.07548057, -0.01954604, -0.13519038, 0.09068777, -0.13085644, 0.057330843, -0.09369864, -0.09080035, 0.11632289, 0.0012164101, -0.09972112, -0.07795857, -0.055211354, -0.061298676, -0.121612936, -0.011648271, -0.09538222, 0.14453714, -0.07853243, -0.040540848, -0.032232393, -0.012275123, 0.022636821, -0.05109918, 0.18819992, -0.07640399, -0.0757363, 0.06999083, -0.21276988, -0.15075366, -0.09627384, -0.115655385, 0.07628618, -0.011152862, -0.11077439, -0.046732076, 0.057367437, -0.17514463, 0.2242875, 0.076016314, 0.06434162, -0.020651814, 0.08442884, 0.10989694, -0.14841282, -0.09375049, 0.06636793, 0.0076275547, 0.083306655, -0.016880898, -0.014313073, -0.14997636, -0.03642537, 0.048728228, 0.019051341, -0.17510132, 0.019299326, 0.034499165, -0.13087462, -0.09250349, -0.00092526607, 0.13964611, -0.14437255, 0.0506198, -0.1397166, 0.03236397, -0.0744759, -0.097170375, 0.030488202, 0.048410784, 0.003858412, 0.0071881833, -0.044820625, 0.07355193, -0.078268215, -0.050423134, 0.061502133, 0.08324015, -0.07700974, -0.0013491446, 0.06254101, -0.03779343, 0.13032137, -0.065045305, -0.014160539, -0.13866653, -0.011621353, 0.1146329, 0.08309356, 0.01958665, 0.06313841, 0.003515885, -0.098998554, -0.102461606, -0.05666554, -0.015324754, 0.117864035, -0.015657624, 0.02122483, -0.16688564, 0.0461144, -0.017262638, 0.045410696, 0.057693128, 0.07845235, 0.14683232, 0.10507183, -0.047371313, 0.022994328, 0.10087677, -0.044292863, -0.0068494645, 0.053842865, -0.01465168, -0.10162181, 0.20195493, 0.20465483, 0.10711922, -0.16727535, -0.058176927, 0.11793708, -0.033144504, 0.05620008, -0.049652144, -0.1032885, -0.029118273, 0.04664746, 0.009602955, -0.05044516, -0.031462442, 0.06828399, 0.049732428, -0.20179966, 0.12888661, 0.04418695, -0.010190337, 0.011583641, 0.09852717, 0.085513756, -0.032624763, 0.091270186, -0.03641077, 0.1172919, 0.1074489, 0.06511774, -0.025674988, 0.138441, 0.07629287, -0.067071214, -0.015046018, -0.12122673, 0.06434085, 0.12445552, -0.096264936, -0.0031707932, 0.05062262, -0.015934361, -0.07501403, 0.09734987, -0.03958137, 0.11437062, 0.1934362, 0.039512366, 0.14974007, -0.053260367, 0.011171417, -0.054763302, -0.03566133, 0.06658552, -0.0075159897, -0.007474549, -0.045052804, 0.12854166, 0.03944542, -0.21884546, 0.03177372, 0.24713403, 0.02535811, -0.014773765, -0.047627144, -0.022688728, 0.08657615, -0.04060956, -0.15401371, 0.16591099, 0.077549376, 0.034132853, 0.027431676, -0.11317683, -0.067993015, 0.027738348, 0.047114804, 0.017965434, 0.16223207, 0.025222665, -0.058551736, 0.01768411, 0.14782947, -0.11385481, 0.10395344, 0.07932891, 0.12094833, 0.026446436, -0.002342615, 0.0395094, -0.017997619, 0.12873966, -0.110345915, 0.017487422, 0.038333703, 0.026926102, -0.031389922, -0.024067117, 0.04931775, -0.0194391, 0.16794357, 0.117319085, 0.13065885, -0.104505986, -0.075792335, -0.009124252, 0.05853862, 0.013434163, -0.04012065, 0.070058264, -0.04010896, 0.091470055, 0.015058784, -0.05971444, -0.042592887, 0.08168017, -0.018908367, -0.0355692, 0.040374897, -0.028320974, 0.03911454, -0.09342034, 0.1253298, 0.06341199, -0.044400107, -0.015631242, -0.08967812, -0.024454655, 0.050663915, -0.18230341, 0.03572979, 0.008067028, -0.039561957, -0.12685448, -0.028141439, -0.045852657, 0.09089859, -0.105642624, -0.060994837, 0.04832415, 0.038809054, -0.26173896, -0.04704266, -0.1389875, 0.024919689, 0.034915302, 0.0046913205, -0.08999284, 0.15134694, 0.070880584, -0.062951036, -0.055034056, -0.10377561, 0.08083231, 0.04980604, -0.17812225, 0.014494446, 0.031868458, 0.09038282, 0.029812532, 0.04233154, -0.022620391, -0.09260808, 0.03294593, 0.07347271, 0.06926639, 0.2231985, 0.13210288, 0.07600072, -0.024559233, -0.027579423, -0.17133667, -0.02007013, 0.104353175, 0.0019054017, -0.071239665, 0.07769944, 0.15133436, -0.07250146, 0.08049571, -0.083802156, -0.09463588, 0.103292294, 0.0052665807, -0.14839536, 0.2219269, -0.023304498, -0.031255063, -0.055209566, -0.021985533, -0.009445188, -0.06475526, 0.018154593, 0.042902004, -0.00094229984, -0.06496897, -0.04839061, -0.0021135027, -0.10100988, 0.012104872, -0.016628666, -0.01787174, -0.04376745, 0.0076664067, 0.0058152103, 0.05215399, -0.0496518, 0.20027126, 0.10151053, 0.033204768, 0.11613755, -0.104230516, 0.049235206, 0.080745645, -0.19303033, 0.075135216, -0.060530234, -0.1357719, 0.117902786, -0.041368283, 0.029916182, -0.0034529264, -0.09395774, 0.10275428, 0.019159285, 0.07439461, 0.088557474, 0.11043903, 0.07911453, -0.12955603, 0.052186552, -0.08359857, 0.06238628, 0.051575318, -0.003858863, 0.021733277, -0.038429964, 0.22326875, 0.05903722, -0.11035461, 0.056633055, -0.055610538, 0.061342515, 0.023605714, 0.14229082, -0.091910265, -0.003696499, -0.10253313, -0.10594858, -0.2175106, -0.016153587, 0.11207862, 0.096399374, -0.10589105, 0.2248974, 0.08105408, 0.15681385, -0.0011054424, -0.06900864, -0.042972714, -0.024572277, -0.22240768, 0.059618678, -0.07178941, -0.0671542, 0.017625887, 0.012203557, 0.03643224, -0.006228263, -0.23494741, -0.005136178, 0.07207688, -0.19677998, -0.015306004, -0.0414193, 0.042412203, -0.10055596, 0.0875367, 0.094764136, 0.0031885754, 0.078603655, 0.06457843, 0.024451993, 0.0377605, 0.011612121, -0.054466877, -0.061067037, 0.08418793, 0.016527293, 0.03018425, 0.09361627, -0.004611016, 0.01916146, -0.02401656, 0.0036880223, -0.15129405, 0.10087787, -0.06609635, 0.038755193, 0.0075754235, 0.0051057315, 0.038899213, 0.091194026, 0.1230078, -0.003596028, -0.036461066, 0.08921135, -0.037469074, 0.04415296, 0.02425071, -0.07320874, -0.16153643, 0.011917258, 0.10136309, -0.110050574, -0.09156613, 0.054118127, -0.04494713, 0.10244936, 0.10542631, 0.028864142, 0.079079345, 0.00999712, -0.06394999, 0.05479995, 0.018163817, -0.08742602, 0.07674485, 0.1116778, -0.015883656, 0.0675727, -0.08202261, -0.03677631, -0.053670686, 0.007352671, -0.0585641, -0.06487188, 0.033857003, 0.008193035, 0.011319706, 0.003444138, -0.17546016, -0.06281595, 0.009849695, 0.18271472, 0.081362076, -0.08824323, -0.12628998, -0.041033495, -0.035015438, -0.20356, -0.017938323, -0.08245149, -0.037152488, -0.008598799, -0.03328392, 0.09723007, -0.07480032, -0.13166304, 0.007997923, 0.03538564, -0.2039262, 0.15237062, 0.09887748, 0.15175296, 0.065176815, 0.14018033, -0.1384711, -0.080468096, 0.003037786, -0.07361365, 0.06463006, -0.031984292, -0.06330914, 0.15480398, -0.20122983, 0.03935014, 0.024490181, -0.12368427, -0.07241231, -0.053081967, -0.0356019, 0.076739706, -0.10426634, -0.12007228, -0.06727782, 0.016755534, 0.22289157, -0.024992444, 0.16954534, 0.00082803913, -0.06852449, -0.01484327, -0.100942925, 0.038814582, 0.06711547, -0.008753626, -0.07313298, 0.07782779, 0.071410485, -0.116056375, -0.042820666, -0.20603143, -0.16615689, 0.028525695, 0.15243109, 0.061090212, 0.015597365, 0.10410769, 0.012725537, 0.056412168, -0.058145177, -0.070392124, -0.102696344, -0.019193884, -0.04668642, 0.014401455, -0.024729908, -0.0408316, -0.08758538, 0.040924437, -0.13160676, 0.01701421, 0.13530682, 0.096049815, -0.02539429, -0.07631921, -0.07141299, 0.0076788366, -0.13996634, 0.059362166, 0.0857166, -0.079289466, -0.031495534, -0.030239966, -0.014599205, -0.09717163, -0.10982997, 0.009286005, -0.06428613, 0.06566391, -0.06143595, -0.085882604, -0.02849951, -0.06567659, 0.1489928, -0.0696101, -0.005577411, 0.055474084, -0.060301915, -0.030503964, 0.04578855, 0.03896357, 0.10340725, 0.11284763, -0.051843934, -0.027808739, -0.06450491, 0.0073344954, 0.05319294, 0.18040492, 0.047669895, 0.15877402, 0.0028387634, -0.023310311, -0.00066021265, 0.1705186, 0.1642912, 0.10371784, 0.058888607, 0.034089204, -0.23694874, -0.11088441, -0.015253411, -0.03553346, 0.07348624, 0.05036796, -0.004034565, -0.023542888, 0.2572461, -0.045360338, -0.08131322, -0.06946398, 0.07534839, 0.06618288, -0.14674689, -0.032601416, 0.027036544, -0.0025722, -0.0055632964, 0.006360722, 0.047714118, 0.046949074, -0.010095419, 0.05200084, 0.022158697, -0.031706035, -0.085611455, -0.08081674, -0.005860665, -0.19278792, 0.013396336, 0.047845658, -0.0114869205, 0.14729902, -0.029061532, -0.081540816, -0.22169283, 0.119495735, -0.02329168, -0.17057712, -0.10873224, 0.052194484, 0.13554254, -0.02985731, -0.014227656, -0.033767432, 0.09135219, 0.10292174, 0.12665102, 0.09436299, 0.040919345, -0.13651155, 0.1380719, 0.057036977, 0.102463774, -0.00807709, 0.09949578, -0.0155879585, -0.01884661, -0.06055211, 0.110511445, -0.030424964, -0.04568623, -0.03139132, -0.07015465, -0.06813843, 0.12716784, 0.0975823, -0.166042, -0.08634679, 0.0245421, 0.051109083, 0.046375733, -0.08901749, 0.10771872, 0.04105914, -0.0770194, 0.04848788, 0.03335114, 0.04149792, -0.0704049, -0.04075578, -0.011130672, -0.07006492, -0.06493934, 0.030478066, 0.075878315, -0.03582018, 0.0024641107, 0.061072282, 0.082633935, 0.011744697, -0.15158431, 0.10598831, 0.0038604285, -0.07818559, -0.025962528, 0.113529064, 0.023116266, 0.16888535, 0.07567522, -0.13784042, 0.02894096, -0.013257118, 0.008958172, 0.05808391, -0.09706848, 0.011438418, 0.022058873, -0.12166321, -0.044786956, 0.03705734, -0.114816606, -0.0475545, -0.038844336, 0.14381965, -0.03715688, -0.06496862, 0.11560605, -0.015074782, -0.18523872, -0.063158944, -0.085409544, 0.08822096, 0.15783106, 0.08240938, 0.043607626, -0.09016116, 0.1964488, 0.0073806355, 0.10267549, 0.078868866, -0.16990149, 0.06414178, 0.074165165, 0.004657435, 0.10345899, -0.08855659, -0.09117667, 0.130254, 0.017133953, -0.0024703236, -0.0065834806, -0.15071902, 0.045012206, 0.026458697, -0.14971188, -0.08267133, 0.05371096, -0.008532533, 0.051295027, 0.16910498, 0.015988374, -0.07538408, -0.0038016469, -0.06904192, 0.01562017, 0.19788885, -0.032873508, -0.0068971147, -0.054756597, -0.014611972, 0.06460672, -0.0334576, 0.00955344, 0.08645756, 0.13488947, -0.1120634, 0.1730317, 0.04285031, -0.08843001, -0.026613956, 0.05268216, -0.05096873, 0.027351288, -0.04449374, -0.020905837, -0.019143019, 0.1751919, 0.026518898, 0.04517909, -0.014554983, -0.021862682, 0.014899858, -0.059600282, -0.0589329, 0.020825427, 0.17626645, -0.056022886, 0.08946264, 0.23039119, 0.033386994, -0.0796374, 0.103169054, 0.06736287, 0.12544525, -0.04439881, -0.07202984, -0.0060415613, -0.0461759, -0.12861034, 0.0886861, 0.142305, 0.06676527, 0.093337364, 0.004706414, 0.118734404, 0.06387958, 0.05992814, 0.005246561, 0.10187681, -0.09294659, 0.11749607, -0.17758855, 0.15338053, 0.045383207, 0.030631706, -0.011251832, -0.030568402, -0.13956645, 0.069263324, -0.028118297, 0.017017793, 0.01788581, 0.011802592, -0.07845878, -0.05516369, -0.04750226, -0.05336673, 0.03360659, -0.08983949, -0.04140286, 0.15552586, -0.0264869, -0.09451451, 0.0007590891, -0.1527907, 0.055304818, 0.012199974, 0.13879792, -0.23101513, -0.07237826, 0.059067834, 0.030422974, 0.06790897, 0.07480889, 0.16496573, -0.056041103, -0.03905489, -0.051857427, -0.07625202, 0.108769976, -0.16688961, -0.033095717, 0.030074751, -0.13318035, 0.011077182, 0.07724188, 0.09682122, 0.013626825, 0.088352926, -0.032095425, -0.0587467, 0.15707406, -0.03331864, -0.07088076, 0.020074742, 0.0876295, -0.12113906, 0.03479059, 0.19265541, -0.108918406, 0.06626997, -0.044176675, -0.09595059, 0.1255609, 0.09504211, 0.062007025, -0.0758987, 0.079306334, 0.04510836, 0.11418129, -0.066568725, 0.09501989, -0.10426954, -0.11330444, 0.05860946, 0.065578625, 0.124065585, -0.24343184, 0.012530779, 0.02702814, -0.017744455, 0.012437059, 0.06648919, 0.05548084, 0.058358938, -0.09915636, -0.039741263, 0.026367633, 0.026091702, -0.0537165, -0.018501176, 0.064999394, -0.09686897, 0.034226213, -0.13415366, -0.020792434, 0.15332736, 0.08606967, -0.119956866, 0.0036275033, 0.13896836, -0.033718828, 0.004669568, -0.055424605, 0.048173532, 0.060447868, 0.07574024, 0.044673808, -0.21069504, 0.11186958, -0.090444185, -0.043728698, 0.015661268, -0.0801407, -0.121474385, -0.04801347, 0.047170773, -0.10708902, 0.22374095, -0.03278529, -0.079022996, -0.045119278, -0.058342863, 0.028366735, -0.03728937, 0.09355889, -0.102111176, 0.015529135, 0.03580556, 0.01321405, 0.03589976, -0.11259652, -0.029545065, -0.04798669, -0.07574107, 0.1525832, -0.043786056, 0.019444367, 0.15839365, 0.009624186, -0.002867636, 0.1500663, -0.074095026, 0.043238632, -0.19843756, -0.0040729917, 0.08241041, -0.051498756, 0.09050576, 0.020341085, -0.033721775, -0.15887368, -0.07961992, -0.03138786, 0.026244689, -0.07353451, -0.057371102, -0.02272684, -0.013497443, 0.033683483, 0.027137434, -0.19229737, 0.036124274, -0.029909387, 0.16998397, 0.06271538, -0.11438548, -0.16384569, -0.03361566, 0.10450087, 0.20617574, -0.08608789, 0.1539023, -0.12975983, -0.0397774, 0.11886498, -0.06557293, 0.031698197, -0.017805543, 0.02695447, -0.020427713, -0.032109898, 0.13016212, -0.09858127, 0.0025436922, 0.025792576, 0.07789785, 0.09843382, 0.08292511, 0.07261648, 0.08689589, 0.06275729, -0.09054925, -0.035888776, -0.019424738, -0.0068296245, 0.11500871, -0.033222366, 0.029126588, -0.0051580714, 0.1569866, -0.050751273, 0.15174292, 0.0043609664, -0.12860896, 0.046311244, -0.09411309, 0.09250515, 0.07394161, 0.00074778375, -0.033155754, -0.06501499, -0.07357015, -0.026441537, -0.09178916, 0.030757893, 0.06396122, 0.12465394, -0.075526334, -0.040668003, 0.068971865, 0.10684617, 0.05847353, -0.022986969, -0.14458755, 0.01839035, 0.11765632, -0.14911139, -0.01588998, -0.09848337, 0.06440054, -0.017302003, -0.07265502, -0.04555443, 0.046705272, 0.07700966, -0.008199024, -0.029795777, -0.080087505, -0.046961676, 0.024025988, 0.05632206, -0.07493071, 0.11400819, 0.089768365, 0.02785228, -0.039777238, 0.03625962, -0.060336728, -0.047349773, -0.02910025, 0.03942344, -0.035680864, 0.061919693, -0.024315348, -0.018793317, 0.02204455, -0.12806827, 0.117647596, 0.09669134, -0.10445904, 0.06385088, -0.12661186, 0.20297018, -0.107799515, 0.1331432, -0.15231766, 0.17614293, -0.052958034, 0.02750422, -0.13883273, -0.020899126, -0.038860105, -0.013828557, -0.073996074, -0.1154267, -0.1433612, 0.08526586, -0.1481015, 0.04178061, -0.27260998, -0.14785008, -0.045085594, -0.04646327, 0.07631038, 0.16945435, 0.055260185, -0.09239004, 0.1486181, 0.040077444, -0.057372116, 0.021165153, -0.15029179, -0.009552448, -0.06159593, -0.08799992, 0.008695718, 0.17211667, -0.07278755, -0.02291631, -0.06523705, -0.052746017, -0.1156199, 0.048559163, -0.038872797, 0.014563683, 0.06888989, -0.051551074, 0.065828584, -0.0063315146, 0.036120124, 0.13286412, 0.04879985, 0.096000835, 0.06243943, -0.079357274, 0.05673327, -0.21743977, -0.015429165, 0.11181374, -0.06398871, -0.11816263, -0.12329309, -0.02052003, 0.051799484, 0.13377847, 0.0731608, -0.022380227, 0.032345362, 0.030877627, 0.09049984, -0.04290276, 0.037867118, 0.07061635, -0.06471967, 0.0697362, 0.039245352, 0.025374234, 0.041394625, -0.093767874, -0.0056194267, 0.051486768, 0.03345757, 0.116431415, -0.0068420162, -0.04228549, 0.08471238, 0.014971725, -0.0022808397, -0.007829214, -0.03704049, -0.019730804, 0.02764106, -0.108281255, -0.00035923507, -0.07038226, -0.013764732, 0.07669143, 0.015824705, 0.2565073, -0.082349084, 0.018579433, -0.12236068, -0.115784496, -0.15602836, 0.19163693, -0.029333359, -0.07095177, 0.0010922602, -0.03600313, 0.03315637, -0.029905327, 0.067138836, -0.06256498, 0.14063413, -0.008026942, -0.09156563, 0.11412525, -0.04273441, 0.11786359, -0.015300224, -0.12279245, -0.044198662, 0.19359517, 0.010851803, -0.08226158, 0.11536397, -0.08248497, 0.010140595, -0.05947437, 0.004471511, -0.05313271, -0.15966438, -0.07708304, -0.18634418, -0.007066739, -0.07551006, 0.02910544, -0.009719767, -0.08829035, -0.019457847, -0.06514046, 0.04546344, -0.015588304, -0.03093959, -0.07525589, 0.18344939, -0.015072832, 0.05556809, -0.025809934, -0.11667247, -0.018333219, -0.10114701, 0.109743394, 0.006426598, 0.056174513, 0.10827726, -0.020701768, -0.21128699, 0.03406048, -0.17290536, 0.15734792, 0.017177941, 0.08436294, -0.094369665, -0.13229612, -0.022431, 0.057920706, -0.045369543, -0.15272492, 0.056499574, -0.07078485, -0.013421747, 0.088842034, 0.09260866, -0.029564405, 0.18407474, -0.080480784, 0.04310703, -0.17009103, -0.08216131, 0.053795613, 0.03620634, -0.00737953, -0.01064513, -0.025046477, 0.089253515, 0.10481599, -0.10244696, 0.26590195, -0.030508874, 0.0040331967, -0.10784216, -0.003662067, -0.074959226, -0.13629843, -0.022118047, 0.0023233294, -0.0014614655, 0.070739046, -0.08637254, -0.06917648, -0.19091505, 0.16901718, -0.13953729, 0.1711065, 0.107009165, -0.14372498, 0.020925216, -0.008314819, 0.09873129, -0.0829335, 0.08981845, 0.0014990553, -0.044085857, 0.008793808, -0.012563788, -0.018128894, -0.039115313, 0.10456034, -0.12567373, 0.07766562, -0.014270113, -0.055812355, -0.1274354, 0.056918804, 0.0074962075, -0.028035618, -0.071508154, 0.03850596, -0.20151389, 0.08180025, -0.15127508, -0.021845553, -0.032515112, -0.2606766, -0.013166334, -0.20587325, -0.0768476, -0.0021859773, -0.14817984, 0.07157474, 0.029668406, -0.09254497, 0.056270387, -0.011763827, -0.09040235, 0.067733, 0.045971006, -0.015483776, 0.040237807, 0.06957118, -0.10337504, 0.08908157, 0.064103454, 0.2851797, 0.1818219, -0.04999085, -0.062299326, 0.09400514, 0.04136288, 0.14436254, 0.044756602, -0.11920841, 0.060216192, 0.095012, -0.0003696457, -0.04656362, -0.018322209, 0.09520814, 0.136299, 0.072099105, -0.03566924, 0.020641815, 0.110430695, 0.019625625, -0.037967287, 0.07462627, -0.12280015, 0.051663343, -0.01371605, 0.019645346, -0.08201535, -0.13524905, -0.089227036, 0.036154993, -0.050551306, -0.0056001446, 0.076676056, -0.19644475, -0.07535924, 0.096411504, 0.010354301, -0.0018186367, -0.010851433, -0.07763031, 0.017046338, -0.05712711, 0.06742615, 0.055768717, 0.06387506, 0.058180235, -0.061693095, 0.05926916, -0.077765405, -0.07720184, 0.03185916, 0.049120765, 0.03707408, -0.08139429, -0.013795548, 0.052531034, 0.0822619, -0.072544456, -0.032746125, -0.13786334, 0.066135325, 0.04657522, -0.019542478, -0.07565753, -0.049015764, 0.056106493, -0.05709464, -0.01022674, -0.047569282, 0.05189704, -0.019895967, 0.031317383, -0.11309281, -0.03717635, -0.12931614, -0.0130941775, -0.059824638, -0.09856238, -0.036546554, 0.0011301464, 0.009617326, 0.048068516, -0.06521345, 0.023146754, 0.05534168, 0.016030874, 0.119253784, 0.073280446, -0.053522855, 0.057142682, 0.035473797, -0.14106436, -0.004963542, -0.049386807, -0.14288154, -0.11376176, -0.0649117, -0.056173857, -0.09232686, 0.123292394, 0.11062522, 0.17506537, -0.008892299, -0.12200353, 0.2974248, -0.03578499, -0.06608432, 0.04426056, 0.00875731, 0.08167502, -0.13714537, -0.08696004, -0.0002771679, -0.04113468, -0.006041248, 0.0049258494, -0.050975308, -0.026348852, 0.028123992, 0.027311958, -0.04958828, -0.16845378, 0.06729493, 0.16462146, -0.08549662, 0.14196534, -0.026555778, -0.089172095, 0.118212104, -0.09646301, -0.10055405, 0.09309582, 0.044597257, 0.14611708, 0.061850883, 0.038893376, 0.27820748, 0.031044351, 0.050149675, -0.014520383, -0.046886433, -0.09249237, 0.0032577324, -0.10129278, 0.024308827, -0.015210897, -0.036551856, 0.07306529, 0.0011544917, -0.044981398, -0.030311441, -0.13729537, -0.05065705, -0.08987575, -0.0071119703, 0.0031847805, -0.042281356, 0.060621586, 0.036460537, -0.0990769, -0.11833825, -0.06936089, 0.028435202, -0.12429981, -0.06723259, -0.13601848, 0.18833947, 0.043968376, -0.16475138, 0.010408395, -0.0628748, 0.17225549, 0.10664081, -0.0048868675, -0.08221827, 0.099343754, -0.0067222468, -0.050818425, 0.024363149, 0.024500296, 0.0012564353, 0.09624852, 0.0023868117, 0.003640015, 0.003886807, -0.046880834, -0.15916412, 0.08397481, 0.064173356, -0.017972609, 0.08727472, -0.0006042231, -0.037346996, -0.057684034, 0.07655235, -0.21978886, -0.05047876, -0.008624052, 0.04507826, 0.00086295785, -0.04267212, 0.17628036, 0.12137276, -0.07977279, 0.17653693, 0.035619, 0.22777678, -0.045082454, -0.024169197, 0.067761615, 0.089712076, -0.07787151, 0.015703708, 0.035947394, 0.09787551, 0.08481224, -0.10798707, -0.04761953, -7.709464e-05, 0.0355718, 0.021337656, -0.012211304, -0.025034484, -0.12766603, 0.027200328, -0.02514189, -0.23438287, -0.15246676, -0.02555449, 0.20392226, -0.029519755, 0.021768656, -0.06853888, -0.018522073, -0.13930374, -0.034425456, -0.0033233012, 0.2482046, -0.09312666, 0.023387525, -0.070928946, 0.050387274, -0.011079034, 0.21254058, -0.022787696, 0.09371322, -0.14713061, 0.11305761, -0.07138975, -0.12344944, -0.09574743, -0.06884557, -0.04552621, 0.0035775902, 0.034405816, 0.101602495, -0.1486884, -0.0032772257, 0.17480782, 0.08184216, -0.05259782, -0.06164253, 0.10180657, 0.0020866997, 0.033153173, 0.010734669, 0.009941703, 0.002316485, -0.12800597, 0.28175324, -0.12868284, 0.023150785, -0.13982268, -0.007963059, 0.025690587, 0.036668394, 0.0028271812, 0.100698814, 0.067339756, -0.009064137, -0.096944764, -0.04591245, -0.01812845, 0.03545999, 0.039982546, -0.07095014, -0.006573257, -0.10618593, -0.042478483, 0.038292024, 0.062272813, 0.09742453, 0.10268607, -0.021207863, 0.021203024, -0.023910563, 0.0023479196, -0.043356724, 0.05671946, 0.0072043305, -0.027986983, -0.01244108, -0.05429858, 0.06961435, -0.039859645, -0.017070826, -0.07650546, -0.12788312, 0.020051248, 0.06029193, -0.0015173918, -0.02089068, -0.019402463, -0.07212047, -0.022638954, -0.021803768, -0.005502361, -0.07907716, -0.04154602, 0.03055105, -0.1998558, -0.02284967, 0.13765354, 0.09880807, 0.08465513, 0.022383753, 0.054334138, 0.10291389, -0.08810155, 0.10396609, 0.11555909, 0.12180872, 0.023609571, 0.02544787, 0.016675033, -0.0581908, -0.14849082, 0.14240044, -0.09566328, 0.035365745, -0.10402219, 0.05232912, 0.046352997, 0.054600473, 0.09260963, 0.11521386, -0.06512348, -0.102895185, 0.056369882, 0.048147026, 0.08214724, 0.021990784, 0.039343335, -0.09859666, 0.09079087, -0.07437294, 0.032874044, 0.14139743, 0.06924139, 0.18620469, 0.11667078, -0.09467223, -0.0005358347, -0.023490021, 0.044452537, -0.024000965, 0.07403659, 0.07222478, 0.017335784, -0.0053859116, 0.06274423, -0.050816573, 0.12176242, -0.16387343, -0.21302839, -0.05956083, 0.01835525, -0.063876204, -0.1219033, 0.1088424, 0.028618135, -0.073875144, -0.14912392, 0.05180633, 0.0825998, -0.12756652, -0.16041724, -0.20959145, 0.12286757, 0.06514764, -0.037284486, -0.0383288, -0.0043191845, -0.026763093, 0.017600762, -0.080889255, -0.017788015, 0.15415746, 0.02096692, -0.059388947, -0.113285705, -0.14033946, 0.033069007, -0.15913698, 0.063785575, -0.20584027, -0.098050736, -0.07457422, -0.049869806, -0.06185343, 0.01128317, -0.054728694, -0.110376514, 0.015512569, 0.018478341, -0.11244195, 0.08455739, 0.08421879, -0.067682825, -0.035772603, -0.023105083, -0.052192155, -0.06784542, -0.13735513, 0.123741925, -0.0005739573, 0.21210954, 0.011279242, -0.06526095, -0.05902477, 0.07131844, -0.056498047, 0.040791936, 0.17741519, -0.08915378, -0.06812868, -0.038397733, 0.07541823, 0.037915368, -0.049764805, -0.08186509, -0.022115149, -0.027418168, 0.08124844, 0.041364115, 0.080558576, -0.04055947, -0.05197663, 0.029176937, 0.043635853, -0.055278793, -0.06813444, 0.0889959, -0.0724852, 0.020908264, 0.0813385, 0.040812522, 0.15472159, -0.08053478, -0.073042996, 0.10474579, -0.022546386, -0.025928877, 0.014074644, -0.16971017, 0.0046737227, 0.0397067, 0.13010287, 0.022573857, -0.053585216, -0.08641841, 0.039774507, 0.09137278, 0.08133403, -0.028016508, 0.058711182, -0.031577356, 0.028219083, -0.13052925, -0.1033451, -0.1667707, -0.02014706, -0.004967172, 0.008695457, -0.08164152, -0.042624645, 0.051829696, -0.01848477, -0.009083644, -0.08806988, -0.109729774, 0.07520061, 0.088214174, 0.057205763, 0.21003234, 0.04411538, -0.14809325, -0.008601818, -0.07143867, -0.03740646, 0.062740065, 0.0871166, 0.025129294, -0.021939004, 0.10442962, 0.062234957, 0.041487794, 0.10041522, 0.045491867, -0.010136843, -0.044035617, -0.028340833, 0.0867896, 0.058086924, 0.029261777, 0.10675825, -0.022627646, 0.024265433, 0.23090433, -0.012533471, 0.009033802, -0.021014761, -0.17713429, -0.0077875406, -0.14709732, -0.1361103, -0.079194166, 0.011740378, 0.14723375, -0.098935686, -0.055532828, 0.10440521, -0.025479816, -0.0027204244, -0.039131314, 0.0003417525, 0.03384266, -0.1815699, -0.14720103, 0.16049314, 0.024803903, 0.011945923, 0.12142749, 0.13585754, 0.08694177, 0.031222196, -0.18711206, 0.026462572, -0.047797233, -0.08864741, -0.16761515, 0.008398791, 0.06386221, 0.03415347, 0.07690771, -0.079681285, -0.014835832, 0.061859805, 0.010721687, 0.008989653, 0.09922476, 0.1193359, 0.13154161, -0.021003254, -0.03524821, -0.05346818, 0.014159744, -0.011141878, 0.1771264, -0.13455717, 0.10185287, -0.13185628, -0.026907494, 0.0059961784, -0.065859646, 0.027662316, -0.15894808, -0.04831454, 0.055522405, -0.18068267, 0.10918393, 0.00868577, 0.10658277, 0.085500024, -0.046333376, -0.048109204, 0.0050403113, 0.068544045, 0.0065013273, 0.10415369, 0.00868377, 0.21582869, 0.036308054, -0.09219938, 0.074168816, 0.0775905, -0.026961558, -0.12007641, -0.019987248, -0.037908617, -0.0035556299, 0.048201747, 0.07889121, 0.14615202, 0.11363974, 0.10664209, 0.030826604, 0.032174397, -0.1249576, -0.014892944, -0.00666503, -0.17063488, -0.027015362, -0.17568015, -0.0867297, -0.095693275, -0.11032337, 0.031762633, 0.042691972, 0.024379518, -0.0016325036, 0.002493516, 0.17007281, -0.087368414, 0.11039939, 0.005993487, 0.052231696, 0.07393606, -0.11169784, -0.13647859, 0.093314655, 0.27889118, -0.080371864, -0.07771159, -0.07445258, 0.14932781, -0.11679704, 0.083494276, 0.041152835, 0.0026683703, -0.122986116, 0.017160319, 0.0053173155, -0.00302284, 0.023903277, 0.13940305, 0.08260249, -0.0951016, -0.043487802, -0.17784873, -0.04339379, -0.035778847, -0.02707973, 0.04963017, -0.058260974, -0.11833818, -0.1437734, 0.024417674, -0.08429422, -0.04651774, -0.038045626, -0.026213322, -0.02559534, -0.047372043, -0.11120372, 0.0056069326, -0.0118899075, -0.08409189, -0.0068184454, 0.148224, 0.02791229, 0.031267222, -0.0831018, 0.108319245, 0.12067538, -0.06070512, 0.13113147, -0.059913237, 0.10257254, 0.06466865, -0.029307358, 0.14067152, 0.12609817, 0.027560942, 0.20985779, -0.11442202, -0.08294671, -0.010930606, 0.12383541, 0.22364478, 0.046765015, 0.056931537, 0.05051997, 0.015641896, 0.12350928, 0.040278062, 0.027683923, 0.012401068, 0.017669728, -0.04870125, 0.040282525, 0.030212522, 0.032463025, 0.0410397, 0.03240343, -0.012296205, -0.15181637, 0.021787448, 0.0015046378, 0.0054265345, 0.057084557, -0.039970294, 0.09072357, -0.07443282, 0.10519861, 0.042190522, 0.11480308, 0.011333414, 0.0862331, -0.027325785, 0.07060509, -0.10809763, 0.069591254, 0.12378809, -0.020149631, 0.004980503, -0.07437216, -0.12643358, 0.1042721, 0.052031443, -0.15389562, -0.07209373, -0.046973016, -0.04721256, 0.07798493, -0.059949294, 0.026210958, -0.12527095, 0.10265257, 0.107674144, -0.055302672, 0.06559507, -0.015838675, 0.079957455, -0.007057965, -0.09179706, 0.082969025, -0.17169032, -0.07717972, -0.11069739, 0.071568914, -0.010985776, -0.0081160795, 0.28372255, -0.009506244, 0.058860816, -0.07464566, -0.083847456, 0.0120561905, -0.048291553, -0.14927353, -0.088932484, -0.062034525, -0.06443798, -0.026648778, 0.18772046, 0.070332535, -0.08167682, 0.13355504, -0.062831245, 0.12699841, -0.05674856, 0.015044668, -0.047867417, 0.039878044, 0.04710025, -0.20384984, 0.15400647, 0.17044558, -0.050881445, 0.059591036, 0.06695346, -0.043732535, 0.059085853, -0.036953323, -0.0055246223, 0.029169122, -0.069076955, 0.03986282, 0.056770153, -0.015186811, -0.098408766, -0.14006859, -0.062114533, -0.12016772, 0.1324717, 0.09471883, 0.13586405, 0.20166232, 0.12668961, -0.056024253, 0.04465894, -0.07203749, -0.17074086, -0.053143725, 0.11166059, 0.021010777, 0.033820484, -0.057586808, -0.009235285, -0.19019207, -0.035060935, 0.05496183, -0.0553979, -0.055185087, -0.07197985, 0.07077757, 0.0029551582, -0.114478245, -0.025947968, -0.026226303, -0.06728872, 0.014510546, -0.032825682, 0.028034426, -0.053905353, -0.05606986, -0.03459743, 0.09814098, -0.05279183, 0.048370767, 0.014056797, -0.0653719, 0.045991823, 0.1262714, -0.11670519, -0.056984007, -0.018655278, 0.10358268, 0.07685446, -0.010605215, -0.017639045, 0.02618357, -0.13661273, 0.15068139, 0.007943169, -0.04782031, 0.04114564, 0.05410334, -0.011527995, 0.06766774, 0.09470459, 0.08088119, 0.052918926, 0.1285681, -0.08465647, -0.18182741, 0.19439934, 0.122280724, 0.16058084, 0.05895363, 0.042469718, 0.11070774, 0.100775994, -0.031509437, 0.106634334, 0.16547519, 0.10945608, 0.06314984, -0.14438002, -0.05525316, 0.09065227, 0.09090195, 0.07627192, 0.018724017, -0.056381408, -0.1524855, 0.084400006, -0.05694603, -0.04117013, -0.0903899, -0.0840544, 0.046233732, -0.021735262, -0.22272357, 0.025539486, 0.004538851, -0.08955313, 0.056439925, 0.04596067, -0.12354469, 0.18947446, 0.05503976, -0.14069067, -0.14088042, 0.024104549, 0.15126027, -0.03380372, 0.09887235, 0.12982602, 0.11666444, -0.09978781, -0.12697703, 0.04490667, 0.0060155652, -0.022231907, 0.052945826, 0.09815787, -0.15835215, 0.059359454, -0.035577256, 0.061689664, -0.083443604, -0.07757181, 0.09703678, -0.017007953, -0.04407526, -0.0012909047, 0.035062723, -0.24990466, -0.03627449, -0.1568946, -0.032790583, -0.008297559, 0.011092144, 0.069942236, -0.014306648, -0.07205217, -0.06457153, -0.055813637, -0.019291967, 0.1475459, -0.008018468, 0.15905426, -0.10841136, 0.00054022874, 0.048324887, 0.07605135, 0.033403687, 0.10914003, 0.0027608436, 0.03545074, 0.05694986, 0.035524957, -0.03642067, -0.07666912, 0.024163678, 0.07436949, -0.06445211, -0.09198572, -0.007327643, 0.00064243167, 0.01860673, 0.011259879, 0.011061475, -0.034866907, 0.05146615, -0.029939415, 0.16303477, -0.0018066886, 0.060951162, 0.07335122, 0.04302873, 0.042237792, 0.054943696, 0.08588209, 0.054273233};
#endif

#endif
