//Numpy array shape (1, 128)
//Min -0.215863317251
//Max 0.214235410094
//Number of zeros 0

#ifndef LSTM1_H_
#define LSTM1_H_

#ifndef __SYNTHESIS__
model_default_t lstm1[128];
#else
model_default_t lstm1[128] = {-0.17947021, -0.06861587, 0.04736664, 0.11034803, -0.005799924, 0.09262407, 0.10364826, 0.113534875, -0.091891415, 0.061175656, -0.15526819, 0.0359283, 0.20332535, -0.09759294, -0.16515635, 0.15842828, 0.11513087, 0.071553275, 0.15359052, 0.09741963, -0.15566346, 0.11561043, -0.00874915, 0.2076618, -0.19672306, 0.021417838, 0.0673871, -0.15878516, -0.2105627, 0.108589925, -0.17746657, -0.030653695, 0.109349445, -0.022562826, -0.12586993, 0.06712009, -0.12305988, -0.21028002, -0.21266526, 0.06308273, 0.069786094, -0.04938276, 0.013545464, 0.16185442, 0.19475727, 0.16134429, -0.01626757, 0.15890564, 0.026023908, -0.11819571, 0.11089939, -0.05423025, -0.0061320555, -0.16161183, -0.12892276, -0.031850252, 0.13890602, 0.10440775, -0.14733005, -0.19336678, -0.15365039, 0.042691976, -0.028533243, 0.12255835, -0.1907051, 0.0078405505, -0.18541928, 0.2116109, -0.15721802, -0.21586332, -0.011104484, 0.099151045, -0.046609685, -0.13419789, -0.17445663, 0.00719854, -0.058253895, -0.19447052, 0.123090856, -0.14024451, 0.11408839, 0.21423541, 0.075683534, -0.088581435, -0.02435254, 0.21186446, -0.02084478, 0.005129507, -0.06689728, -0.12730964, -0.15966512, 0.17406602, -0.015399293, 0.16872019, 0.010849883, 0.0691187, 0.08957455, -0.03477002, 0.037280977, -0.06457869, 0.16499685, 0.14535834, 0.02400066, -0.01543823, -0.08052781, -0.061394125, 0.15701576, -0.1491755, 0.08108476, -0.04979661, 0.042894367, -0.14825705, -0.07255398, -0.029504526, 0.20001896, 0.102584735, 0.10809768, 0.027764378, 0.12368443, -0.1580046, 0.07031709, 0.03283564, -0.0976036, -0.042784765, 0.0010990557, 0.035666175, 0.11434985, 0.06933467};
#endif

#endif
