//Numpy array shape (128,)
//Min -0.033732373267
//Max 1.004347443581
//Number of zeros 0

#ifndef LSTM3_H_
#define LSTM3_H_

#ifndef __SYNTHESIS__
model_default_t lstm3[128];
#else
model_default_t lstm3[128] = {0.003293023, 0.0002939109, -0.00094811706, 0.0008590836, 0.002409159, 0.0016649497, -0.00014568033, 0.0021495526, -8.0082e-05, 0.001132931, -0.00076322234, 2.3834718e-05, 0.0004462804, 0.0005128503, -0.00085090526, 0.0007770863, -0.0012088118, 0.0012838935, 0.0017468787, -0.0002327452, -2.9935725e-05, 0.0012119105, 3.0432343e-06, -0.00021932968, -0.0016218687, -0.000113096954, 0.0014586918, 0.0013807993, -1.0393062e-05, 0.0017023179, 0.00022895599, 0.0006424403, 1.0043474, 1.0002717, 0.99877024, 1.001096, 1.0029731, 1.002185, 0.99981475, 1.0031055, 0.9999394, 1.0014422, 0.99920464, 1.0000231, 1.000378, 1.0005136, 0.9994291, 1.000944, 0.99882084, 1.0016536, 1.0026135, 0.9998683, 0.9999973, 1.0015538, 1.000024, 0.99982405, 0.99855644, 0.99988425, 1.0018553, 1.0017055, 1.0000196, 1.0024289, 1.000294, 1.000805, -0.03137729, -0.0057579745, 0.0094607305, 0.011764504, -0.023445046, -0.017008904, 0.032262824, 0.039203074, 0.004406267, -0.03329889, 0.007363335, 0.0043153795, -0.007538485, -0.0070701144, -0.02836272, -0.014423335, -0.033732373, 0.010464981, 0.026775917, 0.016985841, -0.007347344, 0.02129113, 0.008573283, -0.024078604, 0.040192433, 0.0041418783, -0.023017377, 0.018426223, 0.0026087284, 0.03557406, -0.017819166, 0.01800246, 0.0034203772, 0.00029923327, -0.00097137614, 0.0009199501, 0.0022350957, 0.0018629413, -0.00014540978, 0.0024579596, -8.6405526e-05, 0.001154718, -0.00070496934, 2.4343863e-05, 0.00048887794, 0.0005237297, -0.00080631627, 0.00089297385, -0.0013184147, 0.0013763852, 0.0018894883, -0.00023447248, -2.9391273e-05, 0.0013695982, 2.143346e-06, -0.00023286711, -0.0015219623, -0.000111775626, 0.0015265394, 0.0014701979, -1.3186728e-05, 0.0019106378, 0.0001979548, 0.0006341194};
#endif

#endif
