//Numpy array shape (8, 32)
//Min -6.188086509705
//Max 6.931840419769
//Number of zeros 0

#ifndef LSTM_1_KERNEL_H_
#define LSTM_1_KERNEL_H_

#ifndef __SYNTHESIS__
model_default_t lstm_1_kernel[256];
#else
model_default_t lstm_1_kernel[256] = {0.574619472026825, -1.4241328239440918, -3.193302869796753, -1.1368484497070312, -2.0227670669555664, -0.0038154583889991045, -0.8233973979949951, -2.063601493835449, -0.31430062651634216, -0.9075721502304077, 1.670453667640686, 2.949352264404297, 0.562858521938324, -0.2154092788696289, -2.4709126949310303, -1.806165099143982, 0.7068902850151062, -0.3471543490886688, 0.732816755771637, -0.22164389491081238, 0.15955770015716553, -0.06747890263795853, -0.5207827687263489, -0.41778215765953064, 1.3965785503387451, -0.7522730827331543, 0.34551531076431274, -1.2055160999298096, 1.443128228187561, -0.6549206972122192, 0.18846946954727173, 1.5270025730133057, 0.24599522352218628, 0.6498152017593384, 0.21734941005706787, 0.16581879556179047, 0.7874262928962708, -0.8076152801513672, 0.27302122116088867, 0.12501080334186554, 0.5168601274490356, -1.221478819847107, 1.1296195983886719, 0.049431126564741135, 0.04289988428354263, -0.373879611492157, 0.6557583808898926, -0.5093827247619629, -0.11863299459218979, 0.003131225472316146, -0.615114152431488, 0.22353751957416534, 0.6725919246673584, -0.2731662690639496, 0.2341739684343338, 0.23756133019924164, 1.4092053174972534, 0.5874416828155518, 0.0023617930710315704, 0.49480146169662476, 0.9005217552185059, -0.3065813183784485, 1.2516019344329834, 0.09825481474399567, -0.21856680512428284, -0.5582711100578308, -0.468641072511673, 0.20965924859046936, -0.2653818726539612, -0.11931612342596054, 0.2779080271720886, 0.7547513842582703, -0.4541924297809601, 0.21271513402462006, 0.23129752278327942, -0.11384646594524384, -0.06979691237211227, 1.3828308582305908, -0.014848141930997372, 0.23171451687812805, 0.35715872049331665, 0.03983721882104874, -0.09346816688776016, -0.13997045159339905, 0.3726731240749359, 0.14166824519634247, -0.2834877371788025, 0.5458060503005981, -0.38777270913124084, -0.5144426822662354, -0.06717485189437866, -0.8857038021087646, -0.6331179738044739, -0.7672256231307983, 0.7679572701454163, 0.5054968595504761, 1.5185623168945312, 1.6611891984939575, -0.9093262553215027, -1.3745331764221191, -3.7534191608428955, -3.9105963706970215, 1.4957157373428345, 0.3756909966468811, -1.8846774101257324, -3.4540607929229736, 0.1807122677564621, 0.018725985661149025, 1.024200677871704, 3.1386616230010986, -1.7027256488800049, 2.871752977371216, 0.38499554991722107, -0.14849840104579926, 0.015590373426675797, 0.17231203615665436, 0.2477651834487915, 1.1301155090332031, -0.019350994378328323, 0.12722425162792206, 6.931840419769287, 0.2940492630004883, -0.6039510369300842, -0.8680068254470825, -6.18808650970459, 0.6244158148765564, -0.8500092029571533, -1.234935998916626, 0.3468363881111145, 0.21698035299777985, 1.0880801677703857, 0.10548567026853561, 0.38009998202323914, 1.2271844148635864, 1.2134578227996826, 0.9067788124084473, -0.8355453014373779, 0.2587457597255707, 0.49969086050987244, 0.22621504962444305, 0.0015329875750467181, -0.22766436636447906, -0.9434992074966431, -0.02441040799021721, 0.2199169546365738, 0.09642704576253891, -0.9372447729110718, 0.32753661274909973, 0.22794923186302185, 0.128368079662323, -0.3749421238899231, 0.06010489910840988, -0.6330847144126892, -0.4514206647872925, -2.7053017616271973, -0.4784548282623291, 0.5923827290534973, 1.1786692142486572, 0.13785845041275024, 0.9817432761192322, -0.3926678001880646, -0.174372136592865, 0.013696897774934769, -0.4626047909259796, 0.035463497042655945, -0.6665751338005066, -0.008107926696538925, 0.13658683001995087, 0.7159214615821838, 0.27134841680526733, 0.1768011599779129, -1.3986464738845825, -0.4885512590408325, -0.21083934605121613, -0.4800284802913666, 0.22102290391921997, 0.0809176117181778, -0.6254459619522095, 0.0016103970119729638, -0.3580705523490906, 0.06631908565759659, 0.4858681261539459, 0.40074610710144043, -0.06797714531421661, -0.3442481458187103, -0.004062168765813112, 0.5990007519721985, -0.2909863293170929, 0.9304763674736023, -1.297907829284668, -0.09920278191566467, -0.11692845821380615, -0.4087783098220825, 1.7270417213439941, 6.558719158172607, 0.44304561614990234, 2.265639305114746, -0.6062321066856384, 1.3972495794296265, 2.63370680809021, -1.4832043647766113, -2.6368260383605957, 1.4484905004501343, 1.2242311239242554, 1.226163387298584, 0.9522912502288818, 0.2655152678489685, 1.309945821762085, -0.23527486622333527, 0.56174236536026, 0.08802098780870438, -0.149516299366951, 1.0166583061218262, -0.2828257083892822, 0.1427096277475357, 0.13017822802066803, -0.24423526227474213, 1.813315510749817, -2.9620814323425293, 0.3112642467021942, -0.22715142369270325, -2.2769925594329834, 1.0457402467727661, 4.15924072265625, 2.112308979034424, 0.7307528853416443, 0.14541219174861908, -0.2362988442182541, 0.340981125831604, -2.050915479660034, 0.6787585020065308, -0.615135669708252, -0.7300447225570679, -0.623354434967041, -0.35579273104667664, 1.9060759544372559, 0.2237338125705719, -0.14135639369487762, 0.20129422843456268, -0.46940863132476807, -0.375909686088562, 0.3583027422428131, -0.10389292240142822, -0.3072119355201721, 0.45950618386268616, 0.0948820635676384, 0.05482256039977074, 0.5993686318397522, 1.8362938165664673, 0.2106950432062149, 0.6607868671417236, -0.13409583270549774, 0.2725888788700104, -0.7773817777633667, 0.5444210171699524, -0.2986675798892975};
#endif

#endif
