//Numpy array shape (4096,)
//Min -0.354166865349
//Max 0.308127731085
//Number of zeros 0

#ifndef LSTM_12_H_
#define LSTM_12_H_

#ifndef __SYNTHESIS__
model_default_t lstm_12[4096];
#else
model_default_t lstm_12[4096] = {-0.017077494, -0.022447815, 0.16641276, -0.12594889, 0.013275773, -0.013248745, 0.05845107, -0.06406544, -0.0033855422, 0.067923464, -0.0708063, 0.1276932, 0.047797047, 0.06050713, -0.06561629, 0.03469095, 0.11661932, 0.102145, 0.066069685, 0.015455931, -0.011588868, -0.0030384455, 0.054352425, 0.010021074, -0.022339629, -0.10189844, -0.006528027, 0.07392685, 0.06049738, 0.021861525, -0.117118366, -0.01728457, -0.0011751985, 0.072196454, -0.062877595, 0.18275146, -0.029148659, -0.13163689, 0.10783256, -0.10755276, -0.054930635, 0.03727948, 0.2042925, 0.03906196, -0.1954192, -0.015111299, -0.07749291, 0.019959724, -0.077211246, 0.2447843, 0.22043644, -0.01692905, -0.01484419, 0.02178617, 0.11207853, 0.037519507, -0.03538285, -0.10119391, -0.16109923, 0.031585112, -0.03660759, 0.0053459327, -0.014817611, -0.07501346, 0.11129341, 0.06326303, -0.16099049, 0.014761806, 0.11234166, -0.03596607, -0.20544644, -0.16954094, 0.10996117, -0.020161252, 0.07361104, 0.06595819, -0.017455567, 0.0032592646, -0.049623564, 0.04148215, -0.08232393, -0.088565476, -0.025514351, 0.0005781539, -0.023972347, -0.085620396, -0.0036231128, 0.16546486, 0.0035795302, -0.13773413, 0.08876953, 0.083352044, -0.07082488, 0.0796267, -0.030473854, -0.15397198, -0.09827407, -0.11923195, 0.038579818, -0.012761353, -0.02443635, 0.11233488, 0.07732553, -0.008692151, -0.1476483, -0.028435435, 0.019194374, -0.040723566, -0.12960547, 0.0055223336, 0.07049717, 0.03399875, -0.031554632, 0.056102835, 0.010877241, 0.005878598, 0.017667325, 0.18631949, -0.16103174, 0.007942841, -0.08635898, -0.07296752, -0.092967935, -0.13545623, 0.023345772, -0.106637225, 0.06801343, -0.06280325, 0.038163934, -0.10201564, 0.05874245, 0.027335567, 0.09142278, 0.08434905, -0.049117662, -0.041130397, -0.1713586, -0.009551237, 0.045556705, -0.097175375, -0.030238688, -0.067975104, -0.06299489, -0.103311285, -0.07316448, 0.00443968, 0.024341822, -0.0012998959, 0.026284272, 0.10861743, 0.034250107, -0.09754464, -0.12957181, 0.06690005, -0.08349799, 0.07104652, -0.15295048, 0.033288855, -0.046765186, 0.09968033, 0.00790733, 0.1631852, -0.01861241, 0.12148063, 0.056201506, 0.09839952, -0.047921382, -0.008699314, -0.03538857, -0.004943262, -0.014299024, 0.0013410372, -0.15719575, 0.16551405, 0.16793077, -0.007805384, 0.069453426, -0.03216772, 0.0032823915, 0.06625368, -0.054969527, -0.168939, 0.012958196, 0.040702306, -0.051437717, -0.17551477, -0.042119727, 0.009578787, 0.02218788, 0.092035696, -0.0027510528, -0.087969266, -0.009966606, 0.054915536, 0.086654946, -0.08923318, -0.053198885, 0.049049128, -0.038462408, -0.052362457, -0.02195785, -0.10658679, 0.16604358, -0.17814109, -0.10737344, 0.05522911, 0.13623747, -0.13940804, -0.0043178666, -0.016684242, -0.19079426, -0.01663502, -0.039583717, -0.0020525171, 0.16960624, -0.10272193, 0.1368575, 0.067060664, 0.16244254, -0.09425987, 0.15814936, 0.052424733, -0.03861064, 0.017721044, -0.038305808, 0.12682313, -0.058350187, 0.09068588, -0.10061994, -0.042074196, -0.07356603, -0.06454976, -0.040970277, 0.0021582318, -0.17790408, -0.04290458, -0.1386129, 0.15803437, -0.13795127, 0.030425118, 0.017130816, -0.11139155, -0.0026606193, 0.08216638, -0.052922327, 0.06946607, 0.07292459, -0.047504928, -0.08768078, -0.1158621, -0.05968992, 0.03748149, -0.048459936, -0.010105832, 0.16661684, 0.10494508, -0.037256286, 0.010506515, 0.026336938, 0.0029484571, 0.0029070692, -0.019886607, 0.040477008, 0.057896864, 0.079223834, -0.03239833, 0.07277143, -0.09557256, -0.058944065, -0.023919046, -0.044637617, -0.058014322, -0.03484851, 0.026854182, -0.016942153, -0.06939318, -0.1372571, -0.16349575, -0.002528506, 0.084027514, 0.0015196675, 0.093768366, -0.03200686, -0.10093409, 0.20108537, -0.06739728, 0.02136495, -0.057686806, -0.056191944, 0.13612509, -0.057102118, 0.040784556, 0.20674665, 0.11570877, 0.06773425, 0.08333675, 0.15588157, 0.20965159, 0.118730485, -0.2313539, -0.015978135, -0.031030122, -0.040688105, -0.07825072, -0.064203106, 0.09764191, 0.06749238, 0.2052539, -0.036666483, -0.086364865, -0.099126585, 0.033306148, -0.01662683, 0.07182265, 0.10044048, -0.09260606, 0.03716868, 0.04765038, 0.0066781617, 0.11737013, -0.027020134, 0.003928859, 0.08403842, -0.028145477, -0.08046263, -0.030367512, -0.044987813, 0.055241134, -0.016902283, 0.03355023, 0.024104794, -0.059545435, 0.0955488, 0.15269446, 0.01743864, -0.037976723, 0.040868785, -0.2015202, -0.13083689, -0.13145977, 0.07808507, 0.014430138, -0.10890423, -0.07430991, -0.050715476, -0.08991578, -0.02594189, 0.060965087, -0.098531134, 0.047084548, 0.022197861, -0.14942355, 0.047825683, 0.12257616, 0.13017866, 0.059679333, -0.011473919, -0.12628838, 0.046605032, 0.013957742, -0.03982594, 0.07565041, -0.09325855, -0.008325597, -0.029639244, -0.0020024343, 0.1463919, -0.058102738, 0.01839352, 0.023233773, 0.018428404, 0.08557301, -0.014904411, 0.19811082, 0.112083755, 0.13035764, -0.1698145, 0.017324878, 0.1562444, -0.09005996, -0.014223909, 0.10731739, -0.09761478, 0.050357647, -0.026811909, 0.0608096, 0.08997302, 0.09460873, 0.025551712, 0.017975584, 0.10655217, 0.025541028, -0.01979439, 0.061158974, 0.123831995, -0.06698053, 0.16323106, -0.0024356705, 0.07254824, 0.01821952, -0.011830061, -0.08842221, -0.030111147, -0.057978064, -0.058499567, 0.030404892, -0.050092112, 0.0038759452, 0.0047224085, 0.09382108, 0.09199301, 0.0065206154, 0.015989352, -0.0038187276, -0.09455789, -0.013475892, 0.09231811, 0.007664137, -0.17343813, 0.018967738, 0.16032325, 0.16803055, 0.06474959, -0.055756856, -0.048781566, -0.03490551, 0.0041193175, 0.037956383, 0.16250218, 0.07970501, 0.008896965, -0.076538935, 0.024482261, 0.11853291, -0.02030327, -0.010082083, 0.09747262, 0.10787979, -0.056534227, 0.08923758, 0.03265267, 0.0813291, -0.20635362, -0.12712474, -0.045020726, -0.019182954, -0.07536545, 0.06559006, 0.18324813, -0.07300567, -0.08806561, -0.15003984, 0.12026215, 0.06023932, 0.027129553, 0.06098741, 0.0016586037, -0.05043962, -0.12801108, -0.06959337, -0.07977735, 0.05627569, 0.12012408, 0.08043651, -0.08509148, 0.117226906, -0.1297488, -0.044771384, -0.00707, -0.118601054, -0.092507765, -0.08997294, 0.05353715, -0.041779213, -0.07442482, 0.15522894, 0.16458748, -0.12180234, -0.05210992, 0.048395883, -0.015215453, 0.09611128, 0.056523383, -0.06304225, -0.10497576, 0.008646746, 0.045127597, -0.055201422, -0.03819818, -0.04037914, -0.07473723, 0.078078926, 0.0024371492, 0.1540219, 0.019754954, -0.23718937, -0.2166622, 0.05453173, 0.11683014, -0.02491502, -0.097676806, -0.0056619653, -0.09731932, -0.08640865, 0.1810659, 0.09705418, 0.02238528, -0.0011394729, 0.11039744, -0.099632144, 0.047491685, -0.09903456, -0.059998583, 0.053136952, 0.15722045, 0.11894551, 0.09615213, -0.10209324, 0.025892625, -0.013199009, 0.017299917, -0.019357134, 0.10250689, -0.06726966, -0.053733427, -0.04663062, 0.016456591, 0.10072963, -0.009442362, -0.010111725, -0.029427035, -0.052361853, -0.045848362, -0.041492414, 0.0738101, -0.034378793, 0.033637818, 0.14557108, 0.012790092, -0.06474256, -0.018922167, 0.061305866, 0.07356754, 0.036691763, -0.0032631818, 0.23544753, -0.1473064, -0.040107466, -0.057689536, -0.014528031, -0.15673682, -0.107515685, 0.115401424, 0.037655257, -0.14793056, 0.010790871, -0.070259064, 0.02318455, 0.110215485, 0.07435948, 0.13765651, 0.008231052, 0.05682484, 0.056745097, 0.010089289, -0.0022163503, 0.15180069, -0.0031964858, 0.032409724, -0.00046587747, 0.11425481, 0.15135862, -0.035704557, 0.06706076, 0.2251667, -0.036003724, -0.11133136, -0.035795666, -0.12323885, -0.1995228, 0.16112287, -0.012385807, 0.03165097, -0.057989363, -0.024152499, 0.013906393, -0.083982535, 0.07296312, 0.13759623, 0.17101905, -0.00517478, 0.10247009, -0.095225014, 0.009177527, -0.121389434, -0.065330066, -1.8964623e-05, 0.05098581, 0.06636062, 0.062460754, -0.109021194, 0.11637168, 0.028959613, 0.030468406, -0.0059926216, 0.09976849, -0.04064206, -0.0033925807, 0.04529194, -0.1915974, -0.026294498, 0.06583277, 0.046020404, 0.17668302, 0.16079895, -0.098770835, -0.0014746115, 0.057213318, 0.14355522, -0.02469333, -0.059417944, 0.07881157, 0.07346218, 0.01713204, 0.07909619, 0.14656481, -0.0140924845, 0.0038763299, 0.027149223, -0.014012222, 0.09823339, -0.038938858, 0.07805935, 0.088534504, -0.028263072, 0.2519345, 0.0609957, 0.028751926, -0.06846683, -0.020658484, 0.08576568, 0.101565406, -0.008720458, -0.17282365, -0.013449893, -0.13544941, 0.05954735, 0.015642112, -0.03275846, 0.0700709, 0.050338797, 0.035462707, 0.021437341, 0.058802355, -0.008655445, -0.028970413, -0.094138294, 0.086704716, 0.009706881, 0.072280206, 0.06064885, 0.12948911, 0.06823003, 0.10324296, -0.08393994, 0.087908074, -0.052579414, -0.15248486, -0.14335135, -0.031283855, 0.049568698, -0.0017457966, 0.04568737, -0.06782869, -0.17732449, -0.011913673, -0.21831873, 0.0011020727, 0.032091316, 0.104067944, 0.05232117, 0.07365948, 0.050667945, 0.06876418, 0.069307484, -0.001987331, -0.12277214, 0.063356206, 0.10081772, 0.15382835, -0.021655798, -0.0039199265, 0.0041477764, -0.11341445, -0.024473278, 0.05589508, 0.19408701, -0.031566646, 0.124064796, 0.041165806, 0.060045164, -0.017547157, -0.0030268945, 0.0052079987, 0.036002897, 0.022453826, 0.1099739, -0.015317248, 0.08931063, 0.060110964, -0.086774826, -0.026436958, -0.12127938, -0.05628979, -0.03842273, 0.029091116, -0.16837077, 0.06513984, -0.17910671, -0.03371899, 0.0881838, 0.007668792, -0.054833956, -0.17521387, 0.06510214, -0.008692982, -0.05741021, -0.13599218, 0.037345022, 0.05941571, -0.07428614, 0.028604355, 0.11774437, -0.13674052, 0.07935727, -0.1060647, -0.09538911, 0.1388466, 0.048572484, 0.08448781, 0.08361606, -0.0903311, 0.11429955, 0.07355179, 0.041831233, 0.09401836, 0.08484526, -0.05732113, -0.14575174, -0.19415188, -0.099691376, -0.07228602, 0.12161271, 0.11475467, 0.033478685, -0.10448726, 0.003598813, -0.03676355, -0.038784225, -0.20721771, -0.09443796, -0.1264697, -0.06976496, 0.04683757, -0.013493651, -0.06253896, -0.013975907, -0.08802341, -0.09113117, 0.026821902, 0.16398288, 0.09373369, -0.030099943, -0.16740195, -0.038905617, -0.034120414, 0.13090898, -0.07219827, 0.07293354, 0.012777746, -0.20227872, 0.006575273, 0.06783268, 0.0318194, -0.10417725, 0.019387906, 0.03662399, -0.103603244, -0.0900926, 0.20362112, 0.06306133, 0.057447493, 0.015498184, 0.20399545, 0.012446822, 0.013692762, 0.06448722, 0.07288003, 0.034127884, 0.022368953, -0.0136135295, 0.046699848, 0.1782716, 0.0449162, 0.10133865, -0.1269028, -0.027321044, -0.027137598, -0.037963253, 0.043820374, -0.13837884, -0.14318492, -0.07544511, -0.024509924, -0.053767834, 0.006892322, -0.010304611, 0.0093020825, 0.0074696345, -0.096408255, -0.029537382, -0.08126261, -0.046806153, -0.09572107, 0.022498231, -0.15973158, -0.14033513, -0.016124623, -0.048272632, 0.046968546, -0.026585242, -0.0493358, -0.07434184, -0.111453086, -0.004302547, 0.15034992, -0.043081816, -0.014264997, 0.03139398, 0.06181106, -0.08833522, -0.09779465, -0.0053598736, 0.044558134, 0.16755377, -0.21329768, 0.031181984, 0.14404283, -0.005634066, -0.044766404, 0.0022957649, 0.047474623, -0.052642796, 0.060497846, -0.05305739, 0.0015948619, 0.059608676, -0.019241657, 0.051954366, 0.047183786, -0.020984149, 0.059276998, -0.09786441, -0.05465053, -0.02920328, 0.04538302, -0.040125903, 0.0510088, 0.021747602, -0.21872528, -0.011021522, 0.04001503, -0.14898998, 0.0325719, -0.062237293, 0.077713065, -0.03416998, -0.029374966, 0.08931662, -0.09823981, 0.0033432439, 0.035608895, 0.14559127, -0.19705592, -0.05827934, -0.17931822, -0.04475502, -0.13875096, 0.034924664, -0.1907579, 0.06902045, 0.0075472947, -0.10209835, -0.1700252, 0.018107174, -0.079302356, -0.0778318, 0.12415332, 0.06813574, -0.099265106, 0.04662664, -0.09088863, -0.048389096, 0.053193774, -0.09694182, 0.006998098, 0.037990432, -0.14223737, 0.15009245, 0.0037849115, -0.1832865, -0.09272418, 0.0044270772, -0.011530902, 0.076850444, -0.12230455, -0.037230834, -0.12857682, -0.12816842, -0.0074737105, 0.017020827, 0.070769444, -0.1202566, -0.07049992, -0.037573587, -0.11050208, 0.099605314, 0.009766575, 0.0054234494, -0.09275294, -0.035448544, 0.19173059, -0.19385414, -0.05455789, -0.026321761, -0.0488489, 0.011356632, 0.05735402, 0.010822813, 0.068610094, 0.010719118, 0.07874235, 0.086488105, -0.0611102, -0.035929352, 0.022094635, 0.024072926, 0.0492194, 0.10789746, 0.114008084, 0.070121236, 0.055366598, 0.078873955, -0.0036979713, -0.034890104, -0.1597476, 0.06968255, -0.09266136, 0.04069343, -0.102892146, -0.10820284, -0.017133193, -0.03432746, 0.1636921, -0.09613709, -0.109512724, 0.05618634, 0.20432942, -0.0102085145, -0.12747629, 0.036690917, -0.09805723, -0.008039129, -0.0069368365, -0.05703302, 0.16333708, -0.13702017, 0.12988293, -0.002528481, 0.08489955, -0.056206822, 0.1342956, -0.04081767, -0.09637695, -0.026669994, 0.12344182, 0.04040307, -0.010042, -0.073238604, -0.14868285, -0.009138778, -0.055912703, 0.008557387, -0.0542455, -0.05725162, 0.05274336, 0.032455765, 0.06084543, 0.011381356, -0.0775975, -0.016288877, 0.07224421, -0.112008795, -0.013155478, 0.036316045, -0.013138358, 0.17838806, -0.004868539, 0.056702055, -0.01868707, -0.04803267, -0.11505419, 0.21015257, -0.0017639389, 0.02347476, 0.10378407, -0.029284336, 0.017674487, 0.060863104, -0.082293026, 0.044660985, -0.007962015, 0.29883924, 0.026853088, -0.07826759, 0.10518262, -0.004028729, 0.08422613, 0.06655261, -0.0025868025, -0.058159597, 0.14550084, -0.010616519, -0.035892412, -0.06483567, -0.04691824, 0.06434827, 0.081729114, 0.08465399, -0.06582541, -0.09660224, -0.1000121, -0.08487368, -0.10950305, 0.04028226, -0.019436385, 0.0036599792, -0.039796058, 0.046020754, -0.13097705, 0.05111128, -0.01817005, 0.09020801, -0.04074839, -0.19751549, -0.026753819, 0.02214166, 0.021588668, -0.10039015, -0.00091392116, -0.046343904, 0.06940964, 0.036474, -0.08321739, -0.008118549, -0.034344386, 0.02756884, -0.14571865, 0.010135164, 0.034015335, 0.19383778, 0.11485871, -0.13151897, 0.04210887, 0.046793584, 0.03223371, -0.14593399, -0.17082435, -0.015666148, -0.046513423, -0.01837796, 0.041920975, 0.17096101, 0.00052844104, 0.10929008, -0.07889523, 0.0618267, -0.06130313, 0.014459964, -0.12055142, -0.14182445, 0.115233324, -0.06435266, 0.11419628, -0.08162239, -0.203813, 0.009625451, 0.052152157, 0.06834202, 0.024031576, -0.081266716, -0.09135827, -0.079730034, 0.00096021453, 0.07857038, 0.017023342, -0.08899446, 0.037969008, -0.11013358, -0.04875966, 0.16955161, -0.085273564, 0.011346983, 0.123058476, -0.073748186, 0.09730219, -0.1753654, 0.023942798, -0.01383529, -0.01410437, 0.008481418, -0.10981559, 0.023480847, 0.007004481, 0.083105564, -0.16765341, -0.056332164, -0.057895772, 0.06022185, 0.08062924, 0.051541716, -0.059840538, 0.020503975, -0.05667454, -0.09218686, -0.04813903, 0.061761674, -0.04529556, 0.14642704, 0.09411225, -0.03384839, -0.13606249, -0.113532126, -0.05938576, 0.059616767, 0.0023441913, 0.148922, -0.07179729, 0.30812773, -0.087495446, 0.08026796, 0.023415739, -0.035173014, 0.008959982, -0.06756231, -0.0752429, -0.036174428, 0.07456623, 0.04712278, -0.00029341484, -0.03246694, -0.13165566, -0.035574883, -0.052017774, -0.0029685178, -0.182891, 0.1550949, -0.0105628045, 0.102166265, -0.11766447, -0.061406434, -0.026317006, -0.15782064, 0.10306869, -0.027092572, -0.10302768, 0.011588941, 0.069389634, 0.09670016, 0.10627763, 0.077432856, -0.088878244, -0.08370828, -0.031425558, -0.032764718, -0.026265671, 0.053885356, 0.004597417, -0.1406501, 0.1287426, 0.058793984, -0.059317097, -0.06098434, -0.043027066, -0.00034595918, -0.16190198, -0.09001607, 0.03730173, -0.005379693, 0.039430466, -0.060335215, -0.000670719, 0.11675578, 0.086040094, -0.051316556, 0.13789874, -0.060905263, -0.09956939, -0.07212784, 0.08573029, -0.020291466, 0.124241754, -0.004518525, 0.003557919, -0.031393636, -0.024113216, -0.027389953, 0.067164466, -0.11173681, -0.07302536, 0.016811786, -0.03803894, 0.102649175, -0.006816577, 9.685466e-05, 0.09731113, -0.13757068, -0.19660074, 0.053351026, 0.014044047, -0.012605354, -0.05600856, 0.07804699, 0.027113682, -0.107865416, -0.023182997, 0.011471696, -0.064557806, -0.24375613, -0.010929296, 0.13962556, -0.08981711, -0.063984215, 0.030400738, 0.25468013, 0.04505803, -0.040927615, -0.13186353, -0.13634303, -0.060044665, -0.022822158, 0.1289049, 0.15963693, 0.021294665, -0.06606317, 0.120139115, -0.025290608, 0.07610415, 0.090872414, -0.0078621395, -0.04851095, -0.16075622, -0.039196208, 0.058139045, 0.049259298, -0.07603992, -0.11245052, -0.1051955, 0.17812468, -0.08221972, 0.11510275, 0.12306473, 0.009075326, -0.11293927, -0.10716584, 0.06805826, 0.08357495, -0.022456557, 0.13362214, -0.01641264, 0.20779966, 0.11460849, -0.016245028, 0.06818287, 0.061563794, 0.019473046, 0.034924, -0.078269914, -0.14691515, 0.07055523, -0.025131037, 0.009696268, -0.032593172, 0.0066439365, 0.17274328, -0.032699924, -0.003193837, 0.00016328903, 0.079180084, 0.07037521, -0.09875988, -0.03367517, -0.084089905, 0.03214237, -0.15362109, 0.13196647, 0.000823066, 0.09460658, 0.10709084, 0.040445924, 0.13091424, -0.05275238, -0.035755947, -0.22611949, 0.028607717, 0.0054466226, -0.03201211, -0.10177462, -0.05070425, 0.0956638, 0.12640554, -0.0880902, 0.12110434, -0.017368987, -0.009400818, 0.04435693, 0.06934488, -0.027593499, -0.14712165, -0.030406535, 0.112691194, 0.06509788, -0.11716403, -0.010234383, 0.04538917, -0.017252365, -0.15361688, 0.07545593, 0.078544244, 0.03753331, -0.013915968, -0.005107121, -0.041282896, -0.025575269, -0.0493833, -0.114447206, -0.022930881, 0.051359743, 0.082876384, -0.00032437753, 0.047424387, 0.043127414, 0.09459783, 0.005143179, -0.06688385, 0.04799734, 0.1710557, 0.015193516, -0.09692783, 0.07659813, 0.048001777, 0.062811814, 0.11895718, -0.19390038, 0.122256815, 0.008715974, 0.23634446, -0.00024526456, 0.076652795, -0.023331173, 0.12246694, 0.07408391, 0.033105884, 0.031584322, -0.0788725, 0.07884613, 0.06127075, 0.23550664, 0.10914303, -0.015164429, 0.07479591, 0.043651972, 0.10186919, -0.00028840388, -0.07582035, 0.11407758, -0.041527234, -0.09569743, 0.09792074, 0.18848474, -0.112629026, 0.06386405, -0.046087928, -0.06771667, -0.00070566265, -0.09954815, 0.10668165, 0.14685741, -0.07456088, -0.10364162, 0.0096172225, 0.020140268, 0.0417979, 0.059320834, 0.0731244, -0.13067058, 0.0351746, -0.019103654, 0.0126881935, 0.063897, -0.04351698, 0.052288376, 0.007770271, -0.13880622, -0.038418695, -0.101205386, 0.04421384, -0.07195225, -0.063393615, 0.025326483, 0.08961161, -0.015009468, 0.09683495, -0.0621621, 0.06544011, 0.003518771, -0.044061825, 0.04468805, 0.06315238, 0.017192613, 0.16103707, -0.033862427, -0.08017031, -0.061293036, -0.08372277, -0.038122986, -0.030671999, 0.09227344, -0.0407025, -0.052019328, -0.11757363, 0.13803037, 0.0066811205, -0.057259686, -0.099709615, 0.009117521, -0.04069079, -0.012986546, 0.015101237, -0.0626735, 0.02106758, 0.07424883, -0.072895825, -0.14904365, -0.009838061, 0.03133048, -0.12590766, -0.03018345, -0.030485416, -0.058462918, 0.033189766, 0.073145054, -0.12854439, -0.038007535, 0.06249778, 0.03292423, -0.20238487, -0.0148553355, -0.0017379617, -0.35416687, 0.055572078, -0.06947609, 0.05024373, -0.196958, 0.05721678, -0.1542845, 0.080699064, -0.12156642, -0.0685648, 0.16000526, 0.097201824, 0.00894329, 0.022922553, 0.1329726, 0.06817934, -0.05774986, 0.006926105, -0.0026071337, 0.0083863, -0.023862416, -0.11979733, -0.0929681, -0.03828135, -0.09802866, 0.05890408, -0.16179262, 0.11299448, -0.0373604, -0.02456986, -0.029054815, -0.03316476, 0.04015045, 0.060710263, 0.08129134, -0.08401431, 0.051257305, 0.006708099, 0.1477477, 0.09946343, -0.06230448, 0.1449117, -0.044299383, 0.07747874, -0.058189232, -0.19663906, -0.014964665, 0.049119607, -0.035931494, 0.20752081, 0.123618774, 0.017298978, -0.12930192, -0.1080843, 0.16005406, -0.12246293, -0.00480164, 0.062136132, 0.0027216766, -0.04608329, -0.06463728, 0.048368543, 0.08255721, 0.057108525, 0.09081994, 0.04364414, -0.11614855, -0.077775456, -0.007692095, 0.021866059, 0.012154017, -0.048698183, 0.06895126, -0.045164693, -0.10775208, -0.032403633, 0.16007191, 0.13773799, -0.015595143, -0.096379295, -0.073297, -0.019743327, -0.04871826, -0.04877762, -0.041613027, 0.070734665, 0.09156863, -0.017826976, -0.017426671, 0.07009073, -0.062094294, 0.044269077, -0.15832768, 0.032002263, 0.024797278, -0.033181246, -0.14332604, -0.030551992, 0.1592618, -0.05607975, 0.0767111, -0.06445456, -0.04981512, -0.11453894, 0.023803148, 0.087045625, -0.06300896, 0.021733738, 0.036897417, 0.09776412, 0.053327326, 0.052677345, 0.081021115, -0.002511681, -0.2815685, 0.14693667, 0.07227695, -0.09813724, 0.00019630742, -0.03886184, 0.01758728, -0.006055576, -0.16161855, -0.019404734, 0.076665476, 0.07878996, -0.018597955, 0.0063930717, -0.14065273, 0.044583786, -0.12459815, -0.14785704, -0.17946933, -0.0058560576, -0.0002795646, 0.06239364, -0.03950083, -0.04328554, -0.13909887, -0.15078227, 0.09132247, -0.0893092, 0.04164367, 0.06109336, -0.060672004, 0.012176791, -0.023047594, -0.1453807, 0.05914002, 0.10963468, 0.019795477, 0.12701802, 0.037192903, 0.040078435, 0.04081721, 0.025733575, -0.09654026, 0.232369, -0.024130447, 0.062005326, -0.1482503, 0.1403758, -0.16255575, -0.11083406, -0.07700507, -0.09793918, -0.06733924, 0.112255774, -0.161203, -0.05501165, 0.13641657, -0.09267235, -0.050067287, -0.10400752, -0.040968567, -0.0016673931, 0.06691963, -0.007158324, -0.058063243, -0.10146405, -0.0098470235, -0.05179122, -0.05135425, -0.06655346, 0.07602682, 0.10836024, 0.00021026563, 0.07092695, -0.046075575, 0.14347316, 0.0037102534, 0.09899289, -0.0048945798, -0.1383176, 0.07008812, -0.13771829, 0.016378034, -0.10452989, -0.07423073, -0.039418254, 0.08848046, 0.08350964, -0.0357858, 0.0239912, 0.06604298, -0.040852897, 0.15873878, -0.014595789, 0.07676574, 0.01276678, -0.03511227, -0.002095171, -0.052644756, -0.06636222, -0.04035214, -0.018465206, 0.055467192, -0.1574529, -0.16144475, -0.018032173, 0.02160232, -0.07729936, -0.09123569, -0.013985458, -0.050413977, 0.003048975, 0.048661366, -0.0033611276, 0.06257267, -0.069437474, 0.13223632, -0.15917435, -0.16387977, -0.10459048, 0.10199813, -0.03061255, -0.02533244, 0.09260858, 0.07676837, 0.070281655, 0.090228535, 0.11882408, 0.09950288, 0.062183432, 0.05453544, -0.10042719, 0.050548755, -0.12014487, -0.1066616, -0.23404042, 0.06834559, -0.038818516, -0.017305197, -0.09249473, -0.037716035, -0.060430173, 0.051970497, -0.03932025, 0.10480461, 0.02134687, -0.014139036, 0.012777845, 0.013711889, 0.11663358, -0.046623174, 0.20566103, -0.0538381, 0.1602656, -0.011524965, 0.052437026, 0.03291069, 0.11208167, 0.1919269, 0.11165151, -0.17968695, -0.096424825, -0.031998724, -0.056146488, -0.070766725, 0.10184081, 0.045473766, 0.034474384, 0.04432757, -0.17157868, -0.112198934, 0.06430919, 0.03641426, 0.01656189, 0.13803841, 0.010523062, 0.008877205, 0.0026062953, -0.027259346, 0.0040767766, -0.056992523, 0.016498785, -0.11418633, -0.079194866, 0.120516196, -0.012739522, -0.015064469, 0.082568556, 0.06465935, 0.13027975, 0.07202024, 0.124200284, -0.016728759, 0.08297436, 0.08751671, -0.060707603, -0.08778173, -0.07445607, -0.21800889, -0.114206366, -0.03768078, -0.061289556, -0.023362111, 0.11810493, -0.013654054, 0.019160254, 0.11706454, 0.15836196, -0.102354206, -0.004511929, -0.089967445, 0.026698189, 0.08492709, -0.051432993, -0.055260625, 0.103859685, -0.0082161715, 0.029918674, 0.14014025, -0.19529828, -0.09681649, -0.1189161, 0.124805085, -0.006699142, -0.021114908, 0.23417957, -0.043923948, -0.032019485, -0.085215375, 0.08978707, 0.11164304, -0.11552778, -0.012072632, 0.027708815, 0.04373474, -0.10658722, 0.13531065, -0.028573474, -0.043408703, -0.03692781, -0.040940125, 0.104873486, -0.0013910901, 0.1322179, 0.021959, -0.061511785, 0.036796805, -0.04531601, -0.0008006916, 0.030965785, 0.0980799, -0.11818151, -0.021339167, -0.039707262, -0.01068276, 0.006361448, 0.059017733, -0.08292709, 0.07036461, -0.07900723, 0.14273809, 0.18065521, 0.07955987, 0.028775234, -0.08592679, -0.024532484, -0.027030628, -0.023827398, -0.02992352, -0.042122386, -0.054413937, -0.07700666, 0.038607184, 0.02668654, 0.03135193, -0.011301191, 0.060770124, 0.1645442, 0.061113294, 0.06801481, -0.08413831, -0.042631604, -0.096352704, -0.1374032, 0.25665143, -0.1390067, 0.0038460295, -0.042674012, 0.034074124, -0.09961509, -0.09178302, -0.06737649, -0.054598596, 0.13243596, 0.1017406, -0.088444315, 0.111107565, 0.07726488, 0.08035371, 0.0114933755, -0.06650785, -0.06049119, 0.0677331, 0.07572253, -0.106615104, 0.06960952, 0.1812492, 0.05154945, -0.029036116, -0.0008132465, -0.05316044, -0.045193866, -0.020710481, 0.06646055, -0.055757664, -0.09570918, -0.14641064, -0.084493294, 0.04243182, -0.06482455, -0.029697552, 0.0037620363, 0.028899815, -0.07510861, 0.10335125, -0.020670993, -0.14985394, 0.19907899, 0.03379933, -0.08358013, 0.1609249, 0.02508291, 0.0024070467, 0.1405148, -0.17056142, 0.041627474, 0.1379344, 0.18443355, 0.17027242, 0.118504554, 0.06826366, -0.048186082, 0.10008678, 0.064286426, -0.14211243, 0.08789385, -0.0678231, -0.12342974, -0.12114626, 0.19779412, -0.051737357, -0.12719126, 0.021221312, -0.08184239, -0.024357727, 0.054423023, 0.067956895, -0.15507323, -0.06663912, -0.1216269, -0.030654088, 0.009926103, -0.050885856, -0.16218534, 0.08064942, 0.15697421, -0.005358891, 0.06840948, 0.06777194, 0.09541942, -0.019627716, 0.051910114, 0.0099458285, -0.11799644, 0.012059233, 0.085061386, 0.017138656, 0.14646077, 0.0805529, -0.13831131, 0.0309614, -0.006619528, -0.22603534, -0.09326424, 0.035971023, 0.15770139, -0.09778092, -0.07542934, 0.02285466, 0.058705933, -0.023392012, 0.059611857, -0.05820739, 0.012268201, -0.074650384, -0.07543348, -0.0043406906, 0.086129025, 0.020427136, -0.12259404, -0.039741997, 0.15461284, -0.10782009, -0.015150626, -0.026848959, 0.038542267, 0.051596515, 0.080490105, -0.09903214, -0.056125395, 0.043471023, -0.06861697, -0.20893069, -0.047154997, 0.072369225, -0.12773484, -0.10926587, 0.056621067, -0.0014938749, -0.059664693, 0.10642609, 0.002305069, -0.01662513, 0.0405779, 0.0405238, 0.02185926, 0.061970893, -0.07785328, 0.13402312, -0.09408925, 0.14556132, 0.0012046177, -0.0058007417, -0.23416017, -0.120948434, -0.0039690533, -0.0021528595, -0.07378855, -0.056182798, -0.013181711, -0.06984256, -0.0779876, -0.07268055, -0.05557354, -0.114070065, 0.08820466, 0.08654952, -0.038202442, 0.029832546, 0.042311754, -0.023359437, -0.038676653, -0.08192263, -0.0621321, -0.026119392, -0.028468201, -0.07253082, -0.07448013, -0.03429438, 0.15287265, 0.059058335, -0.088949054, 0.0041267984, -0.06923358, -0.010983815, -0.010914577, -0.11062821, 0.16288647, 0.06741361, -0.041297037, -0.023374874, -0.065401345, 0.011336854, 0.12745284, 0.006420743, -0.04534478, 0.025194973, 0.049408644, -0.07960366, 0.06845554, 0.029531926, 0.017297136, -0.09644965, 0.03458489, -0.08113087, 0.046199117, 0.02695466, 0.014468831, 0.10702214, -0.06646515, 0.03580362, 0.17329627, -0.15815149, 0.13339049, 0.030762058, 0.012810279, -0.0585949, -0.15526266, -0.10173913, -0.1307532, 0.0025526467, -0.09069953, 0.01842978, -0.1115852, 0.013721956, -0.12307991, 0.14861113, -0.0013289591, -0.042658865, -0.114637, -0.15771294, -0.039409816, 0.062174752, 0.026475238, 0.07566474, -0.09657171, -0.04762797, -0.20638181, -0.0037819466, 0.010569188, 0.0063229087, 0.13664491, 0.0022944226, -0.19547096, 0.006884604, -0.0074249944, -0.032326475, -0.11242207, -0.010506323, -0.06866694, 0.013812771, -0.07396481, -0.04110845, -0.20538218, -0.03370187, 0.05593084, 0.046409335, -0.01570205, 0.15456007, 0.0021483751, -0.017295022, -0.111353606, -0.07621651, -0.12832186, -0.13807493, -0.23155928, 0.056690264, 0.10262181, -0.11773548, 0.034682702, 0.06922427, 0.093285434, -0.0153621165, -0.11790742, 0.09801715, 0.038158238, 0.106114745, 0.20417012, 0.05714825, 0.095372744, 0.13865139, 0.07730326, 0.0005735336, 0.004645767, 0.0059785526, -0.037669197, -0.061741546, -0.06610457, -0.0216231, -0.0963008, -0.17329997, -0.034867804, -0.0026766935, -0.028849619, 0.038447026, -0.091390155, -0.05263801, 0.035175297, 0.0731797, 0.003289176, 0.07222444, 0.14805344, 0.06864782, -0.0052983253, 0.04605688, -0.14895551, 0.07855237, -0.034331907, 0.06533893, 0.07482311, -0.010219427, 0.014412709, 0.14110167, 0.017956857, 0.06216292, -0.1649497, 0.0437238, -0.060647838, 0.19760278, -0.08484157, 0.05047849, -0.10943728, -0.10658848, -0.07007345, 0.2116677, -0.13617045, 0.03292949, -0.032546278, 0.218609, 0.09968562, -0.00887545, 0.010570327, -0.11164698, 0.09818573, -0.008857566, 0.09018071, 0.24282625, -0.082959965, -0.122603714, 0.10668553, 0.099251896, -0.011072499, 0.019661196, -0.02650818, 0.016377725, 0.036366783, 0.118327975, -0.073434055, 0.058878038, 0.03697716, 0.0072973357, -0.13942653, 0.031419665, 0.09018893, 0.07589168, 0.0074081495, -0.07772006, -0.14012155, 0.13370846, -0.00021692953, -0.116941765, 0.08244677, 0.039638348, 0.024915786, 0.032154318, 0.1038169, 0.07608442, -0.10099763, -0.0066168555, 0.09700374, -0.04536224, 0.023280637, 0.09933458, -0.048635226, -0.006209982, -0.013166675, -0.07080753, 0.062431127, -0.0944405, -0.084559284, 0.1361778, -0.057143167, 0.023859162, -0.0348399, 0.10773287, 0.0880552, -0.047873292, -0.088208675, -0.10613697, -0.034177773, 0.0384224, -0.15775472, -0.12599352, -0.08906813, 0.074641824, -0.06689329, 0.100413695, 0.13915798, 0.1249483, 0.028106073, -0.062055048, 0.1327577, 0.016057417, -0.17369905, 0.083198816, -0.06684868, 0.017445574, 0.19096234, -0.06159532, 0.00912274, 0.06539713, -0.0027119208, -0.07881243, 0.04272137, 0.0687167, -0.049367145, -0.10552434, 0.00967556, 0.09557381, -0.037493825, 0.11736272, 0.13276045, 0.10783345, 0.059912983, -0.034007706, 0.12294918, 0.03628367, 0.021343242, -0.048675366, -0.07165874, 0.043661494, -0.0027737278, 0.0080603305, 0.07399839, -0.10016509, -0.020106964, 0.11187764, -0.047937185, -0.047701865, 0.008930167, -0.03537819, 0.07171344, 0.012681514, -0.08577342, 0.13528943, -0.11863927, 0.028884197, -0.02563552, -0.13790664, -0.08549825, 0.035169076, 0.15070513, 0.02263058, 0.0008967701, 0.19390501, 0.1781841, 0.15615341, 0.055668727, 0.008560995, -0.010777135, -0.10224831, -0.10298147, 0.04813621, -0.11305396, -0.077187344, 0.22129063, -0.00626549, -0.063626476, -0.025661778, -0.024092274, 0.09633483, -0.024720754, 0.007584338, -0.086306415, -0.035179343, 0.075490825, 0.0098630125, -0.03369351, -0.023896752, 0.12442039, -0.099765606, -0.070428714, 0.05294116, 0.11324689, 0.09710711, 0.023273345, 0.018131036, 0.01317014, -0.0056022094, 0.10318722, -0.09267223, -0.04947142, 0.17127909, -0.16094743, 0.0054536886, -0.076913215, -0.11873159, 0.08616559, -0.029091487, -0.0039022786, -0.010350288, -0.058280002, 0.14180471, -0.05877076, 0.12091703, -0.04559799, -0.025334643, -0.13674484, 0.029634073, 0.0510844, 0.053484347, -0.114831984, 0.02020413, 0.090340614, -0.062143434, 0.101211555, -0.036528543, -0.09686727, -0.0743585, -0.05832055, 0.042617567, -0.10808729, -0.11389584, -0.06916181, 0.029248064, 0.08862893, 0.05894733, 0.04830034, -0.12853466, -0.14181338, 0.20176947, -0.14597839, -0.076752275, -0.04677854, -0.05766385, -0.0482014, 0.047534812, -0.032464452, -0.06365432, 0.07362085, 0.09928201, -0.02336045, 0.084987395, 0.17941567, 0.090209946, -0.14058518, 0.046674673, -0.07073239, -0.017827064, 0.08348352, -0.1114962, -0.00014629067, -0.09061409, -0.14234737, -0.12107644, -0.09989702, 0.05162031, 0.00578861, 0.048501, 0.13944872, -0.058506407, -0.013656299, -0.13871329, -0.1153209, -0.04403907, 0.0048835217, 0.044300057, -0.04270806, 0.036042463, 0.15812197, -0.037267923, -0.03592269, -0.14104548, 0.04522962, -0.23511867, 0.010744056, 0.049552925, 0.08154106, 0.00048260015, -0.033823933, 0.0916226, 0.015299382, 0.009871704, -0.046285182, 0.13252115, 0.0043935007, 0.04259138, 0.2018348, -0.014618922, -0.09329604, -0.12093047, -0.010226481, 0.083487846, -0.058120407, -0.0918798, 0.016896436, 0.033430234, -0.010018645, 0.0888662, 0.062683955, 0.015543132, 0.0021908479, 0.12970856, -0.010472356, 0.008694861, -0.010306007, 0.10143609, -0.022916995, 0.2017945, -0.18213408, 0.086791515, -0.020873766, -0.04086456, 0.01760736, 0.05239275, 0.060098708, 0.020812517, 0.020306677, -0.13030994, -0.22700903, -0.16806638, -0.10013339, -0.045586362, -0.030542135, -0.07064776, 0.09920417, 0.0895217, -0.034932606, -0.002018259, 0.11736376, -0.012244675, -0.10266937, -0.034071486, -0.06932536, -0.050989058, -0.108634934, 0.032402027, 0.01235629, 0.12485021, 0.10114712, -0.11309403, 0.061189234, -0.12778771, 0.06871759, 0.051659353, -0.03245898, 0.10873146, -0.04394945, 0.13705805, 0.14804126, -0.09040322, -0.0003920765, -0.014531264, -0.00026042754, 0.09836189, -0.04868036, 0.046247225, 0.009695238, -0.076585755, -0.04635766, 0.001781839, 0.14646634, -0.073123366, -0.08951842, -0.21413334, 0.05280315, -0.11810239, 0.064413615, 0.033635087, 0.014919294, -0.14051774, 0.036551673, -0.035177357, -0.03683614, 0.026241653, 0.10265925, -0.05629277, 0.020840712, 0.21036856, 0.022971429, 0.062126026, -0.1182986, -0.15231846, -0.012668393, 0.08414788, -0.04083333, 0.04260346, 0.055949308, 0.12634589, 0.11801146, 0.03617666, -0.09259889, 0.038296692, 0.03215747, -0.011928551, 0.1409415, -0.056502957, 0.035365388, 0.03171297, 0.014173822, -0.20108268, 0.10681314, 0.091895916, -0.12783684, -0.0711246, -0.0687341, -0.12702197, 0.0844024, 0.059114907, -0.11847067, -0.074439615, 0.08816954, -0.13884957, 0.07820105, 0.05639108, -0.010540698, -0.18427573, 0.09947555, 0.030576766, -0.010379596, -0.08456725, -0.024454013, -0.00061094004, -0.05056727, -0.1961515, 0.006040562, 0.0020148903, -0.042550225, 0.10296328, 0.017475655, -0.10006401, 0.060088407, -0.08093262, 0.10687563, 0.14114203, 0.042127926, 0.016956734, 0.18282233, 0.11127948, -0.003915822, -0.0014316401, 0.14998835, 0.047639377, 0.11801585, -0.008406116, -0.028252896, 0.14232108, 0.034587473, -0.121482, 0.098863296, 0.039594214, 0.117771, 0.030007973, 0.009370564, -0.059364013, -0.11783038, 0.13200706, 0.04393261, -0.17708015, -0.031491544, 0.06716346, 0.059746467, 0.025281686, -0.049094852, 0.012573308, 0.2153879, 0.040179536, 0.041609433, -0.018443132, 0.004544462, 0.10602708, 0.17163579, -0.02534569, -0.02087796, -0.057247516, 0.019516952, 0.0069311317, 0.01475211, -0.06366175, 0.0766113, 0.03117539, -0.15822464, 0.015148072, -0.00569219, 0.004030115, -0.09636662, 0.15470643, -0.030709194, -0.055775046, 0.081481256, 0.14992294, -0.012727632, -0.12118901, 0.029165085, 0.0021408463, 0.064406164, -0.13544065, 0.07177347, -0.11995306, 0.12047748, -0.077949226, 0.0035545647, -0.031261623, -0.0019787923, -0.036101542, 0.20303312, 0.15745983, -0.019196235, -0.09188875, 0.015196925, -0.019316748, -0.047681186, -0.111384384, 0.09874791, -0.03700011, 0.03267118, 0.10478586, -0.0780486, -0.10918022, -0.100931875, 0.0009684975, -0.017966326, -0.011733307, -0.136929, 0.0203481, 0.05659937, -0.15807027, -0.023987327, 0.039574705, -0.057253316, 0.059121877, 0.2831878, -0.06938726, -0.04115708, -0.019731034, -0.075854555, 0.004464894, -0.0020474568, 0.03215707, -0.05398187, 0.07799037, -0.027818775, 0.073156305, 0.100184605, 0.15281054, -0.047811624, 0.018897865, 0.14522204, 0.095917255, 0.16208418, 0.021593085, 0.006429072, -0.06266328, -0.06263415, 0.09690724, -0.23958309, 0.04341378, -0.050123252, -0.21890302, -0.022161327, -0.032450564, -0.07703212, -0.019387623, -0.03406995, -0.09632033, -0.010601863, 0.0076679643, 0.07994868, -0.14542285, -0.036466405, 0.1379615, -0.0134450495, 0.06518349, 0.14735737, 0.0077793454, -0.0049474468, -0.09903752, 0.14283356, -0.071545586, -0.09550455, -0.07874948, -0.06809779, -0.069978654, -0.019593269, -0.02409484, 0.05292501, -0.1338651, 0.03706614, -0.0041762777, 0.007662235, -0.0145649165, 0.15559177, -0.08229656, 0.028514922, 0.07320774, -0.010445973, 0.08269431, 0.0023146253, -0.07415801, -0.0045674467, -0.21232745, 0.03872349, 0.041081287, -0.04188474, 0.06753898, 0.035791293, 0.11271155, 0.089950055, -0.035300117, -0.17341468, 0.013487184, 0.07529318, 0.031683482, -0.038103495, -0.044712525, -0.015236062, 0.07331931, 0.0027311984, 0.18521263, 0.023535736, -0.01880624, 0.21406674, -0.09257462, 0.10879614, 0.021198789, 0.004851213, -0.054468956, 0.08305653, 0.012495004, -0.045525767, 0.11423968, -0.041793678, 0.033139598, 0.037828285, -0.021111863, 0.059291586, 0.076423064, -0.09799379, 0.16437449, 0.019661866, -0.03138571, -0.010924326, -0.052748118, 0.21236521, -0.032435026, -0.024219485, 0.06331178, 0.048213355, -0.10775827, 0.10095343, 0.023482107, 0.082501166, 0.14102696, -0.009474759, 0.0012695637, -0.18456498, 0.019734928, -0.023439068, 0.0254763, -0.06722674, 0.04550902, -0.0802689, 0.012244844, -0.010605846, 0.17532724, 0.060489684, 0.091855235, 0.0637166, -0.053266563, -0.008459581, 0.0050843707, 0.09624364, -0.07831515, -0.046432737, 0.13402656, 0.011724485, -0.09041213, 0.08232173, 0.06886276, -0.057533175, -0.13487174, -0.03460693, -0.1072952, 0.035073433, -0.14942433, -0.021787947, 0.12009827, 0.09857549, 0.11846656, 0.0068917507, 0.10150304, -0.07458262, 0.07437839, -0.10676676, 0.086834334, -0.07374241, -0.028660677, 0.19013473, -0.20692298, -0.10470341, -0.10143121, 0.018249225, 0.1863706, 0.006541003, 0.09222158, 0.16161394, -0.026786566, 0.021388799, -0.12956183, -0.008445883, -0.007665062, 0.073372364, 0.07685365, -0.01831414, 0.0449661, -0.06443492, -0.3125294, 0.0107237995, 0.04643859, -0.043905254, -0.16092892, -0.03743354, 0.030131929, 0.04951927, -0.085914806, -0.038841974, 0.056996223, -0.0029637632, -0.16711682, 0.10602633, -0.09394218, -0.16347913, -0.023518685, -0.06817163, 0.026345545, 0.0038886808, -0.1126831, -0.07685157, 0.015046573, -0.04010087, 0.023573104, -0.054975204, 0.027817508, 0.21100387, 0.013881997, -0.06763895, 0.0024902516, 0.007782625, 0.08245636, 0.08665113, 0.045828577, 0.1773525, 0.0049924725, -0.075733624, 0.047653366, -0.0059268796, -0.048215367, 0.01465216, 0.06821358, -0.022817034, -0.12517992, -0.0171966, 0.020693813, 0.011435351, 0.15766688, -0.07221762, -0.0012919451, 0.07795216, 0.08560581, -0.05193719, -0.06274197, -0.07078327, 0.02997317, 0.19175832, -0.028959073, -0.0316685, -0.07364626, -0.065496065, 0.083511725, 0.052638546, -0.056119334, -0.20099494, 0.076399595, 0.10978265, 0.04326831, -0.014238577, 0.05367881, -0.017753202, -0.08105386, 0.04099336, 0.11774824, -0.12937555, -0.037674308, -0.012570662, -0.07994222, 0.16877343, -0.11980755, 0.032591708, -0.0873328, 0.054691106, -0.09810637, 0.15359856, 0.033936843, -0.1188779, 0.029366242, 0.06293076, -0.16216406, 0.07242377, 0.06104026, 0.09944851, -0.0021651876, 0.096857965, 0.013386615, -0.17161168, 0.0005671665, 0.0149787245, -0.13074122, 0.004145313, -0.080638915, -0.07425487, 0.0545113, 0.07252512, 0.08127411, 0.018271027, 0.061045807, -0.018410103, -0.10847399, 0.05914388, -0.0018988308, 0.049783092, 0.124030635, -0.05998372, -0.11256223, 0.11813354, 0.0053948485, -0.19737877, 0.19024074, -0.0023509797, 0.04654331, 0.097976856, -0.07214277, 0.04057603, 0.124177806, 0.13198428, 0.050090723, 0.023105951, -0.009984538, -0.028259344, -0.1849245, 0.019128287, -0.0885462, 0.041303966, -0.07124384, 0.020948198, -0.07325004, 0.076647766, -0.121573195, -0.062136352, -0.055149596, -0.17152414, 0.077997275, 0.18848692, -0.066531084, -0.02885291, 0.091314115, 0.031338565, -0.0010554288, -0.029937733, -0.013711771, -0.04447011, -0.18816069, 0.094258435, -0.047011103, -0.036531385, -0.071489066, -0.018180108, 0.062299564, 0.013144009, -0.015370878, -0.007973819, -0.03403525, -0.0135965645, -0.037005097, 0.12444688, -0.17705983, -0.077564664, 0.10561963, 0.0022570866, 0.1357766, -0.025386881, -0.02520574, -0.089776024, 0.03400947, 0.016470399, -0.09725821, -0.029584326, -0.13063768, -0.082350865, 0.042517796, 0.16105354, -0.09118586, 0.0007217653, 0.02376294, -0.12388051, -0.028158935, -0.0381704, -0.10357216, 0.13810669, 0.109961, 0.038955964, -0.19567288, -0.031021636, -0.06570384, 0.023949265, 0.019865917, -0.1189281, -0.08510615, 0.038791716, 0.18292488, 0.08687283, 0.041712902, -0.064184256, -0.037043177, -0.034597933, 0.040043086, 0.10311108, -0.11012237, -0.015370732, -0.027968649, -0.06739148, -0.05310166, -0.07084668, -0.037199296, 0.07078939, 0.22239113, 0.095209606, -0.06864525, -0.0076553435, 0.017529866, -0.044594366, -0.06290349, 0.12836084, -0.118851565, -0.011470684, -0.10268311, -0.11732451, 0.077533916, 0.02064344, 0.05057182, 0.013685991, -0.0071564224, -0.048526347, 0.058842916, -0.03452246, -0.062850185, 0.123971164, 0.09291724, -0.029055716, 0.04345785, 0.059001755, -0.0024908343, -0.08801379, -0.09120196, -0.10076882, -0.041331, 0.01745337, -0.13233879, 0.15921265, 0.008115993, 0.07857032, -0.23762487, -0.06807824, 0.02561685, 0.1213644, -0.007962928, -0.079744875, -0.01978051, -0.18539026, -0.11431645, 0.045480713, -0.04106001, -0.07376044, -0.08504676, -0.19217066, -0.019884134, -0.046705395, 0.07993128, -0.062830195, 0.14538564, -0.10536992, -0.016503261, -0.05540294, 0.09894786, -0.07284465, -0.0038517348, 0.042723067, 0.0022341996, -0.03298468, -0.167257, 0.025469339, -0.09331106, -0.036021873, 0.11500276, -0.029116508, -0.123046204, 0.05981097, 0.05975053, -0.20286036, -0.0648557, -0.25805217, 0.059138685, 0.028106121, -0.06360198, 0.0549598, 0.08957063, -0.050788715, 0.0034941763, 0.06054553, -0.10608012, 0.019215431, 0.021864131, -0.037291557, -0.10425578, -3.0873576e-05, -0.05153355, -0.15880054, 0.12822823, -0.10816148, 0.020220261, -0.026960341, -0.11357564, -0.0188412, 0.11254828, 0.045409933, 0.042204667, -0.06515521, -0.08007189, 0.038251765, -0.058691636, -0.1668385, -0.036785234, -0.054947246, -0.060761064, 0.04064903, 0.04885934, 0.16533989, -0.0025087125, -0.05547188, -0.101741455, -0.15814994, 0.11136616, 0.0024619044, -0.121680155, -0.075889334, 0.06592811, -0.09485344, -0.054842174, 0.06400326, -0.003391791, -0.16392344, 0.11065831, 0.15455666, 0.045826044, -0.116501495, 0.047229115, 0.036025748, 0.13673247, 0.17372109, 0.051578246, 0.031145744, -0.1330063, -0.023487652, -0.0008502217, -0.059415206, 0.07480149, 0.04620789, -0.14905302, 0.017260041, -0.03560285, -0.020076081, -0.035919808, 0.0036456655, 0.14000323, -0.06682578, -0.10069113, 0.055113744, 0.10420399, 0.07843541, 0.05711216, -0.11757426, 0.090390146, 0.09946001, 0.071107715, 0.09992183, 0.023005612, -0.06329881, 0.1536517, -0.027450994, -0.16480424, 0.17639649, -0.015277893, 0.06495405, -0.10463696, -0.1738295, 0.07229921, -0.095100254, 0.056984387, 0.04506155, -0.020435126, 0.017737426, -0.083226115, -0.028884407, -0.08180698, 0.070813924, 0.11944475, -0.08843695, -0.030958178, 0.060187407, 0.033673264, -0.012092086, -0.019134779, -0.06152387, -0.010585872, -0.08614282, 0.06402582, -0.06003611, -0.07299967, 0.11347998, -0.03571806, 0.119833864, 0.020215973, 0.036138892, 0.0548214, -0.04011368, -0.025719754, 0.0078000566, 0.04398249, 0.06377936, 0.047350284, 0.08892847, 0.05533061, -0.029664718, -0.11937759, -0.07646408, 0.20433098, -0.077047944, 0.14070185, -0.1208449, 0.035265382, 0.121378645, -0.1463341, 0.12005187, 0.22700101, -0.0771859, -0.062058803, -0.02554692, -0.10038305, -0.0047617164, 0.012027256, 0.04651562, -0.12998337, -0.088601105, 0.08807992, -0.002190692, 0.005519883, -0.086115986, 0.15059274, 0.09410681, 0.070350714, 0.24083912, -0.02727178, -0.037948288, 0.0827165, -0.00416479, 0.05865475, -0.06755324, -0.0333155, -0.074287035, 0.16543841, 0.10365793, -0.0023384173, 0.15670021, -0.03110688, -0.0051644137, 0.12283529, -0.30813694, -0.08988524, 0.06584622, -0.01019202, -0.044211213, -0.011737023, 0.016753456, 0.09040134, -0.07171319, -0.0006877226, 0.044344995, 0.014363496, -0.14342202, 0.052815873, -0.047962353, -0.022300137, 0.007380673, -0.024508048, 0.054368638, -0.02446432, 0.102430806, -0.06202098, 0.09259995, -0.019322194, 0.14863755, 0.0018778768, -0.069871284, 0.26765686, 0.17500462, -0.03351997, -0.011743815, -0.075157486, -0.119243, -0.010222079, -0.044445537, -0.09689693, 0.10959699, 0.0071782665, -0.078558005, 0.0045913574, 0.033595566, -0.1562986, 0.04355546, -0.05161014, 0.049100127, 0.16802904, -0.013338735, 0.06462728, -0.017678143, -0.025696864, -0.09021794, -0.08624015, 0.028579501, 0.108629264, -0.04649732, -0.099627726, -0.023261312, -0.1093291, 0.058668666, 0.04560303, -0.07055815, 0.0038104972, -0.08919023, 0.07753018, -0.04869553, 0.120674945, -0.068242654, 0.03099749, 0.0741725, 0.01976397, 0.03750179, -0.09877309, 0.08730319, -0.023761854, 0.052619014, 0.0116033275, 0.09284981, 0.13485414, 0.07684222, -0.2342641, 0.09584397, 0.09182819, -0.07864259, -0.06291252, -0.06362208, 0.10127733, -0.0073529524, -0.045892544, 0.0020844683, 0.006692109, -0.056085974, -0.056305166, 0.09698802, -0.018159075, 0.019441273, 0.008119644, -0.078295186, -0.022275187, 0.06329356, -0.012545444, -0.07002176, 0.106448755, 0.061455753, -0.07433612, -0.20500518, 0.09977392, 0.056378722, -0.051861063, -0.06709272, 0.011329367, -0.02514888, 0.021405192, 0.046693522, -0.010474592, -0.02519133, -0.2219735, -0.08946055, 0.13185814, -0.16186959, 0.030740656, 0.12556049, 0.02078401, -0.10062656, -0.14431316, -0.09810618, -0.12072584, 0.034421895, 0.071562804, -0.10664027, -0.014221708, 0.025137689, 0.008702079, 0.084384985, 0.016953483, 0.029410513, 0.042664748, 0.10654019, 0.14364229, 0.11370431, -0.14047702, -0.049729332, -0.027534181, -0.0011677294, 0.036635272, 0.16334835, -0.086982735, -0.18386154, -0.03161191, 0.048314262, -0.013410916, -0.1650444, -0.01586333, 0.040055323, 0.10256244, 0.008237574, -0.093224965, 0.061119374, 0.04128929, 0.0071361703, -0.017244352, 0.08056427, -0.11464264, 0.13039242, -0.018434457, 0.1367193, 0.1149344, 0.1296685, 0.05697104, -0.09034543, -0.11841854, 0.029717047, -0.02208886, -0.06393334, 0.09454647, 0.006106953, 0.1878625, 0.023553768, -0.006245596, 0.054358546, -0.0076878224, 0.061726507, 0.082994215, -0.026587298, 0.024302106, -0.1675039, -0.0031166198, 0.12868527, -0.14296104, 0.034091588, -0.09331752, 0.02390627, -0.23790576, -0.12668985, -0.04602812, -0.05782344, -0.18365763, 0.040900026, -0.043458812, -0.04479347, -0.0768696, -0.0019480855, 0.085389115, 0.11440172, -0.007988529, -0.012138411, -0.13009414, -0.037608244, -0.00030530296, -0.07663904, 0.064606324, -0.013858891, 0.10884452, -0.1878857, -0.02486488, 0.04786005, 0.0156136155, 0.11236014, -0.07147638, 0.036245424, -0.08100123, -0.057379637, -0.005984907, -0.0072617014, 0.041561, -0.08239285, 0.01884806, 0.058994375, 0.09190834, -0.009738185, -0.07307938, -0.0692196, 0.01145494, 0.04094939, -0.2031208, 0.06416495, -0.1122915, 0.06283646, 0.08510529, 0.13663471, -0.13112748, -0.101285234, -0.032400485, -0.073848985, -0.029628227, -0.043622557, -0.0050018164, -0.07615148, 0.1385397, -0.12245872, 0.0064228037, -0.046058346, -0.15651752, 0.10276799, 0.14800566, 0.12901987, -0.08510615, 0.17388704, -0.07132914, -0.011521167, 0.11264854, 0.0013176055, 0.051027305, 0.08566655, 0.070968024, 0.03095554, 0.06686019, -0.09418177, 0.037816178, -0.19004148, 0.111819014, 0.07326709, -0.021574436, -0.059372466, 0.12037269, 0.08635389, -0.083021946, -0.02303628, -0.14524257, -0.19564943, 0.06212955, 0.11841364, 0.06136735, -0.08721946, 0.12874395, 0.06907707, -0.038968645, 0.05797419, 0.14920987, -0.0012302537, -0.08316873, -0.07095983, -0.054745585, -0.122802526, 0.03531919, 0.038132995, 0.02450323, -0.0139916465, -0.062377065, -0.058784366, -0.079262204, -0.03463361, -0.024224306, 0.06356063, 0.050928377, -0.04401814, 0.0826689, -0.12090332, 0.055711485, 0.12586932, 0.039951924, -0.057278514, 0.020390974, 0.0057747094, 0.13940492, -0.0664442, -0.0073233023, 0.09173322, -0.005654808, -0.037769295, 0.008497498, -0.0038907875, -0.11833827, -0.04492945, 0.028346304, -0.22903223, -0.05028841, 0.04303745, 0.04886142, 0.07206046, -0.093338065, -0.17352243, 0.13303562, -0.02587335, 0.022117887, -0.06362054, 0.01308536, -0.11751624, 0.03307321, -0.13385065, 0.0078567695, -0.04239676, -0.09517399, -0.06328564, -0.17326304, 0.11055982, -0.026571468, 0.0858197, -0.2074287, 0.1389569, 0.057742324, 0.03450287, -0.067049645, 0.035082556, 0.08079283, 0.16098227, -0.067603305, 0.09679493, 0.003785921, 0.05227377, 0.005322325, 0.0567617, 0.00978585, 0.060796686, -0.000163053, -0.1900123, 0.03560945, 0.026060367, 0.090567224, 0.07389494, -0.09604172, -0.0016948255, -0.06600003, -0.09408321, -0.13891155, -0.009013391, 0.06747652, 0.041681398, -0.055455748, -0.06910328, 0.0778601, 0.012355869, 0.077704616, 0.036912818, 0.067114405, -0.00030552014, 0.065050386, -0.009514205, 0.023040993, 0.22452061, -0.012170864, 0.015678452, -0.15093742, -0.008934888, -0.08695498, -0.048975118, -0.013418299, 0.023415407, -0.027421866, 0.059810024, 0.006699884, -0.03667777, -0.05588918, -0.07138543, -0.07626995, -0.041977443, 0.04229891, 0.04400654, -0.05080373, 0.10171448, -0.0011255803, -0.0039478755, 0.16286384, 0.009664116, 0.009361754, -0.053159714, 0.18715079, 0.07037544, 0.044016514, -0.14600281, -0.16061957, 0.1053498, 0.047726586, 0.030305425, 0.032323368, 0.1892003, 0.01139517, 0.098158, 0.080825396, 0.1629364, 0.045535892, 0.040914733, 0.06158838, 0.038831495, -0.05262689, 1.75957e-05, 0.21876253, -0.10224219, 0.009438204, 0.019639656, 0.17308074, 0.032717, 0.11328115, -0.0059915986, -0.10297571, 0.01676987, -0.056272577, -0.007110401, 0.09627206, -0.0878446, -0.04006967, 0.11253658, 0.05381172, -0.062420726, -0.07885894, 0.024170617, -0.035928585, 0.062861376, -0.01953657, -0.07613718, -0.045029428, -0.122047946, 0.093341246, -0.0034498228, 0.05017812, 0.11074433, 0.02351559, -0.01251449, -0.035162218, -0.0629189, -0.088558406, 0.035835434, 0.047322426, 0.0029273166, 0.12842673, -0.2815134, 0.051679377, -0.03720572, -0.0012437387, -0.009205146, 0.0807501, 0.017153151, 0.1934765, -0.12563273, 0.14302152, 0.13227142, -0.079322025, 0.1311411, 0.07849014, -0.11425633, -0.20370202, 0.069600835, 0.06913844, -0.18074194, -0.097642355, 0.008287095, -0.1578661, 0.08547695, -0.06650706, -0.0091686975, 0.022415074, 0.044537593, 0.082718335, 0.03289672, 0.11781547, -0.067110494, 0.028071837, 0.09565459, 0.0415624, 0.0583675, -0.04471921, -0.055426862, -0.052850965, -0.0021475751, -0.031944875, 0.17306949, -0.03139695, -0.007112717, -0.025982859, -0.06917639, -0.0055253683, 0.085106745, 0.099979624, 0.075109586, -0.0025326423, 0.07125532, -0.07540334, -0.17353527, 0.093672186, -0.014027527, -0.10874167, -0.03731798, -0.07840069, -0.058399677, -0.03138398, -0.004668952, 0.009861264, -0.019013524, -0.1539999, 0.10461073, -0.045839977, -0.08725536, 0.074925855, 0.1023788, 0.09088797, 0.059805915, 0.007907031, 0.026233315, 0.03160961, -0.05409544, 0.057945337, 0.073892295, 0.1285224, -0.007937328, -0.0016963198, -0.06543395, -0.03662344, 0.008675514, 0.08467493, -0.0015853506, -0.025340708, -0.06581012, 0.09670608, -0.026074983, -0.013577612, -0.14340663, -0.09404234, -0.05063069, -0.027709942, -0.07901141, 0.04237699, 0.10065289, -0.032774676, -0.024271341, 0.080559924, 0.109907545, 0.06577127, -0.017995935, -0.044576716, 0.046342447, 0.017281933, 0.13273789, -0.09564129, -0.22467099, -0.028313655, -0.06787017, -0.10533248, -0.08980334, 0.048579898, -0.023520699, -0.0802716, 0.24094194, 0.06327063, -0.008022142, -0.06290303, 0.020312194, 0.078148134, -0.013366604, -0.15107578, 0.0054409415, -0.14712223, 0.11090129, 0.09395951, -0.013764918, -0.05912646, -0.09839267, -0.14718448, 0.01681716, -0.1114086, 0.0056426586, -0.031822346, 0.18865219, -0.14586803, -0.063264035, -0.0051673925, 0.2002375, 0.17685626, -0.20601144, 0.13837315, 0.12060991, 0.131816, 0.025904872, 0.015906688, -0.013075216, 0.17401434, -0.07429498, 0.036689468, 0.030187996, -0.04780256, -0.0005887722, -0.08516549, 0.01975373, 0.034919962, -0.050569836, -0.053704888, -0.018876217, 0.087627806, 0.09535734, 0.013696194, -0.16066608, 0.11446161, -0.08811976, 0.10744193, 0.017534604, 0.17199555, -0.039238244, -0.0895483, -0.07448168, -0.123339884, -0.005964172, 0.008461358, 0.103537396, 0.051253904, 0.07956791, 0.03146262, 0.13598903, 0.03277447, -0.112322815, 0.08425219, 0.060479008, 0.015373707, 0.077045, 0.19708513, 0.072369136, -0.016718594, 0.06384117, 0.10493304, 0.06431215, 0.080945395, -0.08980084, 0.11815053, 0.12489628, -0.061286256, -0.130652, 0.078812815, 0.035264317, 0.06683864, -0.28601122, -0.013459043, 0.0234675, -0.005425797, 0.013010634, -0.04245414, -0.077965245, -0.1943996, -0.048876032, 0.06744026, 0.06616785, -0.028021641, 0.022114951, -0.19175446, 0.21749806, 0.08625565, -0.02462563, 0.024085809, 0.07595458, 0.09373655, -0.2175011, -0.07383685, 0.005387243, 0.0035348213, 0.16481252, -0.02635495, 0.0056051235, 0.030011382, -0.08872746, 0.11859138, -0.074692436, -0.061386913, -0.0701601, 0.031350985, -0.047092594, -0.03651598, -0.049308013, -0.04798901, 0.04456916, 0.063147955, 0.04223463, -0.10296, -0.025184574, 0.0075489585, -0.052499335, 0.02296206, -0.026600748, 0.08654563, -0.14284493, -0.068375014, 0.046285916, -0.025265485, -0.1278909, 0.058302455, -0.01724021, -0.12474832, 0.015500893, 0.008605164, 0.012224131, -0.009596101, -0.14750193, 0.1508066, 0.020964794, -0.12135868, 0.119229116, 0.070210084, 0.048091207, 0.06468812, 0.085698664, 0.12143133, 0.097994305, -0.106003754};
#endif

#endif
