//Numpy array shape (128,)
//Min -0.001291482127
//Max 1.000002980232
//Number of zeros 0

#ifndef LSTM_13_H_
#define LSTM_13_H_

#ifndef __SYNTHESIS__
model_default_t lstm_13[128];
#else
model_default_t lstm_13[128] = {3.5585465e-05, 2.3742949e-05, -1.8843315e-05, 5.619494e-06, -7.433135e-06, 1.3321711e-05, -6.9479433e-06, 4.6340425e-05, 2.3623402e-06, -3.4388818e-06, -1.6733743e-06, -4.319044e-06, 2.3470957e-05, -7.804968e-06, 5.093088e-06, -1.696672e-05, 1.2914663e-05, -4.176234e-05, 1.0819046e-05, -7.249972e-06, 3.0289337e-07, 5.337681e-06, 2.5124293e-06, -2.8812235e-07, 1.7050666e-06, -5.3488484e-06, 1.1023815e-05, 3.3272474e-05, 3.0444342e-06, 1.0489658e-06, -1.8451815e-06, 1.8848565e-06, 1.000002, 1.0000013, 0.99999774, 1.0000007, 1.0, 1.000001, 0.9999999, 1.000003, 1.0, 0.99999994, 0.9999995, 1.0, 1.0000015, 1.0000001, 1.0, 0.99999917, 1.0000005, 0.99999714, 1.0000007, 0.99999964, 1.0, 1.0000001, 1.0000001, 1.0, 1.0, 1.0, 1.0000004, 1.0000021, 1.0, 1.0, 1.0, 1.0000001, -0.0012914821, -0.0008410167, -0.0008505458, 4.413299e-05, -0.0007085766, -0.00058528833, 0.00028416188, 0.0009425299, 0.0001403189, -5.56355e-05, -3.8695566e-06, 0.0001292477, -0.00045423704, -0.000714441, -0.00046919912, -0.00031991975, 0.0008412481, 0.00084498577, 0.00055240456, -0.00013708505, -0.00032355354, 0.0002658509, -0.00010174019, -2.8463846e-05, -0.00023301234, 0.0001201193, -0.00068763184, 0.00040552576, 0.00011429277, 5.743438e-05, 8.878864e-05, 0.0008647251, 3.670326e-05, 2.4557557e-05, -1.795436e-05, 5.9395325e-06, -7.2542302e-06, 1.31366905e-05, -7.145965e-06, 4.5231965e-05, 2.445914e-06, -3.4499024e-06, -1.2404588e-06, -3.916301e-06, 2.2404643e-05, -7.727851e-06, 5.0423055e-06, -1.7438875e-05, 1.30093185e-05, -3.8949736e-05, 1.0679142e-05, -7.7860395e-06, 2.5296893e-07, 4.9000214e-06, 2.508131e-06, -2.9564518e-07, 1.6894369e-06, -5.5174905e-06, 1.0797154e-05, 3.504592e-05, 3.1538907e-06, 1.0929443e-06, -1.9004324e-06, 1.8430992e-06};
#endif

#endif
