//Numpy array shape (128,)
//Min -0.001291482127
//Max 1.000002980232
//Number of zeros 0

#ifndef LSTM_13_H_
#define LSTM_13_H_

#ifndef __SYNTHESIS__
model_default_t lstm_13[128];
#else
model_default_t lstm_13[128] = {0.0000, 0.0000, -0.0000, 0.0000, -0.0000, 0.0000, -0.0000, 0.0000, 0.0000, -0.0000, -0.0000, -0.0000, 0.0000, -0.0000, 0.0000, -0.0000, 0.0000, -0.0000, 0.0000, -0.0000, 0.0000, 0.0000, 0.0000, -0.0000, 0.0000, -0.0000, 0.0000, 0.0000, 0.0000, 0.0000, -0.0000, 0.0000, 1.0000, 1.0000, 1.0000, 1.0000, 1.0000, 1.0000, 1.0000, 1.0000, 1.0000, 1.0000, 1.0000, 1.0000, 1.0000, 1.0000, 1.0000, 1.0000, 1.0000, 1.0000, 1.0000, 1.0000, 1.0000, 1.0000, 1.0000, 1.0000, 1.0000, 1.0000, 1.0000, 1.0000, 1.0000, 1.0000, 1.0000, 1.0000, -0.0013, -0.0008, -0.0009, 0.0000, -0.0007, -0.0006, 0.0003, 0.0009, 0.0001, -0.0001, -0.0000, 0.0001, -0.0005, -0.0007, -0.0005, -0.0003, 0.0008, 0.0008, 0.0006, -0.0001, -0.0003, 0.0003, -0.0001, -0.0000, -0.0002, 0.0001, -0.0007, 0.0004, 0.0001, 0.0001, 0.0001, 0.0009, 0.0000, 0.0000, -0.0000, 0.0000, -0.0000, 0.0000, -0.0000, 0.0000, 0.0000, -0.0000, -0.0000, -0.0000, 0.0000, -0.0000, 0.0000, -0.0000, 0.0000, -0.0000, 0.0000, -0.0000, 0.0000, 0.0000, 0.0000, -0.0000, 0.0000, -0.0000, 0.0000, 0.0000, 0.0000, 0.0000, -0.0000, 0.0000};
#endif

#endif
