//Numpy array shape (128, 1)
//Min -0.688286840916
//Max 1.001553654671
//Number of zeros 0

#ifndef LSTM1_H_
#define LSTM1_H_

#ifndef __SYNTHESIS__
model_default_t lstm1[128];
#else
model_default_t lstm1[128] = {0.147267147898674, 0.08606012165546417, -0.12242559343576431, -0.15585969388484955, 0.21300658583641052, 0.4554665982723236, 0.7100425958633423, 0.18847209215164185, 0.2531435191631317, 0.16275833547115326, -0.13237382471561432, 0.8857197761535645, 0.31203019618988037, 0.4285033643245697, 0.004271163139492273, 0.41718390583992004, 0.020290393382310867, -0.05878271907567978, -0.3745864927768707, 0.09527359902858734, 0.3267876207828522, -0.05440615862607956, 0.43688130378723145, -0.0006106813671067357, 0.2718166410923004, 0.17358070611953735, 0.29802918434143066, -0.2527472972869873, -0.24289654195308685, 0.096978560090065, -0.010634827427566051, 0.3141731321811676, 0.006135741714388132, -0.1353706419467926, 0.26225146651268005, 0.04884118586778641, 0.0800057053565979, -0.08935578912496567, 0.17645636200904846, -0.06408433616161346, 0.3202427625656128, -0.0709567591547966, 0.005463941488415003, 0.9730008840560913, 0.6708077192306519, 0.00010815192217705771, -0.12651921808719635, 0.08201301842927933, 0.11715035140514374, 0.08644487708806992, -0.11732985824346542, 0.20047281682491302, 0.4119693636894226, -0.0046456647105515, 0.06385193765163422, -0.6882868409156799, -0.0719764456152916, 0.163345605134964, 0.2480642944574356, 0.14761760830879211, -0.10642456263303757, 0.004247857257723808, -0.02586408518254757, -0.3942149877548218, 0.09972171485424042, 0.090286985039711, 0.002652857918292284, -0.11081702262163162, 0.13545732200145721, 0.44964584708213806, -0.14755472540855408, -0.13996319472789764, 0.002151214051991701, 0.19216609001159668, 0.06800127029418945, 1.0015536546707153, 0.4424954056739807, -0.18281574547290802, 0.0011688206577673554, 0.25881853699684143, -0.1146276444196701, 0.12129058688879013, -0.27297937870025635, -0.017626160755753517, -0.1846437007188797, 0.2076338231563568, -0.25240111351013184, -0.1185859888792038, 0.31563863158226013, 0.07753030210733414, 0.08155884593725204, -0.1271752417087555, -0.19994454085826874, 0.05176997184753418, -0.019159821793437004, 0.1723368763923645, 0.23655827343463898, 0.4456998407840729, 0.3456741273403168, -0.3586241602897644, 0.3922382891178131, 0.41593989729881287, -0.12404818087816238, 0.19888471066951752, 0.5009140372276306, 0.29994046688079834, 0.023570287972688675, 0.9186441898345947, 0.39977747201919556, 0.03481987491250038, 0.2952067255973816, 0.6666743159294128, 0.30179810523986816, 0.022297021001577377, 0.09249374270439148, 0.37230002880096436, 0.7505092024803162, 0.2748171091079712, 0.29437392950057983, 0.14419467747211456, 0.416566401720047, -0.04529768228530884, 0.6020554900169373, 0.08800876140594482, 0.21158264577388763, 0.05577152594923973, 0.10494527965784073, -0.186141237616539};
#endif

#endif
