//Numpy array shape (64, 1)
//Min -1.912169933319
//Max 0.609985947609
//Number of zeros 0

#ifndef TIME_DISTRIBUTED_KERNEL_H_
#define TIME_DISTRIBUTED_KERNEL_H_

#ifndef __SYNTHESIS__
model_default_t time_distributed_kernel[64];
#else
model_default_t time_distributed_kernel[64] = {0.2183281034231186, -0.025859562680125237, 0.2696533501148224, 0.05255484953522682, 0.14073903858661652, 0.31665968894958496, -0.343130499124527, 0.1679169088602066, -0.05097060278058052, 0.22440561652183533, -0.27559366822242737, 0.3418748676776886, -0.40454521775245667, -0.2106209099292755, -0.27879709005355835, 0.3437522351741791, 0.2653285264968872, 0.1780889630317688, -0.06886201351881027, -0.004689026158303022, -0.3362553119659424, -0.09201683104038239, -0.18184669315814972, 0.08835155516862869, -0.1382296234369278, -0.3788987100124359, -0.01229812204837799, -0.28910768032073975, 0.019941039383411407, -0.2204151302576065, -0.21752414107322693, 0.22471095621585846, 0.023981910198926926, 0.4128628075122833, -0.35500219464302063, -0.37067633867263794, 0.6099859476089478, 0.3895079791545868, 0.36120912432670593, -0.29148468375205994, 0.24221782386302948, 0.23566970229148865, 0.08403278142213821, -1.9121699333190918, 0.42350560426712036, 0.21999752521514893, 0.4196423292160034, -0.15266869962215424, 0.12782160937786102, 0.2785803973674774, 0.07203197479248047, -0.5999084711074829, -1.3074588775634766, -0.2507593333721161, -0.1453774869441986, -0.10453876107931137, 0.22076666355133057, 0.21345503628253937, -0.1256198137998581, 0.2953949570655823, -0.02304968237876892, -0.04415110871195793, 0.4046851694583893, -0.5120667815208435};
#endif

#endif
